{"learner":{"attributes":{"scikit_learn":"{\"_estimator_type\": \"regressor\"}"},"feature_names":["generation biomass","generation fossil brown coal/lignite","generation fossil coal-derived gas","generation fossil gas","generation fossil hard coal","generation fossil oil","generation fossil oil shale","generation fossil peat","generation geothermal","generation hydro pumped storage consumption","generation hydro run-of-river and poundage","generation hydro water reservoir","generation marine","generation nuclear","generation other","generation other renewable","generation solar","generation waste","generation wind offshore","generation wind onshore","forecast solar day ahead","forecast wind onshore day ahead","total load forecast","total load actual","price day ahead","temp","temp_min","temp_max","pressure","humidity","wind_speed","wind_deg","rain_1h","rain_3h","snow_3h","clouds_all","weather_id","weather_main_clear","weather_main_clouds","weather_main_fog","weather_main_mist","weather_main_other","weather_main_rain","weather_description_broken clouds","weather_description_few clouds","weather_description_light rain","weather_description_other","weather_description_scattered clouds","weather_description_sky is clear","hour","dayofweek","day","month","quarter","year","dayofyear","weekofyear","is_weekend","hour_sin","hour_cos","dow_sin","dow_cos","month_sin","month_cos","season","virtual_hour_of_year","virtual_day_of_year","price actual_lag_1","price actual_lag_2","price actual_lag_3","price actual_lag_24","price actual_lag_168","price actual_roll_mean_3","price actual_roll_std_3","price actual_roll_mean_24","price actual_roll_std_24","price actual_roll_mean_168","price actual_roll_std_168"],"feature_types":["float","float","float","float","float","float","float","float","float","float","float","float","float","float","float","float","float","float","float","float","float","float","float","float","float","float","float","float","float","float","float","float","float","float","float","float","float","float","float","float","float","float","float","float","float","float","float","float","float","float","float","float","float","float","float","float","float","float","float","float","float","float","float","float","float","float","float","float","float","float","float","float","float","float","float","float","float","float"],"gradient_booster":{"model":{"cats":{"enc":[],"feature_segments":[],"sorted_idx":[]},"gbtree_model_param":{"num_parallel_tree":"1","num_trees":"100"},"iteration_indptr":[0,1,2,3,4,5,6,7,8,9,10,11,12,13,14,15,16,17,18,19,20,21,22,23,24,25,26,27,28,29,30,31,32,33,34,35,36,37,38,39,40,41,42,43,44,45,46,47,48,49,50,51,52,53,54,55,56,57,58,59,60,61,62,63,64,65,66,67,68,69,70,71,72,73,74,75,76,77,78,79,80,81,82,83,84,85,86,87,88,89,90,91,92,93,94,95,96,97,98,99,100],"tree_info":[0,0,0,0,0,0,0,0,0,0,0,0,0,0,0,0,0,0,0,0,0,0,0,0,0,0,0,0,0,0,0,0,0,0,0,0,0,0,0,0,0,0,0,0,0,0,0,0,0,0,0,0,0,0,0,0,0,0,0,0,0,0,0,0,0,0,0,0,0,0,0,0,0,0,0,0,0,0,0,0,0,0,0,0,0,0,0,0,0,0,0,0,0,0,0,0,0,0,0,0],"trees":[{"base_weights":[-1.6346248E-6,-1.130144E1,9.643344E0,-2.532098E1,-7.1298485E0,4.628933E0,1.9667688E1,-3.443524E1,-2.1465483E1,-1.1238436E1,-4.039913E0,2.1937954E0,8.771661E0,1.6872883E1,3.1102928E1,-3.8518894E0,-3.1916569E1,-2.474022E1,-1.851017E1,-1.3241308E1,-9.12331E0,-5.813992E0,-2.2891204E0,8.1548685E-1,4.5065856E0,6.9523244E0,1.144423E1,1.4758854E1,2.0335682E1,2.8078852E1,4.298449E1,-3.203347E1,-1.4427643E0,-2.5766678E1,-2.1570065E1,-1.7175747E1,-2.0679083E1,-1.4145125E1,-1.06868105E1,-9.919584E0,-6.940968E0,-7.1185055E0,-4.3741736E0,-2.9785244E0,4.5108312E-1,-2.895536E-1,2.1813097E0,3.8659918E0,8.152491E0,8.375737E0,4.706043E0,1.0233098E1,1.3668277E1,1.617003E1,1.0840223E1,2.155738E1,1.707237E1,2.6356884E1,3.1520445E1,3.742813E0,4.7051272E0,-3.4745686E0,-3.0987027E0,-2.144369E0,-2.6717565E0,-2.3427722E0,-1.9049559E0,-1.9847612E0,-1.5682331E0,-2.217799E0,-1.8731459E0,-1.0002104E0,-1.4653767E0,-1.2257997E0,-8.927854E-1,-7.317362E-1,-1.0571831E0,-8.073699E-1,-5.226764E-1,-6.302099E-1,-8.316029E-1,-3.7465045E-1,-6.743449E-1,-3.914397E-1,-1.7035422E-1,-1.5409333E-1,1.7213897E-1,6.191761E-2,-1.741408E-1,3.1472868E-1,5.3451546E-2,3.2141483E-1,5.706589E-1,6.7752975E-1,1.0750538E0,6.824365E-1,1.0060323E0,3.9223695E-1,6.2152106E-1,1.0764484E0,7.154939E-1,1.2258888E0,1.5943681E0,1.4048895E0,1.7324078E0,9.083233E-1,1.2296976E0,1.9808384E0,2.2893043E0,1.8549461E0,1.5535579E0,2.759208E0,2.2206426E0,5.320223E-1,3.161366E0],"categories":[],"categories_nodes":[],"categories_segments":[],"categories_sizes":[],"default_left":[0,0,0,0,0,0,0,0,0,0,0,0,0,0,0,0,0,0,0,0,0,0,0,0,0,0,0,0,0,0,0,0,0,0,0,0,0,0,0,0,0,0,0,0,0,0,0,0,0,0,0,0,0,0,0,0,0,0,0,0,0,0,0,0,0,0,0,0,0,0,0,0,0,0,0,0,0,0,0,0,0,0,0,0,0,0,0,0,0,0,0,0,0,0,0,0,0,0,0,0,0,0,0,0,0,0,0,0,0,0,0,0,0,0,0],"id":0,"left_children":[1,3,5,7,9,11,13,15,17,19,21,23,25,27,29,-1,31,33,35,37,39,41,43,45,47,49,51,53,55,57,59,61,-1,63,65,67,69,71,73,75,77,79,81,83,85,87,89,91,93,95,97,99,101,103,105,107,109,111,113,-1,-1,-1,-1,-1,-1,-1,-1,-1,-1,-1,-1,-1,-1,-1,-1,-1,-1,-1,-1,-1,-1,-1,-1,-1,-1,-1,-1,-1,-1,-1,-1,-1,-1,-1,-1,-1,-1,-1,-1,-1,-1,-1,-1,-1,-1,-1,-1,-1,-1,-1,-1,-1,-1,-1,-1],"loss_changes":[2.6624712E6,6.576451E5,6.6251775E5,8.9887E4,1.1002253E5,8.863508E4,1.3993612E5,6.638875E3,1.7107312E4,1.5642594E4,1.5361617E4,1.7643648E4,1.57375E4,2.5570438E4,2.9765312E4,0E0,5.17125E2,2.2361875E3,2.4175E3,4.2563125E3,3.0816875E3,4.585633E3,4.7108867E3,5.2378667E3,4.796051E3,6.157125E3,3.4049375E3,1.1979406E4,4.9623125E3,3.258375E3,2.1481562E3,2.7146875E2,0E0,2.0702812E3,5.650703E2,2.078875E3,6.3553125E2,2.8184062E3,1.2806758E3,2.1732422E3,9.053672E2,1.206832E3,1.7161562E3,2.3702285E3,1.2729493E3,2.5328977E3,2.467185E3,2.0932754E3,1.0291895E3,3.0282422E3,8.6737305E2,1.323125E3,1.2829375E3,3.7075E3,1.3856172E3,1.8101562E3,5.494453E2,1.7762812E3,3.813125E2,0E0,0E0,0E0,0E0,0E0,0E0,0E0,0E0,0E0,0E0,0E0,0E0,0E0,0E0,0E0,0E0,0E0,0E0,0E0,0E0,0E0,0E0,0E0,0E0,0E0,0E0,0E0,0E0,0E0,0E0,0E0,0E0,0E0,0E0,0E0,0E0,0E0,0E0,0E0,0E0,0E0,0E0,0E0,0E0,0E0,0E0,0E0,0E0,0E0,0E0,0E0,0E0,0E0,0E0,0E0,0E0],"parents":[2147483647,0,0,1,1,2,2,3,3,4,4,5,5,6,6,7,7,8,8,9,9,10,10,11,11,12,12,13,13,14,14,16,16,17,17,18,18,19,19,20,20,21,21,22,22,23,23,24,24,25,25,26,26,27,27,28,28,29,29,30,30,31,31,33,33,34,34,35,35,36,36,37,37,38,38,39,39,40,40,41,41,42,42,43,43,44,44,45,45,46,46,47,47,48,48,49,49,50,50,51,51,52,52,53,53,54,54,55,55,56,56,57,57,58,58],"right_children":[2,4,6,8,10,12,14,16,18,20,22,24,26,28,30,-1,32,34,36,38,40,42,44,46,48,50,52,54,56,58,60,62,-1,64,66,68,70,72,74,76,78,80,82,84,86,88,90,92,94,96,98,100,102,104,106,108,110,112,114,-1,-1,-1,-1,-1,-1,-1,-1,-1,-1,-1,-1,-1,-1,-1,-1,-1,-1,-1,-1,-1,-1,-1,-1,-1,-1,-1,-1,-1,-1,-1,-1,-1,-1,-1,-1,-1,-1,-1,-1,-1,-1,-1,-1,-1,-1,-1,-1,-1,-1,-1,-1,-1,-1,-1,-1],"split_conditions":[-7.260234E-2,-1.1668012E0,9.010372E-1,-2.0720534E0,-5.5977464E-1,4.0469962E-1,1.768923E0,-2.5782614E0,-1.555975E0,-7.980731E-1,-2.1995325E-1,3.0552983E-1,6.419801E-1,1.3141819E0,2.343981E0,-3.8518894E0,5.584515E-1,1.2245907E0,1.0001173E0,1.2245907E0,1.2245907E0,-3.475621E-1,2.0896992E-1,1.2480467E-1,6.147061E-1,7.0722926E-1,8.537881E-1,7.0722926E-1,7.0722926E-1,2.1792476E0,3.0027747E0,-2.4559014E0,-1.4427643E0,-1.0001937E0,-1.7569071E0,-7.0695925E-1,-1.2866554E0,-1.2249426E0,-6.509199E-1,-1.0001937E0,-3.1870174E-1,1.0001173E0,1.2282207E0,-2.2418272E-1,-3.0911618E-1,1.0001173E0,1.0001173E0,3.9285544E-1,1.0858382E0,-9.998473E-1,6.8741465E-1,1.2282207E0,1.0278046E0,-9.998473E-1,6.1165017E-1,1.458007E0,1.3726922E0,7.0722926E-1,-8.8729125E-1,3.742813E0,4.7051272E0,-3.4745686E0,-3.0987027E0,-2.144369E0,-2.6717565E0,-2.3427722E0,-1.9049559E0,-1.9847612E0,-1.5682331E0,-2.217799E0,-1.8731459E0,-1.0002104E0,-1.4653767E0,-1.2257997E0,-8.927854E-1,-7.317362E-1,-1.0571831E0,-8.073699E-1,-5.226764E-1,-6.302099E-1,-8.316029E-1,-3.7465045E-1,-6.743449E-1,-3.914397E-1,-1.7035422E-1,-1.5409333E-1,1.7213897E-1,6.191761E-2,-1.741408E-1,3.1472868E-1,5.3451546E-2,3.2141483E-1,5.706589E-1,6.7752975E-1,1.0750538E0,6.824365E-1,1.0060323E0,3.9223695E-1,6.2152106E-1,1.0764484E0,7.154939E-1,1.2258888E0,1.5943681E0,1.4048895E0,1.7324078E0,9.083233E-1,1.2296976E0,1.9808384E0,2.2893043E0,1.8549461E0,1.5535579E0,2.759208E0,2.2206426E0,5.320223E-1,3.161366E0],"split_indices":[67,67,67,67,67,67,67,67,67,67,24,24,24,67,24,0,71,58,59,58,58,67,71,67,71,59,71,59,59,67,24,24,0,58,67,59,67,58,24,58,24,59,49,67,51,59,59,70,71,59,67,49,24,59,24,67,49,59,71,0,0,0,0,0,0,0,0,0,0,0,0,0,0,0,0,0,0,0,0,0,0,0,0,0,0,0,0,0,0,0,0,0,0,0,0,0,0,0,0,0,0,0,0,0,0,0,0,0,0,0,0,0,0,0,0],"split_type":[0,0,0,0,0,0,0,0,0,0,0,0,0,0,0,0,0,0,0,0,0,0,0,0,0,0,0,0,0,0,0,0,0,0,0,0,0,0,0,0,0,0,0,0,0,0,0,0,0,0,0,0,0,0,0,0,0,0,0,0,0,0,0,0,0,0,0,0,0,0,0,0,0,0,0,0,0,0,0,0,0,0,0,0,0,0,0,0,0,0,0,0,0,0,0,0,0,0,0,0,0,0,0,0,0,0,0,0,0,0,0,0,0,0,0],"sum_hessian":[2.4428E4,1.1247E4,1.3181E4,2.578E3,8.669E3,8.787E3,4.394E3,7.64E2,1.814E3,3.72E3,4.949E3,5.535E3,3.252E3,3.533E3,8.61E2,2.86E2,4.78E2,8.57E2,9.57E2,1.908E3,1.812E3,2.457E3,2.492E3,3.469E3,2.066E3,1.937E3,1.315E3,2.197E3,1.336E3,6.89E2,1.72E2,4.74E2,4E0,6.42E2,2.15E2,5.98E2,3.59E2,1.406E3,5.02E2,1.325E3,4.87E2,1.287E3,1.17E3,1.991E3,5.01E2,1.918E3,1.551E3,1.759E3,3.07E2,1.184E3,7.53E2,8.55E2,4.6E2,1.613E3,5.84E2,9.68E2,3.68E2,4.65E2,2.24E2,7.7E1,9.5E1,1.23E2,3.51E2,1.2E2,5.22E2,1.19E2,9.6E1,2.1E2,3.88E2,1.97E2,1.62E2,1.56E2,1.25E3,2.62E2,2.4E2,2.68E2,1.057E3,2.91E2,1.96E2,7.69E2,5.18E2,9.27E2,2.43E2,1.147E3,8.44E2,1.95E2,3.06E2,1.18E3,7.38E2,9.77E2,5.74E2,1.301E3,4.58E2,2.03E2,1.04E2,6.19E2,5.65E2,4.98E2,2.55E2,7.27E2,1.28E2,2.88E2,1.72E2,5.73E2,1.04E3,2.68E2,3.16E2,4.26E2,5.42E2,1.82E2,1.86E2,3.54E2,1.11E2,1E0,2.23E2],"tree_param":{"num_deleted":"0","num_feature":"78","num_nodes":"115","size_leaf_vector":"1"}},{"base_weights":[3.784294E-5,-9.34048E0,9.46526E0,-2.2799963E1,-5.7675896E0,5.306631E0,1.8844461E1,-2.9753048E1,-1.869285E1,-9.413655E0,-2.5183477E0,2.963703E0,9.216521E0,1.627229E1,2.8749748E1,-3.3881817E1,-2.6946302E1,-2.0999647E1,-1.6087996E1,-1.1919579E1,-7.619114E0,-3.860324E0,-6.262012E-1,1.5534956E0,4.755018E0,1.0526353E1,5.9302473E0,1.4343202E1,1.893811E1,2.5814243E1,3.8754463E1,-3.576825E1,-3.1818922E0,-2.861182E1,-2.5181091E1,-1.9567417E1,-2.3188034E1,-1.8188951E1,-1.4863191E1,-1.3562109E1,-1.0701842E1,-8.851171E0,-6.159756E0,-4.8478703E0,-2.5367596E0,-2.3353362E0,8.24516E-1,2.4671822E0,3.725413E-2,4.0865483E0,7.927568E0,8.669615E0,1.2513714E1,4.6145935E0,8.013654E0,1.5534265E1,1.0941943E1,2.0086027E1,1.5901964E1,2.4671068E1,2.953523E1,3.3733304E0,4.246916E0,-3.5916412E0,-1.4461775E0,-2.8781116E0,-1.3273432E0,-2.5272474E0,4.7740746E-2,-2.2084668E0,-1.8155893E0,-2.447452E0,-2.190864E0,-1.9222225E0,-1.6968755E0,-1.2056199E0,-1.5761007E0,-1.253068E0,-1.4643523E0,-1.1596142E0,-8.828865E-1,-8.103251E-1,-9.764843E-1,-5.3338397E-1,-8.2034683E-1,-4.069658E-1,-6.1302036E-1,-2.0539029E-1,-5.135409E-1,-3.7194234E-1,-8.858299E-2,-1.7654293E-3,5.8421314E-1,1.4815725E-1,4.08457E-1,-9.706286E-2,1.2038942E-1,3.0115184E-1,4.930912E-1,6.8323356E-1,1.0444429E0,7.2405547E-1,1.0721629E0,1.0349125E0,1.3560979E0,5.827756E-1,3.7026158E-1,6.07552E-1,8.7957525E-1,1.3714489E0,1.6533167E0,9.697881E-1,1.2434849E0,1.803501E0,2.1119206E0,1.4979217E0,1.8276705E0,2.569845E0,2.1022289E0,5.054213E-1,2.968021E0],"categories":[],"categories_nodes":[],"categories_segments":[],"categories_sizes":[],"default_left":[0,0,0,0,0,0,0,0,0,0,0,0,0,0,0,0,0,0,0,0,0,0,0,0,0,0,0,0,0,0,0,0,0,0,0,0,0,0,0,0,0,0,0,0,0,0,0,0,0,0,0,0,0,0,0,0,0,0,0,0,0,0,0,0,0,0,0,0,0,0,0,0,0,0,0,0,0,0,0,0,0,0,0,0,0,0,0,0,0,0,0,0,0,0,0,0,0,0,0,0,0,0,0,0,0,0,0,0,0,0,0,0,0,0,0,0,0,0,0,0,0],"id":1,"left_children":[1,3,5,7,9,11,13,15,17,19,21,23,25,27,29,31,33,35,37,39,41,43,45,47,49,51,53,55,57,59,61,63,-1,65,67,69,71,73,75,77,79,81,83,85,87,89,91,93,95,97,99,101,103,105,107,109,111,113,115,117,119,-1,-1,-1,-1,-1,-1,-1,-1,-1,-1,-1,-1,-1,-1,-1,-1,-1,-1,-1,-1,-1,-1,-1,-1,-1,-1,-1,-1,-1,-1,-1,-1,-1,-1,-1,-1,-1,-1,-1,-1,-1,-1,-1,-1,-1,-1,-1,-1,-1,-1,-1,-1,-1,-1,-1,-1,-1,-1,-1,-1],"loss_changes":[2.159858E6,5.91174E5,4.73182E5,7.30925E4,1.1510497E5,7.699497E4,9.4489125E4,1.01655625E4,9.4205625E3,2.0500844E4,1.3049145E4,1.3277508E4,1.3496656E4,1.49555625E4,2.15255E4,3.5234375E2,9.6709375E2,2.2354688E3,1.7033594E3,3.6731875E3,4.747953E3,3.9180977E3,5.293117E3,4.078436E3,4.8792734E3,8.197719E3,2.429955E3,6.8060312E3,4.0022812E3,1.8065625E3,1.7755312E3,8.671875E1,0E0,3.6582812E2,6.850156E2,1.4644219E3,1.353125E1,2.4328125E1,1.0448594E3,7.188594E2,1.7417969E3,9.090156E2,2.0256523E3,1.6924883E3,1.6043496E3,1.9628232E3,4.880771E3,2.922334E3,1.3039952E3,1.7234297E3,1.0367715E3,3.3445312E3,2.31925E3,5.9135645E2,4.7254883E2,2.0873125E3,7.151758E2,1.5178125E3,4.8222656E2,1.1916562E3,3.2914062E2,0E0,0E0,0E0,0E0,0E0,0E0,0E0,0E0,0E0,0E0,0E0,0E0,0E0,0E0,0E0,0E0,0E0,0E0,0E0,0E0,0E0,0E0,0E0,0E0,0E0,0E0,0E0,0E0,0E0,0E0,0E0,0E0,0E0,0E0,0E0,0E0,0E0,0E0,0E0,0E0,0E0,0E0,0E0,0E0,0E0,0E0,0E0,0E0,0E0,0E0,0E0,0E0,0E0,0E0,0E0,0E0,0E0,0E0,0E0,0E0],"parents":[2147483647,0,0,1,1,2,2,3,3,4,4,5,5,6,6,7,7,8,8,9,9,10,10,11,11,12,12,13,13,14,14,15,15,16,16,17,17,18,18,19,19,20,20,21,21,22,22,23,23,24,24,25,25,26,26,27,27,28,28,29,29,30,30,31,31,33,33,34,34,35,35,36,36,37,37,38,38,39,39,40,40,41,41,42,42,43,43,44,44,45,45,46,46,47,47,48,48,49,49,50,50,51,51,52,52,53,53,54,54,55,55,56,56,57,57,58,58,59,59,60,60],"right_children":[2,4,6,8,10,12,14,16,18,20,22,24,26,28,30,32,34,36,38,40,42,44,46,48,50,52,54,56,58,60,62,64,-1,66,68,70,72,74,76,78,80,82,84,86,88,90,92,94,96,98,100,102,104,106,108,110,112,114,116,118,120,-1,-1,-1,-1,-1,-1,-1,-1,-1,-1,-1,-1,-1,-1,-1,-1,-1,-1,-1,-1,-1,-1,-1,-1,-1,-1,-1,-1,-1,-1,-1,-1,-1,-1,-1,-1,-1,-1,-1,-1,-1,-1,-1,-1,-1,-1,-1,-1,-1,-1,-1,-1,-1,-1,-1,-1,-1,-1,-1,-1],"split_conditions":[1.411574E-2,-1.1668012E0,1.008201E0,-1.9247031E0,-4.660063E-1,5.0199306E-1,1.8330803E0,-2.4802628E0,-1.4600916E0,-7.980731E-1,-7.5357236E-2,3.0552983E-1,7.0722926E-1,1.3564835E0,2.343981E0,-2.6938853E0,-2.1510162E0,1.0001173E0,-1.2991333E0,-9.111928E-1,-4.851635E-1,-2.1431237E-1,-3.0911618E-1,1.0001173E0,6.013456E-1,-7.0695925E-1,5.3194606E-1,7.0722926E-1,7.0722926E-1,2.2998068E0,3.0027747E0,-5.264874E-1,-3.1818922E0,5.303242E-1,5.584515E-1,-7.0695925E-1,-1.7047353E0,-1.514264E0,-1.4600053E0,1.0001173E0,1.2245907E0,1.0001173E0,1.0001173E0,1.0001173E0,1.3726922E0,-1.9739178E-1,3.337437E-1,2.18573E-1,1.9389713E-1,2.5170916E-1,1.1392801E0,7.882332E-1,6.719041E-1,-3.0911618E-1,6.8741465E-1,-9.998473E-1,1.1886874E0,-9.998473E-1,1.3106486E0,7.0722926E-1,-1.3189672E0,3.3733304E0,4.246916E0,-3.5916412E0,-1.4461775E0,-2.8781116E0,-1.3273432E0,-2.5272474E0,4.7740746E-2,-2.2084668E0,-1.8155893E0,-2.447452E0,-2.190864E0,-1.9222225E0,-1.6968755E0,-1.2056199E0,-1.5761007E0,-1.253068E0,-1.4643523E0,-1.1596142E0,-8.828865E-1,-8.103251E-1,-9.764843E-1,-5.3338397E-1,-8.2034683E-1,-4.069658E-1,-6.1302036E-1,-2.0539029E-1,-5.135409E-1,-3.7194234E-1,-8.858299E-2,-1.7654293E-3,5.8421314E-1,1.4815725E-1,4.08457E-1,-9.706286E-2,1.2038942E-1,3.0115184E-1,4.930912E-1,6.8323356E-1,1.0444429E0,7.2405547E-1,1.0721629E0,1.0349125E0,1.3560979E0,5.827756E-1,3.7026158E-1,6.07552E-1,8.7957525E-1,1.3714489E0,1.6533167E0,9.697881E-1,1.2434849E0,1.803501E0,2.1119206E0,1.4979217E0,1.8276705E0,2.569845E0,2.1022289E0,5.054213E-1,2.968021E0],"split_indices":[67,67,67,67,67,67,67,67,67,67,24,24,59,67,24,67,67,59,24,24,24,67,51,59,71,59,24,59,59,67,24,70,0,71,71,59,67,24,69,59,58,59,59,59,49,67,24,67,67,67,71,67,67,51,67,59,67,59,24,59,17,0,0,0,0,0,0,0,0,0,0,0,0,0,0,0,0,0,0,0,0,0,0,0,0,0,0,0,0,0,0,0,0,0,0,0,0,0,0,0,0,0,0,0,0,0,0,0,0,0,0,0,0,0,0,0,0,0,0,0,0],"split_type":[0,0,0,0,0,0,0,0,0,0,0,0,0,0,0,0,0,0,0,0,0,0,0,0,0,0,0,0,0,0,0,0,0,0,0,0,0,0,0,0,0,0,0,0,0,0,0,0,0,0,0,0,0,0,0,0,0,0,0,0,0,0,0,0,0,0,0,0,0,0,0,0,0,0,0,0,0,0,0,0,0,0,0,0,0,0,0,0,0,0,0,0,0,0,0,0,0,0,0,0,0,0,0,0,0,0,0,0,0,0,0,0,0,0,0,0,0,0,0,0,0],"sum_hessian":[2.4428E4,1.2295E4,1.2133E4,2.578E3,9.717E3,8.407E3,3.726E3,9.55E2,1.623E3,4.578E3,5.139E3,5.258E3,3.149E3,2.96E3,7.66E2,3.82E2,5.73E2,8.57E2,7.66E2,1.908E3,2.67E3,3.006E3,2.133E3,2.943E3,2.315E3,2.25E3,8.99E2,1.721E3,1.239E3,5.95E2,1.71E2,1.91E2,1.91E2,2.87E2,2.86E2,5.24E2,3.33E2,2.77E2,4.89E2,8.08E2,1.1E3,1.445E3,1.225E3,1.72E3,1.286E3,9.79E2,1.154E3,1.836E3,1.107E3,1.914E3,4.01E2,1.166E3,1.084E3,5.53E2,3.46E2,1.272E3,4.49E2,8.95E2,3.44E2,4.61E2,1.34E2,7.7E1,9.4E1,1.89E2,2E0,2.83E2,4E0,2.85E2,1E0,1.83E2,3.41E2,1.57E2,1.76E2,1.42E2,1.35E2,1.22E2,3.67E2,4.2E2,3.88E2,7.41E2,3.59E2,8E2,6.45E2,8.75E2,3.5E2,1.073E3,6.47E2,1.086E3,2E2,5E2,4.79E2,9.89E2,1.65E2,1.142E3,6.94E2,5.94E2,5.13E2,8.44E2,1.07E3,2.82E2,1.19E2,6.9E2,4.76E2,3.57E2,7.27E2,2.35E2,3.18E2,1.02E2,2.44E2,4.56E2,8.16E2,2.49E2,2E2,3.06E2,5.89E2,2.53E2,9.1E1,3.55E2,1.06E2,1E0,1.33E2],"tree_param":{"num_deleted":"0","num_feature":"78","num_nodes":"121","size_leaf_vector":"1"}},{"base_weights":[-2.7844917E-5,-8.87042E0,8.08207E0,-2.1135574E1,-5.71481E0,4.287523E0,1.6660334E1,-2.7936174E1,-1.7909142E1,-9.747745E0,-3.3303535E0,2.0043612E0,7.5866895E0,1.405884E1,2.4700212E1,-3.0515099E1,-2.528431E1,-2.0783825E1,-1.5868056E1,-1.1976837E1,-8.47592E0,-5.26144E0,-1.9895853E0,5.297506E-1,3.3672202E0,6.15127E0,1.0064858E1,1.2102232E1,1.588972E1,2.2417885E1,3.4913666E1,-3.3606896E0,-2.9378542E1,-2.0824648E1,-2.5801716E1,-2.1634172E1,-1.8200932E1,-1.4603549E1,-1.7968826E1,-1.0861519E1,-1.3793695E1,-9.592532E0,-7.277803E0,-6.4228992E0,-3.9472616E0,-3.0657408E0,-3.894657E-1,1.1152056E0,-1.5052047E0,2.5892797E0,5.45614E0,7.283449E0,4.2176075E0,8.292169E0,1.1217155E1,1.320412E1,8.923646E0,1.689021E1,1.3218864E1,2.0201128E1,2.4427055E1,3.0403223E0,3.821472E0,-2.9666207E0,-2.1011317E0,-4.5468026E-1,-2.109126E0,-2.7020614E0,-2.2573876E0,-1.7089789E0,-2.2148378E0,-1.8495635E0,-6.9649005E-1,-1.6956357E0,-1.3345501E0,-1.9307429E0,-1.6634417E0,-1.2916274E0,-9.686784E-1,-1.6088313E0,-1.3246725E0,-8.9860374E-1,-1.0813994E0,-7.8833467E-1,-5.1797104E-1,-6.077225E-1,-8.190953E-1,-3.2491133E-1,-6.0450745E-1,-2.3041728E-1,-4.260969E-1,-9.972366E-2,2.8482074E-1,1.8195564E-2,2.2847842E-1,-2.892947E-1,-3.3857636E-2,1.719016E-1,3.5442007E-1,4.923894E-1,9.382213E-1,5.963134E-1,8.9317524E-1,3.4472036E-1,5.751679E-1,7.375559E-1,9.742115E-1,1.0190966E0,1.2984138E0,1.1346964E0,1.4188762E0,7.5533265E-1,1.0335515E0,1.5188941E0,1.7804068E0,1.2361242E0,1.5316309E0,2.1332142E0,1.700535E0,2.5268698E0,2.1226757E0],"categories":[],"categories_nodes":[],"categories_segments":[],"categories_sizes":[],"default_left":[0,0,0,0,0,0,0,0,0,0,0,0,0,0,0,0,0,0,0,0,0,0,0,0,0,0,0,0,0,0,0,0,0,0,0,0,0,0,0,0,0,0,0,0,0,0,0,0,0,0,0,0,0,0,0,0,0,0,0,0,0,0,0,0,0,0,0,0,0,0,0,0,0,0,0,0,0,0,0,0,0,0,0,0,0,0,0,0,0,0,0,0,0,0,0,0,0,0,0,0,0,0,0,0,0,0,0,0,0,0,0,0,0,0,0,0,0,0,0,0,0],"id":2,"left_children":[1,3,5,7,9,11,13,15,17,19,21,23,25,27,29,31,33,35,37,39,41,43,45,47,49,51,53,55,57,59,61,-1,63,65,67,69,71,73,75,77,79,81,83,85,87,89,91,93,95,97,99,101,103,105,107,109,111,113,115,117,119,-1,-1,-1,-1,-1,-1,-1,-1,-1,-1,-1,-1,-1,-1,-1,-1,-1,-1,-1,-1,-1,-1,-1,-1,-1,-1,-1,-1,-1,-1,-1,-1,-1,-1,-1,-1,-1,-1,-1,-1,-1,-1,-1,-1,-1,-1,-1,-1,-1,-1,-1,-1,-1,-1,-1,-1,-1,-1,-1,-1],"loss_changes":[1.7514205E6,4.5066525E5,4.160232E5,5.1786625E4,8.906306E4,6.675314E4,8.1642375E4,4.4603125E3,9.169625E3,9.656625E3,1.5068672E4,1.0528971E4,1.2832984E4,1.0425625E4,2.1525438E4,3.585E2,3.4645312E2,1.075625E3,2.2638438E3,2.3791094E3,2.8667344E3,3.6165547E3,5.9206865E3,3.0015605E3,4.4109004E3,5.0001875E3,2.6196406E3,4.915172E3,3.8598125E3,3.0028125E3,1.4139688E3,0E0,6.9890625E1,9.939844E1,7.237969E2,7.851719E2,4.4071875E2,1.5467188E3,3.093828E2,1.7528125E3,3.7802344E2,7.4216406E2,1.3096953E3,7.2335156E2,1.623623E3,1.8616504E3,2.7262249E3,2.134576E3,9.105056E2,1.6443379E3,1.4959551E3,3.0979922E3,9.8593164E2,6.285469E2,1.3219141E3,1.7865E3,6.435762E2,1.4521875E3,5.6797656E2,1.007125E3,5.598906E2,0E0,0E0,0E0,0E0,0E0,0E0,0E0,0E0,0E0,0E0,0E0,0E0,0E0,0E0,0E0,0E0,0E0,0E0,0E0,0E0,0E0,0E0,0E0,0E0,0E0,0E0,0E0,0E0,0E0,0E0,0E0,0E0,0E0,0E0,0E0,0E0,0E0,0E0,0E0,0E0,0E0,0E0,0E0,0E0,0E0,0E0,0E0,0E0,0E0,0E0,0E0,0E0,0E0,0E0,0E0,0E0,0E0,0E0,0E0,0E0],"parents":[2147483647,0,0,1,1,2,2,3,3,4,4,5,5,6,6,7,7,8,8,9,9,10,10,11,11,12,12,13,13,14,14,15,15,16,16,17,17,18,18,19,19,20,20,21,21,22,22,23,23,24,24,25,25,26,26,27,27,28,28,29,29,30,30,32,32,33,33,34,34,35,35,36,36,37,37,38,38,39,39,40,40,41,41,42,42,43,43,44,44,45,45,46,46,47,47,48,48,49,49,50,50,51,51,52,52,53,53,54,54,55,55,56,56,57,57,58,58,59,59,60,60],"right_children":[2,4,6,8,10,12,14,16,18,20,22,24,26,28,30,32,34,36,38,40,42,44,46,48,50,52,54,56,58,60,62,-1,64,66,68,70,72,74,76,78,80,82,84,86,88,90,92,94,96,98,100,102,104,106,108,110,112,114,116,118,120,-1,-1,-1,-1,-1,-1,-1,-1,-1,-1,-1,-1,-1,-1,-1,-1,-1,-1,-1,-1,-1,-1,-1,-1,-1,-1,-1,-1,-1,-1,-1,-1,-1,-1,-1,-1,-1,-1,-1,-1,-1,-1,-1,-1,-1,-1,-1,-1,-1,-1,-1,-1,-1,-1,-1,-1,-1,-1,-1,-1],"split_conditions":[-3.9466165E-2,-1.2210882E0,9.736548E-1,-2.0720534E0,-6.1617666E-1,4.1527498E-1,1.6970105E0,-2.4802628E0,-1.6525635E0,-9.36963E-1,-3.5743245E-1,1.9620115E-1,7.238003E-1,1.2450894E0,2.343981E0,-2.8313653E0,-1.0001937E0,1.2245907E0,1.0001173E0,1.0001173E0,-6.2975955E-1,-3.5044235E-1,-6.2661E-2,1.2282207E0,4.0482238E-1,7.0722926E-1,5.7251513E-1,7.0722926E-1,7.0722926E-1,1.9881859E0,3.0027747E0,-3.3606896E0,-3.493568E-1,-2.7165425E0,1.2245907E0,-1.2249426E0,2.235672E0,-7.0695925E-1,-1.4058046E0,-7.0695925E-1,-1.0029873E0,1.2248582E0,1.3658737E0,1.2282207E0,1.0001173E0,1.0001173E0,4.276596E-1,1.2480467E-1,-1.4095445E-1,2.18573E-1,1.0858382E0,6.296026E-1,3.9369816E-1,6.5824E-1,1.0708307E0,-9.998473E-1,6.899437E-1,-9.998473E-1,1.2048465E0,7.0722926E-1,7.0722926E-1,3.0403223E0,3.821472E0,-2.9666207E0,-2.1011317E0,-4.5468026E-1,-2.109126E0,-2.7020614E0,-2.2573876E0,-1.7089789E0,-2.2148378E0,-1.8495635E0,-6.9649005E-1,-1.6956357E0,-1.3345501E0,-1.9307429E0,-1.6634417E0,-1.2916274E0,-9.686784E-1,-1.6088313E0,-1.3246725E0,-8.9860374E-1,-1.0813994E0,-7.8833467E-1,-5.1797104E-1,-6.077225E-1,-8.190953E-1,-3.2491133E-1,-6.0450745E-1,-2.3041728E-1,-4.260969E-1,-9.972366E-2,2.8482074E-1,1.8195564E-2,2.2847842E-1,-2.892947E-1,-3.3857636E-2,1.719016E-1,3.5442007E-1,4.923894E-1,9.382213E-1,5.963134E-1,8.9317524E-1,3.4472036E-1,5.751679E-1,7.375559E-1,9.742115E-1,1.0190966E0,1.2984138E0,1.1346964E0,1.4188762E0,7.5533265E-1,1.0335515E0,1.5188941E0,1.7804068E0,1.2361242E0,1.5316309E0,2.1332142E0,1.700535E0,2.5268698E0,2.1226757E0],"split_indices":[67,67,67,67,67,67,67,67,67,67,67,24,24,67,24,67,58,58,59,59,24,24,24,49,70,59,71,59,59,67,24,0,71,17,58,58,73,59,67,59,56,59,58,49,59,59,71,67,24,67,71,67,24,70,24,59,24,59,24,59,59,0,0,0,0,0,0,0,0,0,0,0,0,0,0,0,0,0,0,0,0,0,0,0,0,0,0,0,0,0,0,0,0,0,0,0,0,0,0,0,0,0,0,0,0,0,0,0,0,0,0,0,0,0,0,0,0,0,0,0,0],"split_type":[0,0,0,0,0,0,0,0,0,0,0,0,0,0,0,0,0,0,0,0,0,0,0,0,0,0,0,0,0,0,0,0,0,0,0,0,0,0,0,0,0,0,0,0,0,0,0,0,0,0,0,0,0,0,0,0,0,0,0,0,0,0,0,0,0,0,0,0,0,0,0,0,0,0,0,0,0,0,0,0,0,0,0,0,0,0,0,0,0,0,0,0,0,0,0,0,0,0,0,0,0,0,0,0,0,0,0,0,0,0,0,0,0,0,0,0,0,0,0,0,0],"sum_hessian":[2.4428E4,1.1646E4,1.2782E4,2.382E3,9.264E3,8.863E3,3.919E3,7.64E2,1.618E3,3.441E3,5.823E3,5.239E3,3.624E3,2.963E3,9.56E2,3.82E2,3.82E2,6.68E2,9.5E2,1.247E3,2.194E3,2.385E3,3.438E3,2.517E3,2.722E3,2.297E3,1.327E3,1.436E3,1.527E3,7.84E2,1.72E2,9.5E1,2.87E2,4.4E1,3.38E2,4.97E2,1.71E2,5.98E2,3.52E2,7.77E2,4.7E2,1.132E3,1.062E3,1.264E3,1.121E3,2.055E3,1.383E3,1.955E3,5.62E2,1.985E3,7.37E2,1.447E3,8.5E2,5.26E2,8.01E2,1.064E3,3.72E2,1.107E3,4.2E2,3.78E2,4.06E2,7.7E1,9.5E1,2.75E2,1.2E1,1E0,4.3E1,2.4E2,9.8E1,5.4E1,4.43E2,1.66E2,5E0,2.04E2,3.94E2,1.69E2,1.83E2,2.79E2,4.98E2,8.5E1,3.85E2,7.62E2,3.7E2,8.22E2,2.4E2,1.061E3,2.03E2,8.43E2,2.78E2,1.257E3,7.98E2,1.165E3,2.18E2,1.088E3,8.67E2,2.56E2,3.06E2,1.04E3,9.45E2,6.51E2,8.6E1,8.06E2,6.41E2,5.68E2,2.82E2,3.26E2,2E2,5.11E2,2.9E2,3.73E2,6.91E2,1.92E2,1.8E2,3.93E2,7.14E2,3.03E2,1.17E2,2.75E2,1.03E2,3.16E2,9E1],"tree_param":{"num_deleted":"0","num_feature":"78","num_nodes":"121","size_leaf_vector":"1"}},{"base_weights":[-2.8199784E-4,-8.861779E0,6.5684686E0,-1.9316132E1,-5.9074287E0,2.5829506E0,1.3628829E1,-2.5163408E1,-1.63741E1,-9.180303E0,-3.8270392E0,7.5330085E-1,5.044455E0,1.1370463E1,2.1327288E1,-2.8186262E0,-2.3299686E1,-1.9077475E1,-1.4734928E1,-1.111469E1,-8.072154E0,-5.067821E0,-2.3278987E0,-4.5138672E-1,2.12327E0,3.912771E0,7.2412143E0,9.65901E0,1.3540909E1,1.9507158E1,3.1461964E1,-1.8210388E1,-2.3684513E1,-2.0945125E0,-1.8210516E1,-1.688734E1,-1.3659239E1,-1.1854518E1,-8.872025E0,-7.243725E0,-9.483797E0,-5.9388933E0,-4.020547E0,-3.6673758E0,-1.167532E0,1.9022966E-2,-2.3494902E0,1.4572769E0,4.2245555E0,4.7306213E0,2.0895236E0,6.115839E0,8.862531E0,1.0760924E1,6.674627E0,1.4172818E1,1.0245468E1,1.7692793E1,2.1995773E1,2.7401876E0,3.4433057E0,-5.1660484E-1,-1.8791573E0,-2.462953E0,-2.0912502E0,-1.8712447E0,-1.3237884E0,-1.7559435E0,-1.4901327E0,-1.3964027E0,-7.974378E-1,-7.8890145E-1,-1.2303206E0,-9.144619E-1,-1.17627956E-1,-8.8341475E-1,-6.3590807E-1,-9.972745E-1,-7.965689E-1,-6.3566464E-1,-4.7052884E-1,-4.569761E-1,-2.2859848E-1,-5.1618624E-1,-2.4793385E-1,-2.1902727E-1,2.2543871E-1,-7.971184E-2,1.0725828E-1,-3.9687482E-1,-1.4901905E-1,1.9846469E-1,-8.174575E-3,1.6304319E-1,4.8432094E-1,9.0017635E-1,4.4318047E-1,1.598856E-1,3.2790515E-1,5.422174E-1,7.634309E-1,6.66695E-1,9.719696E-1,9.6998686E-1,1.2585322E0,5.5591846E-1,7.939669E-1,1.3301923E0,1.5539821E0,4.8327056E-1,1.0511184E0,1.8652757E0,1.4911879E0,2.0821705E0,2.420707E0],"categories":[],"categories_nodes":[],"categories_segments":[],"categories_sizes":[],"default_left":[0,0,0,0,0,0,0,0,0,0,0,0,0,0,0,0,0,0,0,0,0,0,0,0,0,0,0,0,0,0,0,0,0,0,0,0,0,0,0,0,0,0,0,0,0,0,0,0,0,0,0,0,0,0,0,0,0,0,0,0,0,0,0,0,0,0,0,0,0,0,0,0,0,0,0,0,0,0,0,0,0,0,0,0,0,0,0,0,0,0,0,0,0,0,0,0,0,0,0,0,0,0,0,0,0,0,0,0,0,0,0,0,0,0,0],"id":3,"left_children":[1,3,5,7,9,11,13,15,17,19,21,23,25,27,29,-1,31,33,35,37,39,41,43,45,47,49,51,53,55,57,59,61,63,-1,65,67,69,71,73,75,77,79,81,83,85,87,89,91,93,95,97,99,101,103,105,107,109,111,113,-1,-1,-1,-1,-1,-1,-1,-1,-1,-1,-1,-1,-1,-1,-1,-1,-1,-1,-1,-1,-1,-1,-1,-1,-1,-1,-1,-1,-1,-1,-1,-1,-1,-1,-1,-1,-1,-1,-1,-1,-1,-1,-1,-1,-1,-1,-1,-1,-1,-1,-1,-1,-1,-1,-1,-1],"loss_changes":[1.422045E6,3.2109838E5,3.947577E5,3.899975E4,5.5184656E4,4.038981E4,8.776506E4,3.6530938E3,6.4855E3,6.66475E3,9.214328E3,8.493839E3,9.478273E3,1.4415656E4,2.0544312E4,0E0,5.0682812E2,5.46375E2,1.9804688E3,1.7945938E3,2.278375E3,2.4510547E3,3.48975E3,2.4456602E3,3.3636992E3,3.756746E3,2.3159375E3,7.1399375E3,3.444875E3,4.0132188E3,1.1433438E3,1.9100684E2,6.427969E2,0E0,7.4815625E2,1.5746094E2,1.0010156E3,1.4295547E3,5.93416E2,1.7292578E3,4.6910938E2,7.3228516E2,1.1660723E3,1.8390557E3,4.225618E3,1.8890938E3,7.510227E2,1.4854531E3,9.213203E2,2.1846758E3,4.5234912E2,7.696543E2,9.3264453E2,2.9751875E3,7.9404297E2,1.5124062E3,3.5335156E2,1.2408438E3,5.52625E2,0E0,0E0,0E0,0E0,0E0,0E0,0E0,0E0,0E0,0E0,0E0,0E0,0E0,0E0,0E0,0E0,0E0,0E0,0E0,0E0,0E0,0E0,0E0,0E0,0E0,0E0,0E0,0E0,0E0,0E0,0E0,0E0,0E0,0E0,0E0,0E0,0E0,0E0,0E0,0E0,0E0,0E0,0E0,0E0,0E0,0E0,0E0,0E0,0E0,0E0,0E0,0E0,0E0,0E0,0E0,0E0],"parents":[2147483647,0,0,1,1,2,2,3,3,4,4,5,5,6,6,7,7,8,8,9,9,10,10,11,11,12,12,13,13,14,14,16,16,17,17,18,18,19,19,20,20,21,21,22,22,23,23,24,24,25,25,26,26,27,27,28,28,29,29,30,30,31,31,32,32,34,34,35,35,36,36,37,37,38,38,39,39,40,40,41,41,42,42,43,43,44,44,45,45,46,46,47,47,48,48,49,49,50,50,51,51,52,52,53,53,54,54,55,55,56,56,57,57,58,58],"right_children":[2,4,6,8,10,12,14,16,18,20,22,24,26,28,30,-1,32,34,36,38,40,42,44,46,48,50,52,54,56,58,60,62,64,-1,66,68,70,72,74,76,78,80,82,84,86,88,90,92,94,96,98,100,102,104,106,108,110,112,114,-1,-1,-1,-1,-1,-1,-1,-1,-1,-1,-1,-1,-1,-1,-1,-1,-1,-1,-1,-1,-1,-1,-1,-1,-1,-1,-1,-1,-1,-1,-1,-1,-1,-1,-1,-1,-1,-1,-1,-1,-1,-1,-1,-1,-1,-1,-1,-1,-1,-1,-1,-1,-1,-1,-1,-1],"split_conditions":[-1.4592494E-1,-1.2514042E0,7.882332E-1,-2.0720534E0,-6.6341335E-1,2.7850014E-1,1.6124074E0,-2.5782614E0,-1.7047353E0,-9.729193E-1,-2.4816711E-1,1.34836E-1,5.7708824E-1,1.1710619E0,2.343981E0,-2.8186262E0,-1.2249426E0,-1.8986778E0,-1.514264E0,1.2245907E0,1.0001173E0,-4.2581987E-1,-3.0911618E-1,1.2282207E0,3.8229635E-1,1.0001173E0,6.2806654E-1,7.0722926E-1,1.0001173E0,1.9881859E0,3.0027747E0,7.912648E-2,1.2245907E0,-2.0945125E0,-5.16011E-1,9.998418E-1,1.0771167E-1,-1.2249426E0,2.0594828E0,-7.0695925E-1,-7.2404546E-1,-4.1745025E-1,9.998418E-1,-3.8633847E-1,7.629225E-2,3.4561466E-2,-3.3280867E-1,1.0001173E0,-7.0695925E-1,-6.4990884E-1,5.7531565E-1,6.2937856E-1,-7.0695925E-1,-3.6588392E-1,5.982486E-1,1.4058352E0,2.547292E-1,7.0722926E-1,2.2998068E0,2.7401876E0,3.4433057E0,-5.1660484E-1,-1.8791573E0,-2.462953E0,-2.0912502E0,-1.8712447E0,-1.3237884E0,-1.7559435E0,-1.4901327E0,-1.3964027E0,-7.974378E-1,-7.8890145E-1,-1.2303206E0,-9.144619E-1,-1.17627956E-1,-8.8341475E-1,-6.3590807E-1,-9.972745E-1,-7.965689E-1,-6.3566464E-1,-4.7052884E-1,-4.569761E-1,-2.2859848E-1,-5.1618624E-1,-2.4793385E-1,-2.1902727E-1,2.2543871E-1,-7.971184E-2,1.0725828E-1,-3.9687482E-1,-1.4901905E-1,1.9846469E-1,-8.174575E-3,1.6304319E-1,4.8432094E-1,9.0017635E-1,4.4318047E-1,1.598856E-1,3.2790515E-1,5.422174E-1,7.634309E-1,6.66695E-1,9.719696E-1,9.6998686E-1,1.2585322E0,5.5591846E-1,7.939669E-1,1.3301923E0,1.5539821E0,4.8327056E-1,1.0511184E0,1.8652757E0,1.4911879E0,2.0821705E0,2.420707E0],"split_indices":[67,67,67,67,67,67,67,67,67,67,24,24,24,67,24,0,58,24,24,58,59,67,51,49,70,59,71,59,59,67,24,54,58,0,71,58,71,58,77,59,67,24,58,67,24,67,24,59,59,49,67,70,59,59,24,67,76,59,67,0,0,0,0,0,0,0,0,0,0,0,0,0,0,0,0,0,0,0,0,0,0,0,0,0,0,0,0,0,0,0,0,0,0,0,0,0,0,0,0,0,0,0,0,0,0,0,0,0,0,0,0,0,0,0,0],"split_type":[0,0,0,0,0,0,0,0,0,0,0,0,0,0,0,0,0,0,0,0,0,0,0,0,0,0,0,0,0,0,0,0,0,0,0,0,0,0,0,0,0,0,0,0,0,0,0,0,0,0,0,0,0,0,0,0,0,0,0,0,0,0,0,0,0,0,0,0,0,0,0,0,0,0,0,0,0,0,0,0,0,0,0,0,0,0,0,0,0,0,0,0,0,0,0,0,0,0,0,0,0,0,0,0,0,0,0,0,0,0,0,0,0,0,0],"sum_hessian":[2.4428E4,1.0399E4,1.4029E4,2.29E3,8.109E3,8.968E3,5.061E3,7.64E2,1.526E3,3.15E3,4.959E3,5.145E3,3.823E3,3.915E3,1.146E3,2.86E2,4.78E2,5.72E2,9.54E2,1.144E3,2.006E3,2.712E3,2.247E3,2.738E3,2.407E3,2.525E3,1.298E3,2.192E3,1.723E3,9.74E2,1.72E2,3.7E1,4.41E2,1.74E2,3.98E2,3.13E2,6.41E2,8.57E2,2.87E2,1.268E3,7.38E2,1.478E3,1.234E3,1.042E3,1.205E3,2.195E3,5.43E2,1.829E3,5.78E2,1.742E3,7.83E2,7.69E2,5.29E2,1.599E3,5.93E2,1.443E3,2.8E2,5.68E2,4.06E2,7.7E1,9.5E1,2E0,3.5E1,3.23E2,1.18E2,3.59E2,3.9E1,2.28E2,8.5E1,6.07E2,3.4E1,8.9E1,7.68E2,2.77E2,1E1,4.5E2,8.18E2,5.54E2,1.84E2,1.101E3,3.77E2,9.36E2,2.98E2,4.6E2,5.82E2,9.28E2,2.77E2,1.237E3,9.58E2,1.87E2,3.56E2,1.362E3,4.67E2,1.12E2,4.66E2,1.12E2,1.63E3,5.56E2,2.27E2,5.31E2,2.38E2,1.51E2,3.78E2,1.015E3,5.84E2,3.18E2,2.75E2,8.88E2,5.55E2,1.4E1,2.66E2,4.18E2,1.5E2,2.72E2,1.34E2],"tree_param":{"num_deleted":"0","num_feature":"78","num_nodes":"115","size_leaf_vector":"1"}},{"base_weights":[-3.4676612E-4,-6.769021E0,6.9810796E0,-1.6036419E1,-3.986441E0,3.9257803E0,1.3783335E1,-2.1031345E1,-1.2687429E1,-6.646067E0,-1.8095316E0,2.2009387E0,6.7450604E0,1.2045189E1,2.1667248E1,-2.4295055E1,-1.8666647E1,-1.4789857E1,-1.1344365E1,-8.252738E0,-5.356596E0,-2.9270658E0,-5.855867E-1,1.2642345E0,3.7661533E0,7.7269354E0,4.281788E0,1.0557322E1,1.4212733E1,1.9343788E1,2.8361454E1,-2.6285595E1,-2.2883673E1,-1.9406782E1,-1.628377E1,-1.1794579E1,-1.5439911E1,-1.3102918E1,-1.0414462E1,-9.786973E0,-7.4755144E0,-4.5806737E0,-6.6524963E0,-3.6833405E0,-1.868367E0,4.809256E-2,-2.5681322E0,1.9467648E0,4.9758453E-2,3.0925756E0,5.9399714E0,6.226504E0,9.333642E0,3.1656418E0,5.521797E0,1.14376545E1,8.047923E0,1.3195222E1,1.6295809E1,2.0150026E1,1.6455404E1,2.469682E0,3.1100605E0,-2.6400952E0,-1.0217818E0,-5.580544E-1,-2.2924516E0,-1.5449293E0,-2.0225832E0,-1.4334348E0,-1.8378037E0,-1.2578149E0,-7.840871E-1,-1.5955032E0,-1.316087E0,-1.1386131E0,-1.3624718E0,-1.0844939E0,-5.5145127E-1,-1.0296764E0,-8.4503174E-1,-6.86103E-1,-8.7979406E-1,-6.149568E-1,-3.8049552E-1,-7.717815E-1,-5.8951163E-1,-3.0774134E-1,-4.663292E-1,-2.2060068E-1,8.315215E-2,-4.862861E-2,2.591913E-1,-3.9318097E-1,-1.3569361E-1,1.1534301E-1,2.9300746E-1,-7.780103E-2,9.273399E-2,2.1080594E-1,3.8581428E-1,5.3198135E-1,8.7804645E-1,5.2104586E-1,7.685332E-1,8.535862E-1,1.1248063E0,4.441134E-1,2.052168E-1,4.263475E-1,6.2356806E-1,1.0004228E0,1.2219106E0,7.127165E-1,9.4527483E-1,1.3778061E0,1.0575646E0,1.4128469E0,1.6873865E0,1.909241E0,2.3044562E0,1.1897E0,1.7233661E0],"categories":[],"categories_nodes":[],"categories_segments":[],"categories_sizes":[],"default_left":[0,0,0,0,0,0,0,0,0,0,0,0,0,0,0,0,0,0,0,0,0,0,0,0,0,0,0,0,0,0,0,0,0,0,0,0,0,0,0,0,0,0,0,0,0,0,0,0,0,0,0,0,0,0,0,0,0,0,0,0,0,0,0,0,0,0,0,0,0,0,0,0,0,0,0,0,0,0,0,0,0,0,0,0,0,0,0,0,0,0,0,0,0,0,0,0,0,0,0,0,0,0,0,0,0,0,0,0,0,0,0,0,0,0,0,0,0,0,0,0,0,0,0],"id":4,"left_children":[1,3,5,7,9,11,13,15,17,19,21,23,25,27,29,31,33,35,37,39,41,43,45,47,49,51,53,55,57,59,61,63,65,67,69,71,73,75,77,79,81,83,85,87,89,91,93,95,97,99,101,103,105,107,109,111,113,115,117,119,121,-1,-1,-1,-1,-1,-1,-1,-1,-1,-1,-1,-1,-1,-1,-1,-1,-1,-1,-1,-1,-1,-1,-1,-1,-1,-1,-1,-1,-1,-1,-1,-1,-1,-1,-1,-1,-1,-1,-1,-1,-1,-1,-1,-1,-1,-1,-1,-1,-1,-1,-1,-1,-1,-1,-1,-1,-1,-1,-1,-1,-1,-1],"loss_changes":[1.1544398E6,3.1980144E5,2.4988131E5,4.7642E4,5.522811E4,4.03465E4,5.08115E4,8.406406E3,4.6805E3,8.851922E3,7.176502E3,7.54734E3,7.5855938E3,9.705594E3,9.9035E3,7.441875E2,8.656406E2,1.1146562E3,1.5838594E3,2.2044062E3,2.3676875E3,2.1893496E3,3.148406E3,2.6723306E3,2.8046777E3,5.3684844E3,1.2281484E3,3.9196875E3,2.4153594E3,8.374531E2,9.483906E2,8.6125E1,7.5609375E1,1.3276562E3,4.101953E2,2.8243164E2,4.2867188E2,1.6736328E2,1.4019531E3,3.4841797E2,9.7327344E2,1.7960469E3,6.7341016E2,9.3510156E2,1.0456052E3,2.5840505E3,9.972346E2,1.6067334E3,8.441118E2,1.1028398E3,7.547959E2,1.6897227E3,1.5610938E3,6.6691455E2,3.5519043E2,1.381E3,5.470449E2,1.13525E3,2.665E2,7.477969E2,2.0294727E2,0E0,0E0,0E0,0E0,0E0,0E0,0E0,0E0,0E0,0E0,0E0,0E0,0E0,0E0,0E0,0E0,0E0,0E0,0E0,0E0,0E0,0E0,0E0,0E0,0E0,0E0,0E0,0E0,0E0,0E0,0E0,0E0,0E0,0E0,0E0,0E0,0E0,0E0,0E0,0E0,0E0,0E0,0E0,0E0,0E0,0E0,0E0,0E0,0E0,0E0,0E0,0E0,0E0,0E0,0E0,0E0,0E0,0E0,0E0,0E0,0E0,0E0],"parents":[2147483647,0,0,1,1,2,2,3,3,4,4,5,5,6,6,7,7,8,8,9,9,10,10,11,11,12,12,13,13,14,14,15,15,16,16,17,17,18,18,19,19,20,20,21,21,22,22,23,23,24,24,25,25,26,26,27,27,28,28,29,29,30,30,31,31,32,32,33,33,34,34,35,35,36,36,37,37,38,38,39,39,40,40,41,41,42,42,43,43,44,44,45,45,46,46,47,47,48,48,49,49,50,50,51,51,52,52,53,53,54,54,55,55,56,56,57,57,58,58,59,59,60,60],"right_children":[2,4,6,8,10,12,14,16,18,20,22,24,26,28,30,32,34,36,38,40,42,44,46,48,50,52,54,56,58,60,62,64,66,68,70,72,74,76,78,80,82,84,86,88,90,92,94,96,98,100,102,104,106,108,110,112,114,116,118,120,122,-1,-1,-1,-1,-1,-1,-1,-1,-1,-1,-1,-1,-1,-1,-1,-1,-1,-1,-1,-1,-1,-1,-1,-1,-1,-1,-1,-1,-1,-1,-1,-1,-1,-1,-1,-1,-1,-1,-1,-1,-1,-1,-1,-1,-1,-1,-1,-1,-1,-1,-1,-1,-1,-1,-1,-1,-1,-1,-1,-1,-1,-1],"split_conditions":[2.1871015E-2,-1.0892484E0,1.008201E0,-1.8083739E0,-4.660063E-1,5.0199306E-1,1.8979427E0,-2.3618186E0,-1.4600916E0,-7.5083643E-1,-1.2825821E-1,3.654843E-1,7.0722926E-1,1.3790442E0,2.343981E0,-2.6938853E0,1.2245907E0,-1.808333E0,-1.263866E0,-9.478708E-1,1.0001173E0,-2.1431237E-1,1.0001173E0,1.0001173E0,5.0149375E-1,-7.0695925E-1,4.2896548E-1,7.0722926E-1,1.575471E0,7.0722926E-1,3.0027747E0,-5.264874E-1,-2.267159E0,-1.0001937E0,9.996273E-1,1.2028457E0,1.2245907E0,-1.1090924E0,4.0206175E-2,9.998418E-1,1.0001173E0,-7.0695925E-1,3.6585596E-1,1.0001173E0,1.2245907E0,4.044546E-1,-3.0911618E-1,2.1081772E-1,1.9389713E-1,-3.0911618E-1,1.2285842E0,7.882332E-1,1.0708307E0,-3.0911618E-1,7.2125584E-1,-9.998473E-1,8.9378875E-1,1.3726922E0,-9.998473E-1,2.2998068E0,9.736042E-1,2.469682E0,3.1100605E0,-2.6400952E0,-1.0217818E0,-5.580544E-1,-2.2924516E0,-1.5449293E0,-2.0225832E0,-1.4334348E0,-1.8378037E0,-1.2578149E0,-7.840871E-1,-1.5955032E0,-1.316087E0,-1.1386131E0,-1.3624718E0,-1.0844939E0,-5.5145127E-1,-1.0296764E0,-8.4503174E-1,-6.86103E-1,-8.7979406E-1,-6.149568E-1,-3.8049552E-1,-7.717815E-1,-5.8951163E-1,-3.0774134E-1,-4.663292E-1,-2.2060068E-1,8.315215E-2,-4.862861E-2,2.591913E-1,-3.9318097E-1,-1.3569361E-1,1.1534301E-1,2.9300746E-1,-7.780103E-2,9.273399E-2,2.1080594E-1,3.8581428E-1,5.3198135E-1,8.7804645E-1,5.2104586E-1,7.685332E-1,8.535862E-1,1.1248063E0,4.441134E-1,2.052168E-1,4.263475E-1,6.2356806E-1,1.0004228E0,1.2219106E0,7.127165E-1,9.4527483E-1,1.3778061E0,1.0575646E0,1.4128469E0,1.6873865E0,1.909241E0,2.3044562E0,1.1897E0,1.7233661E0],"split_indices":[67,67,67,67,67,67,67,67,67,67,24,24,59,67,24,67,58,68,24,24,59,67,59,59,71,59,24,59,70,59,24,70,15,58,50,75,58,51,71,58,59,59,58,59,58,71,51,67,67,51,71,67,24,51,67,59,24,49,59,67,70,0,0,0,0,0,0,0,0,0,0,0,0,0,0,0,0,0,0,0,0,0,0,0,0,0,0,0,0,0,0,0,0,0,0,0,0,0,0,0,0,0,0,0,0,0,0,0,0,0,0,0,0,0,0,0,0,0,0,0,0,0,0],"split_type":[0,0,0,0,0,0,0,0,0,0,0,0,0,0,0,0,0,0,0,0,0,0,0,0,0,0,0,0,0,0,0,0,0,0,0,0,0,0,0,0,0,0,0,0,0,0,0,0,0,0,0,0,0,0,0,0,0,0,0,0,0,0,0,0,0,0,0,0,0,0,0,0,0,0,0,0,0,0,0,0,0,0,0,0,0,0,0,0,0,0,0,0,0,0,0,0,0,0,0,0,0,0,0,0,0,0,0,0,0,0,0,0,0,0,0,0,0,0,0,0,0,0,0],"sum_hessian":[2.4428E4,1.2403E4,1.2025E4,2.863E3,9.54E3,8.299E3,3.726E3,1.147E3,1.716E3,4.293E3,5.247E3,5.15E3,3.149E3,3.055E3,6.71E2,4.78E2,6.69E2,6.65E2,1.051E3,1.909E3,2.384E3,2.742E3,2.505E3,3.223E3,1.927E3,2.25E3,8.99E2,1.815E3,1.24E3,5.01E2,1.7E2,1.91E2,2.87E2,5.05E2,1.64E2,1.22E2,5.43E2,3.59E2,6.92E2,6.38E2,1.271E3,1.494E3,8.9E2,1.598E3,1.144E3,1.899E3,6.06E2,2.063E3,1.16E3,1.473E3,4.54E2,1.166E3,1.084E3,4.75E2,4.24E2,1.341E3,4.74E2,8.38E2,4.02E2,3.87E2,1.14E2,7.7E1,9.3E1,1.89E2,2E0,1E0,2.86E2,9E1,4.15E2,8.9E1,7.5E1,1E2,2.2E1,4.38E2,1.05E2,8.9E1,2.7E2,6.35E2,5.7E1,4.57E2,1.81E2,8.72E2,3.99E2,4.92E2,1.002E3,3.66E2,5.24E2,9.9E2,6.08E2,1.017E3,1.27E2,1.57E3,3.29E2,2.84E2,3.22E2,1.143E3,9.2E2,5.97E2,5.63E2,6.46E2,8.27E2,3.75E2,7.9E1,6.9E2,4.76E2,7.69E2,3.15E2,2.2E2,2.55E2,1.56E2,2.68E2,4.78E2,8.63E2,2.9E2,1.84E2,6.82E2,1.56E2,9E1,3.12E2,2.89E2,9.8E1,1.9E1,9.5E1],"tree_param":{"num_deleted":"0","num_feature":"78","num_nodes":"123","size_leaf_vector":"1"}},{"base_weights":[-3.0980833E-4,-7.193807E0,5.3320045E0,-1.5673284E1,-4.7975464E0,2.099456E0,1.10584755E1,-2.0444483E1,-1.3272733E1,-7.326905E0,-3.0249295E0,6.8068904E-1,4.1830955E0,9.41286E0,1.8107418E1,-2.2359406E1,-1.847618E1,-1.546003E1,-1.1946457E1,-8.771781E0,-6.242438E0,-4.1324797E0,-1.9304196E0,-3.50906E-1,1.7873362E0,3.2422981E0,5.928902E0,8.023177E0,1.1527493E1,1.6302027E1,2.516968E1,-2.4879355E0,-2.1441788E1,-2.0362651E0,-1.7611237E1,-1.605923E1,-1.3510283E1,-1.0892402E1,-1.3770235E1,-7.8741326E0,-1.0214983E1,-7.077395E0,-5.22362E0,-4.6844916E0,-3.1007128E0,-1.342661E0,-3.6653395E0,6.8247783E-1,-1.002432E0,1.2400111E0,3.7455666E0,3.9101064E0,1.7220823E0,5.3933687E0,8.368125E0,8.904495E0,5.617886E0,1.2275467E1,9.514833E0,1.7128708E1,1.3520156E1,2.2286873E1,2.8356135E0,-1.6642989E0,-2.1854482E0,-1.7833942E0,-9.171242E-1,-1.61091E0,2.742386E-1,-1.3688046E0,-3.9999276E-1,-1.2859296E0,-9.85765E-1,-1.4693098E0,-1.2218997E0,-9.475005E-1,-6.956755E-1,-1.1596789E0,-9.411985E-1,-6.7314863E-1,-8.312734E-1,-6.231527E-1,-4.105447E-1,-4.1513196E-1,-5.3982705E-1,-2.542498E-1,-5.099262E-1,-2.633849E-1,-5.263863E-2,-4.749464E-1,-2.697411E-1,2.1257954E-2,2.827729E-1,-3.4164214E-1,-4.7240373E-2,6.807424E-2,2.244196E-1,1.3276446E-1,4.3511292E-1,7.8060144E-1,3.6387026E-1,1.3888381E-1,2.9965344E-1,4.9525198E-1,7.122685E-1,9.190542E-1,6.177016E-1,7.2933143E-1,9.7808474E-1,4.6750078E-1,6.6916776E-1,1.089434E0,1.3028021E0,8.7478703E-1,1.1025615E0,1.6090691E0,1.8722636E0,1.0452521E0,1.4525617E0,1.9349594E-1,2.2462273E0],"categories":[],"categories_nodes":[],"categories_segments":[],"categories_sizes":[],"default_left":[0,0,0,0,0,0,0,0,0,0,0,0,0,0,0,0,0,0,0,0,0,0,0,0,0,0,0,0,0,0,0,0,0,0,0,0,0,0,0,0,0,0,0,0,0,0,0,0,0,0,0,0,0,0,0,0,0,0,0,0,0,0,0,0,0,0,0,0,0,0,0,0,0,0,0,0,0,0,0,0,0,0,0,0,0,0,0,0,0,0,0,0,0,0,0,0,0,0,0,0,0,0,0,0,0,0,0,0,0,0,0,0,0,0,0,0,0,0,0,0,0],"id":5,"left_children":[1,3,5,7,9,11,13,15,17,19,21,23,25,27,29,31,33,35,37,39,41,43,45,47,49,51,53,55,57,59,61,-1,63,-1,65,67,69,71,73,75,77,79,81,83,85,87,89,91,93,95,97,99,101,103,105,107,109,111,113,115,117,119,-1,-1,-1,-1,-1,-1,-1,-1,-1,-1,-1,-1,-1,-1,-1,-1,-1,-1,-1,-1,-1,-1,-1,-1,-1,-1,-1,-1,-1,-1,-1,-1,-1,-1,-1,-1,-1,-1,-1,-1,-1,-1,-1,-1,-1,-1,-1,-1,-1,-1,-1,-1,-1,-1,-1,-1,-1,-1,-1],"loss_changes":[9.370857E5,2.1124281E5,2.5968744E5,2.5968625E4,3.6339703E4,2.65113E4,5.8548E4,2.4702812E3,4.2450625E3,5.180328E3,5.774332E3,6.093408E3,5.947797E3,1.19736875E4,1.1791531E4,3.5217188E2,2.663203E2,4.5246875E2,1.6858594E3,1.7721172E3,1.5895156E3,1.3353047E3,2.443412E3,1.8609465E3,2.755211E3,2.3922148E3,1.6151562E3,5.2092812E3,2.3310156E3,1.5277031E3,1.1409219E3,0E0,2.0665625E2,0E0,3.439453E2,4.5017188E2,1.836211E2,1.1147422E3,3.1579688E2,1.2352734E3,4.9557422E2,3.918672E2,9.492832E2,5.644219E2,9.118838E2,1.8904795E3,6.24147E2,1.0770042E3,2.1671094E3,1.1295532E3,8.1710547E2,1.7067324E3,3.0289917E2,7.614004E2,3.5228516E2,2.4899688E3,6.4503516E2,1.086625E3,4.1917578E2,6.6828125E2,4.0335938E2,3.3492188E2,0E0,0E0,0E0,0E0,0E0,0E0,0E0,0E0,0E0,0E0,0E0,0E0,0E0,0E0,0E0,0E0,0E0,0E0,0E0,0E0,0E0,0E0,0E0,0E0,0E0,0E0,0E0,0E0,0E0,0E0,0E0,0E0,0E0,0E0,0E0,0E0,0E0,0E0,0E0,0E0,0E0,0E0,0E0,0E0,0E0,0E0,0E0,0E0,0E0,0E0,0E0,0E0,0E0,0E0,0E0,0E0,0E0,0E0,0E0],"parents":[2147483647,0,0,1,1,2,2,3,3,4,4,5,5,6,6,7,7,8,8,9,9,10,10,11,11,12,12,13,13,14,14,15,15,16,16,17,17,18,18,19,19,20,20,21,21,22,22,23,23,24,24,25,25,26,26,27,27,28,28,29,29,30,30,32,32,34,34,35,35,36,36,37,37,38,38,39,39,40,40,41,41,42,42,43,43,44,44,45,45,46,46,47,47,48,48,49,49,50,50,51,51,52,52,53,53,54,54,55,55,56,56,57,57,58,58,59,59,60,60,61,61],"right_children":[2,4,6,8,10,12,14,16,18,20,22,24,26,28,30,32,34,36,38,40,42,44,46,48,50,52,54,56,58,60,62,-1,64,-1,66,68,70,72,74,76,78,80,82,84,86,88,90,92,94,96,98,100,102,104,106,108,110,112,114,116,118,120,-1,-1,-1,-1,-1,-1,-1,-1,-1,-1,-1,-1,-1,-1,-1,-1,-1,-1,-1,-1,-1,-1,-1,-1,-1,-1,-1,-1,-1,-1,-1,-1,-1,-1,-1,-1,-1,-1,-1,-1,-1,-1,-1,-1,-1,-1,-1,-1,-1,-1,-1,-1,-1,-1,-1,-1,-1,-1,-1],"split_conditions":[-1.4592494E-1,-1.2514042E0,7.882332E-1,-2.0720534E0,-6.401475E-1,2.9542074E-1,1.6970105E0,-2.4802628E0,-1.7047353E0,-9.193374E-1,-2.862558E-1,1.256665E-1,5.7708824E-1,1.2232337E0,2.524005E0,-2.8313653E0,-2.385367E0,1.2245907E0,1.0001173E0,1.0001173E0,-6.2270606E-1,-3.6659777E-1,1.0001173E0,-3.0911618E-1,4.044546E-1,1.0001173E0,1.0113009E0,7.0722926E-1,7.0722926E-1,7.0722926E-1,3.0027747E0,-2.4879355E0,-1.2249426E0,-2.0362651E0,-2.3364928E-1,8.685549E-1,3.2823505E0,-7.0695925E-1,7.069434E-1,-7.0695925E-1,3.6585596E-1,1.3661362E0,-3.0911618E-1,1.0001173E0,1.2282207E0,-3.6588392E-1,-3.0911618E-1,1.2245907E0,-2.862558E-1,2.1827884E-1,-7.0695925E-1,-6.4990884E-1,3.6585596E-1,9.010986E-1,6.1755043E-1,-9.998473E-1,6.328106E-1,-9.998473E-1,1.1448921E0,2.077019E0,1.2446203E0,-1.3189672E0,2.8356135E0,-1.6642989E0,-2.1854482E0,-1.7833942E0,-9.171242E-1,-1.61091E0,2.742386E-1,-1.3688046E0,-3.9999276E-1,-1.2859296E0,-9.85765E-1,-1.4693098E0,-1.2218997E0,-9.475005E-1,-6.956755E-1,-1.1596789E0,-9.411985E-1,-6.7314863E-1,-8.312734E-1,-6.231527E-1,-4.105447E-1,-4.1513196E-1,-5.3982705E-1,-2.542498E-1,-5.099262E-1,-2.633849E-1,-5.263863E-2,-4.749464E-1,-2.697411E-1,2.1257954E-2,2.827729E-1,-3.4164214E-1,-4.7240373E-2,6.807424E-2,2.244196E-1,1.3276446E-1,4.3511292E-1,7.8060144E-1,3.6387026E-1,1.3888381E-1,2.9965344E-1,4.9525198E-1,7.122685E-1,9.190542E-1,6.177016E-1,7.2933143E-1,9.7808474E-1,4.6750078E-1,6.6916776E-1,1.089434E0,1.3028021E0,8.7478703E-1,1.1025615E0,1.6090691E0,1.8722636E0,1.0452521E0,1.4525617E0,1.9349594E-1,2.2462273E0],"split_indices":[67,67,67,67,67,67,67,67,67,67,24,24,24,67,67,67,24,58,59,59,24,67,59,51,71,59,71,59,59,59,24,0,58,0,70,71,30,59,58,59,58,59,51,59,49,59,51,58,24,70,59,49,58,70,68,59,24,59,24,67,70,17,0,0,0,0,0,0,0,0,0,0,0,0,0,0,0,0,0,0,0,0,0,0,0,0,0,0,0,0,0,0,0,0,0,0,0,0,0,0,0,0,0,0,0,0,0,0,0,0,0,0,0,0,0,0,0,0,0,0,0],"split_type":[0,0,0,0,0,0,0,0,0,0,0,0,0,0,0,0,0,0,0,0,0,0,0,0,0,0,0,0,0,0,0,0,0,0,0,0,0,0,0,0,0,0,0,0,0,0,0,0,0,0,0,0,0,0,0,0,0,0,0,0,0,0,0,0,0,0,0,0,0,0,0,0,0,0,0,0,0,0,0,0,0,0,0,0,0,0,0,0,0,0,0,0,0,0,0,0,0,0,0,0,0,0,0,0,0,0,0,0,0,0,0,0,0,0,0,0,0,0,0,0,0],"sum_hessian":[2.4428E4,1.0399E4,1.4029E4,2.29E3,8.109E3,8.968E3,5.061E3,7.64E2,1.526E3,3.34E3,4.769E3,5.336E3,3.632E3,4.105E3,9.56E2,3.82E2,3.82E2,5.72E2,9.54E2,1.429E3,1.911E3,2.369E3,2.4E3,2.762E3,2.574E3,2.362E3,1.27E3,2.48E3,1.625E3,7.64E2,1.92E2,9.5E1,2.87E2,1.13E2,2.69E2,4.32E2,1.4E2,6.09E2,3.45E2,8.85E2,5.44E2,1.047E3,8.64E2,1.541E3,8.28E2,1.794E3,6.06E2,1.068E3,1.694E3,2.013E3,5.61E2,1.64E3,7.22E2,1.044E3,2.26E2,1.813E3,6.67E2,1.181E3,4.44E2,5.85E2,1.79E2,1.05E2,8.7E1,2.6E1,2.61E2,2.61E2,8E0,4.31E2,1E0,1.37E2,3E0,2.06E2,4.03E2,2.11E2,1.34E2,3.19E2,5.66E2,1.95E2,3.49E2,8.23E2,2.24E2,4.52E2,4.12E2,8.86E2,6.55E2,6.49E2,1.79E2,6.94E2,1.1E3,2.84E2,3.22E2,8.77E2,1.91E2,3.04E2,1.39E3,1.294E3,7.19E2,1.13E2,4.48E2,1.05E2,1.535E3,5.74E2,1.48E2,8.35E2,2.09E2,1.62E2,6.4E1,6.42E2,1.171E3,3.58E2,3.09E2,4.22E2,7.59E2,2.99E2,1.45E2,3.61E2,2.24E2,4.7E1,1.32E2,1E0,1.04E2],"tree_param":{"num_deleted":"0","num_feature":"78","num_nodes":"121","size_leaf_vector":"1"}},{"base_weights":[-4.6839615E-4,-5.2500043E0,5.937832E0,-1.2556707E1,-2.9042094E0,3.5874698E0,1.1640866E1,-1.7074944E1,-9.962151E0,-5.1690054E0,-1.278405E0,2.1842124E0,6.025987E0,1.0137333E1,1.7606354E1,-1.9357737E1,-1.4774395E1,-1.1670808E1,-8.680538E0,-6.2564006E0,-4.1283627E0,-2.1761208E0,-1.4946474E-1,1.4321275E0,3.6633112E0,6.8417487E0,3.9123096E0,9.102128E0,1.1988149E1,1.5529629E1,2.2680044E1,-2.1376804E1,-1.8292244E1,-1.39186325E1,-1.6579746E0,-1.3246762E1,-1.0724052E1,-5.5104012E0,-9.031192E0,-7.3372135E0,-5.48129E0,-2.8054943E0,-4.6173134E0,-3.031547E0,-1.5431687E0,-1.3791561E0,8.230964E-1,2.0242183E0,3.0548814E-1,2.866521E0,5.149427E0,5.252285E0,7.7862816E0,3.060737E0,5.0383186E0,9.764412E0,7.195663E0,1.2805E1,9.939601E0,1.4523312E1,1.7328752E0,2.0081203E1,2.555274E0,-4.5226166E-1,-2.1441367E0,-1.832275E0,-3.334585E-1,-1.5827914E0,-1.3103222E0,-1.3865224E0,-1.2225242E0,-8.9118016E-1,-1.1518531E0,-6.568602E-1,1.1006977E-1,-9.7628134E-1,-7.704942E-1,-7.041147E-1,-8.929955E-1,-3.6369425E-1,-5.9161115E-1,-3.7892422E-1,-1.570574E-1,-4.0806904E-1,-5.6087077E-1,-3.4483188E-1,-2.0405261E-1,-1.1051468E-1,-3.4012812E-1,-1.9100784E-1,8.75025E-2,3.5423044E-2,5.70174E-1,1.0064936E-1,2.6608583E-1,-3.7748303E-2,9.3031E-2,1.9962524E-1,3.5936844E-1,6.264269E-1,3.3045143E-1,4.4704267E-1,6.346609E-1,7.1227354E-1,9.51775E-1,4.3385467E-1,2.070813E-1,3.3152017E-1,5.377545E-1,9.377672E-1,1.1829151E0,6.55789E-1,8.3903027E-1,1.117699E0,1.3628601E0,9.0408736E-1,1.1677209E0,1.5220295E0,1.172667E0,1.8382111E-1,2.0237439E0],"categories":[],"categories_nodes":[],"categories_segments":[],"categories_sizes":[],"default_left":[0,0,0,0,0,0,0,0,0,0,0,0,0,0,0,0,0,0,0,0,0,0,0,0,0,0,0,0,0,0,0,0,0,0,0,0,0,0,0,0,0,0,0,0,0,0,0,0,0,0,0,0,0,0,0,0,0,0,0,0,0,0,0,0,0,0,0,0,0,0,0,0,0,0,0,0,0,0,0,0,0,0,0,0,0,0,0,0,0,0,0,0,0,0,0,0,0,0,0,0,0,0,0,0,0,0,0,0,0,0,0,0,0,0,0,0,0,0,0,0,0],"id":6,"left_children":[1,3,5,7,9,11,13,15,17,19,21,23,25,27,29,31,33,35,37,39,41,43,45,47,49,51,53,55,57,59,61,63,65,67,-1,69,71,73,75,77,79,81,83,85,87,89,91,93,95,97,99,101,103,105,107,109,111,113,115,117,-1,119,-1,-1,-1,-1,-1,-1,-1,-1,-1,-1,-1,-1,-1,-1,-1,-1,-1,-1,-1,-1,-1,-1,-1,-1,-1,-1,-1,-1,-1,-1,-1,-1,-1,-1,-1,-1,-1,-1,-1,-1,-1,-1,-1,-1,-1,-1,-1,-1,-1,-1,-1,-1,-1,-1,-1,-1,-1,-1,-1],"loss_changes":[7.6156425E5,2.2221828E5,1.5361056E5,3.676853E4,3.614071E4,2.7768984E4,2.9823875E4,5.7429375E3,4.2871406E3,4.615953E3,5.7926543E3,5.729215E3,5.0856562E3,5.0141562E3,6.7284062E3,8.4165625E2,6.59125E2,1.135125E3,1.2274844E3,1.638625E3,1.3447148E3,1.7192783E3,3.0304766E3,2.2801035E3,2.0420586E3,3.1688828E3,7.7853125E2,2.1001875E3,1.4724688E3,6.173672E2,9.277422E2,1.11953125E2,1.1321875E2,4.1067188E2,0E0,3.0765625E1,6.7483984E2,8.257468E2,9.271094E2,3.3040234E2,9.1758203E2,6.8529834E2,7.916133E2,5.5179297E2,1.4872949E3,1.3408848E3,3.2346934E3,1.4493203E3,5.03472E2,7.0981934E2,1.2236572E3,6.5611523E2,1.4705938E3,5.9059424E2,1.8968066E2,9.0558594E2,2.8555078E2,7.594375E2,3.2700195E2,4.335703E2,0E0,2.6491797E2,0E0,0E0,0E0,0E0,0E0,0E0,0E0,0E0,0E0,0E0,0E0,0E0,0E0,0E0,0E0,0E0,0E0,0E0,0E0,0E0,0E0,0E0,0E0,0E0,0E0,0E0,0E0,0E0,0E0,0E0,0E0,0E0,0E0,0E0,0E0,0E0,0E0,0E0,0E0,0E0,0E0,0E0,0E0,0E0,0E0,0E0,0E0,0E0,0E0,0E0,0E0,0E0,0E0,0E0,0E0,0E0,0E0,0E0,0E0],"parents":[2147483647,0,0,1,1,2,2,3,3,4,4,5,5,6,6,7,7,8,8,9,9,10,10,11,11,12,12,13,13,14,14,15,15,16,16,17,17,18,18,19,19,20,20,21,21,22,22,23,23,24,24,25,25,26,26,27,27,28,28,29,29,30,30,31,31,32,32,33,33,35,35,36,36,37,37,38,38,39,39,40,40,41,41,42,42,43,43,44,44,45,45,46,46,47,47,48,48,49,49,50,50,51,51,52,52,53,53,54,54,55,55,56,56,57,57,58,58,59,59,61,61],"right_children":[2,4,6,8,10,12,14,16,18,20,22,24,26,28,30,32,34,36,38,40,42,44,46,48,50,52,54,56,58,60,62,64,66,68,-1,70,72,74,76,78,80,82,84,86,88,90,92,94,96,98,100,102,104,106,108,110,112,114,116,118,-1,120,-1,-1,-1,-1,-1,-1,-1,-1,-1,-1,-1,-1,-1,-1,-1,-1,-1,-1,-1,-1,-1,-1,-1,-1,-1,-1,-1,-1,-1,-1,-1,-1,-1,-1,-1,-1,-1,-1,-1,-1,-1,-1,-1,-1,-1,-1,-1,-1,-1,-1,-1,-1,-1,-1,-1,-1,-1,-1,-1],"split_conditions":[6.4172514E-2,-1.0272062E0,1.0850488E0,-1.8083739E0,-4.5543092E-1,5.908262E-1,1.8979427E0,-2.2610002E0,-1.3620931E0,-7.000746E-1,-6.618773E-2,4.3601894E-1,7.0722926E-1,1.458007E0,2.524005E0,-2.6938853E0,1.2248582E0,-1.5953788E0,-1.4600661E0,-8.046855E-1,-6.528483E-1,-2.5943398E-1,-3.0911618E-1,1.0001173E0,3.5978496E-1,-9.998473E-1,5.3194606E-1,7.0722926E-1,7.0722926E-1,1.6463934E0,3.0027747E0,-1.4321007E0,6.0192496E-1,-7.0695925E-1,-1.6579746E0,7.069434E-1,-1.7567773E0,1.3394616E0,9.998418E-1,1.2282207E0,-1.0095751E0,-3.1870174E-1,-9.51342E-2,9.998418E-1,1.2282207E0,1.3658737E0,4.5717934E-1,-9.998473E-1,2.3478858E-1,-3.0911618E-1,3.5035777E-1,8.686061E-1,1.0990446E0,-4.233985E-1,6.8741465E-1,1.4178612E0,1.0066442E0,-9.998473E-1,1.3106486E0,7.0722926E-1,1.7328752E0,-1.3189672E0,2.555274E0,-4.5226166E-1,-2.1441367E0,-1.832275E0,-3.334585E-1,-1.5827914E0,-1.3103222E0,-1.3865224E0,-1.2225242E0,-8.9118016E-1,-1.1518531E0,-6.568602E-1,1.1006977E-1,-9.7628134E-1,-7.704942E-1,-7.041147E-1,-8.929955E-1,-3.6369425E-1,-5.9161115E-1,-3.7892422E-1,-1.570574E-1,-4.0806904E-1,-5.6087077E-1,-3.4483188E-1,-2.0405261E-1,-1.1051468E-1,-3.4012812E-1,-1.9100784E-1,8.75025E-2,3.5423044E-2,5.70174E-1,1.0064936E-1,2.6608583E-1,-3.7748303E-2,9.3031E-2,1.9962524E-1,3.5936844E-1,6.264269E-1,3.3045143E-1,4.4704267E-1,6.346609E-1,7.1227354E-1,9.51775E-1,4.3385467E-1,2.070813E-1,3.3152017E-1,5.377545E-1,9.377672E-1,1.1829151E0,6.55789E-1,8.3903027E-1,1.117699E0,1.3628601E0,9.0408736E-1,1.1677209E0,1.5220295E0,1.172667E0,1.8382111E-1,2.0237439E0],"split_indices":[67,67,67,67,67,67,67,67,67,67,24,24,59,67,67,67,59,24,68,24,68,67,51,59,76,59,24,59,59,24,24,10,70,59,0,58,69,77,58,49,68,24,73,58,49,58,24,59,67,51,68,67,24,51,67,24,24,59,24,59,0,17,0,0,0,0,0,0,0,0,0,0,0,0,0,0,0,0,0,0,0,0,0,0,0,0,0,0,0,0,0,0,0,0,0,0,0,0,0,0,0,0,0,0,0,0,0,0,0,0,0,0,0,0,0,0,0,0,0,0,0],"split_type":[0,0,0,0,0,0,0,0,0,0,0,0,0,0,0,0,0,0,0,0,0,0,0,0,0,0,0,0,0,0,0,0,0,0,0,0,0,0,0,0,0,0,0,0,0,0,0,0,0,0,0,0,0,0,0,0,0,0,0,0,0,0,0,0,0,0,0,0,0,0,0,0,0,0,0,0,0,0,0,0,0,0,0,0,0,0,0,0,0,0,0,0,0,0,0,0,0,0,0,0,0,0,0,0,0,0,0,0,0,0,0,0,0,0,0,0,0,0,0,0,0],"sum_hessian":[2.4428E4,1.2966E4,1.1462E4,3.15E3,9.816E3,8.118E3,3.344E3,1.147E3,2.003E3,4.101E3,5.715E3,5.154E3,2.964E3,2.673E3,6.71E2,5.72E2,5.75E2,8.55E2,1.148E3,2.003E3,2.098E3,3.183E3,2.532E3,3.418E3,1.736E3,2.137E3,8.27E2,1.718E3,9.55E2,4.79E2,1.92E2,1.91E2,3.81E2,3.96E2,1.79E2,3.16E2,5.39E2,1.16E2,1.032E3,8.33E2,1.17E3,5.68E2,1.53E3,1.352E3,1.831E3,1.118E3,1.414E3,2.24E3,1.178E3,1.132E3,6.04E2,7.99E2,1.338E3,4.73E2,3.54E2,1.272E3,4.46E2,6.79E2,2.76E2,3.13E2,1.66E2,1.05E2,8.7E1,1E0,1.9E2,3.8E2,1E0,1.13E2,2.83E2,1.89E2,1.27E2,1.68E2,3.71E2,1E2,1.6E1,6.61E2,3.71E2,7.07E2,1.26E2,2.25E2,9.45E2,3.15E2,2.53E2,9.96E2,5.34E2,9.5E2,4.02E2,1.483E3,3.48E2,9.05E2,2.13E2,1.291E3,1.23E2,8.63E2,1.377E3,5.63E2,6.15E2,5.17E2,6.15E2,3.75E2,2.29E2,4.69E2,3.3E2,9.71E2,3.67E2,2.05E2,2.68E2,6E1,2.94E2,1.076E3,1.96E2,2.95E2,1.51E2,2.33E2,4.46E2,1.86E2,9E1,2.47E2,6.6E1,1E0,1.04E2],"tree_param":{"num_deleted":"0","num_feature":"78","num_nodes":"121","size_leaf_vector":"1"}},{"base_weights":[-3.095894E-4,-5.0740995E0,4.987812E0,-1.1880763E1,-3.0571992E0,2.7744393E0,1.00896435E1,-1.5949247E1,-9.728886E0,-5.1778235E0,-1.5904405E0,1.3924884E0,4.7504387E0,8.590968E0,1.5060774E1,-1.7776747E1,-1.40845585E1,-1.1226517E1,-8.374602E0,-6.246664E0,-4.3003445E0,-2.6110013E0,-7.680711E-1,1.9629346E0,-3.2421533E-2,3.9338524E0,6.3899975E0,7.818423E0,1.0600637E1,1.3581673E1,2.0873022E1,-1.9996414E0,-1.6979097E1,-9.573281E0,-1.439759E1,-1.2926326E1,-1.0474054E1,-5.580537E0,-8.8115015E0,-6.597618E0,-4.3290715E0,-5.1945305E0,-3.5648775E0,-1.5327294E0,-3.1981885E0,-2.7113393E-1,-2.251412E0,8.914792E-1,2.805033E0,-7.6160085E-1,6.633439E-1,4.639978E0,2.6738036E0,5.91649E0,8.625758E0,6.966458E0,9.171983E0,9.837663E0,1.2506727E1,1.2647033E1,1.5457053E1,1.8802058E0,2.3868847E0,-1.7941658E0,-1.5565833E0,-1.0280346E0,1.1598396E-1,-1.5090903E0,-1.2227055E0,-1.8824731E-1,-1.2961835E0,-1.0796373E0,-7.1501714E-1,-6.3161546E-1,1.4744925E-2,-8.413786E-1,-1.1346824E0,-4.2528448E-1,-6.8564886E-1,-3.1450295E-1,-5.8175915E-1,-4.1478682E-1,-5.59786E-1,-1.727257E-1,-3.9709803E-1,-2.3836596E-1,-6.382516E-2,-5.930286E-1,-2.7613494E-1,-7.269066E-2,1.6137408E-1,-3.2076553E-1,-1.5041855E-1,1.143081E-3,1.8111037E-1,1.7811309E-1,4.4886556E-1,-1.4525859E-1,3.227005E-2,1.0946776E-1,-2.528557E-2,3.5721394E-1,5.6415457E-1,1.9843216E-1,3.5111228E-1,6.26417E-1,3.5958844E-1,6.6299534E-1,9.603972E-1,7.6834387E-1,5.851558E-1,8.5494614E-1,1.0427241E0,8.6479396E-1,1.0569671E0,1.1813226E0,1.6420895E0,1.2098578E0,1.6025702E0,4.4557445E-2,1.5589687E0],"categories":[],"categories_nodes":[],"categories_segments":[],"categories_sizes":[],"default_left":[0,0,0,0,0,0,0,0,0,0,0,0,0,0,0,0,0,0,0,0,0,0,0,0,0,0,0,0,0,0,0,0,0,0,0,0,0,0,0,0,0,0,0,0,0,0,0,0,0,0,0,0,0,0,0,0,0,0,0,0,0,0,0,0,0,0,0,0,0,0,0,0,0,0,0,0,0,0,0,0,0,0,0,0,0,0,0,0,0,0,0,0,0,0,0,0,0,0,0,0,0,0,0,0,0,0,0,0,0,0,0,0,0,0,0,0,0,0,0,0,0],"id":7,"left_children":[1,3,5,7,9,11,13,15,17,19,21,23,25,27,29,31,33,35,37,39,41,43,45,47,49,51,53,55,57,59,61,-1,63,65,67,69,71,73,75,77,79,81,83,85,87,89,91,93,95,97,99,101,103,105,107,109,111,113,115,117,119,-1,-1,-1,-1,-1,-1,-1,-1,-1,-1,-1,-1,-1,-1,-1,-1,-1,-1,-1,-1,-1,-1,-1,-1,-1,-1,-1,-1,-1,-1,-1,-1,-1,-1,-1,-1,-1,-1,-1,-1,-1,-1,-1,-1,-1,-1,-1,-1,-1,-1,-1,-1,-1,-1,-1,-1,-1,-1,-1,-1],"loss_changes":[6.182911E5,1.6622784E5,1.3908134E5,2.4078344E4,2.9055758E4,2.3458578E4,2.7637125E4,3.0074062E3,3.5831406E3,3.5558594E3,4.635005E3,4.111383E3,4.709008E3,4.3667656E3,7.1270625E3,5.0854688E2,5.371797E2,9.6202344E2,1.1178438E3,1.1289688E3,1.3631914E3,1.5558066E3,2.2557363E3,3.2565E3,7.3462305E2,2.0900781E3,1.1918203E3,2.3278125E3,1.0302188E3,1.0139453E3,6.245547E2,0E0,2.0908594E2,2.699502E2,4.8514062E2,7.716797E1,5.656172E2,5.5712695E2,7.3640625E2,8.521914E2,4.5580762E2,3.7613672E2,8.558213E2,6.614298E2,1.8872363E3,1.9718896E3,5.439343E2,1.2875981E3,3.4776592E3,5.301787E2,2.931109E2,1.5980215E3,4.843291E2,7.6171094E2,3.3264746E2,9.758281E2,5.344297E2,4.058711E2,4.1134766E2,6.696406E2,4.4103516E2,0E0,0E0,0E0,0E0,0E0,0E0,0E0,0E0,0E0,0E0,0E0,0E0,0E0,0E0,0E0,0E0,0E0,0E0,0E0,0E0,0E0,0E0,0E0,0E0,0E0,0E0,0E0,0E0,0E0,0E0,0E0,0E0,0E0,0E0,0E0,0E0,0E0,0E0,0E0,0E0,0E0,0E0,0E0,0E0,0E0,0E0,0E0,0E0,0E0,0E0,0E0,0E0,0E0,0E0,0E0,0E0,0E0,0E0,0E0,0E0],"parents":[2147483647,0,0,1,1,2,2,3,3,4,4,5,5,6,6,7,7,8,8,9,9,10,10,11,11,12,12,13,13,14,14,15,15,16,16,17,17,18,18,19,19,20,20,21,21,22,22,23,23,24,24,25,25,26,26,27,27,28,28,29,29,30,30,32,32,33,33,34,34,35,35,36,36,37,37,38,38,39,39,40,40,41,41,42,42,43,43,44,44,45,45,46,46,47,47,48,48,49,49,50,50,51,51,52,52,53,53,54,54,55,55,56,56,57,57,58,58,59,59,60,60],"right_children":[2,4,6,8,10,12,14,16,18,20,22,24,26,28,30,32,34,36,38,40,42,44,46,48,50,52,54,56,58,60,62,-1,64,66,68,70,72,74,76,78,80,82,84,86,88,90,92,94,96,98,100,102,104,106,108,110,112,114,116,118,120,-1,-1,-1,-1,-1,-1,-1,-1,-1,-1,-1,-1,-1,-1,-1,-1,-1,-1,-1,-1,-1,-1,-1,-1,-1,-1,-1,-1,-1,-1,-1,-1,-1,-1,-1,-1,-1,-1,-1,-1,-1,-1,-1,-1,-1,-1,-1,-1,-1,-1,-1,-1,-1,-1,-1,-1,-1,-1,-1,-1],"split_conditions":[-1.3948113E-3,-1.1146294E0,1.008201E0,-1.9247031E0,-5.2593344E-1,4.491162E-1,1.768923E0,-2.3618186E0,-1.4600916E0,-7.980731E-1,-2.1995325E-1,1.0001173E0,8.056205E-1,1.2753812E0,2.343981E0,-2.8508954E0,-1.2249426E0,-1.7576085E0,-1.5002507E0,1.3658737E0,-5.8038527E-1,-4.233985E-1,1.0001173E0,-7.0695925E-1,1.7697652E-1,7.0722926E-1,1.2482733E0,1.2051997E0,1.5437939E0,2.1792476E0,2.2235618E0,-1.9996414E0,-1.8063505E0,9.196477E-1,1.2245907E0,-1.6677153E0,-2.8255448E-1,1.3394616E0,1.2282207E0,-1.2249426E0,9.996273E-1,-7.662454E-1,-8.276867E-1,-2.5943398E-1,-6.826605E-1,3.0389953E-1,-3.0911618E-1,2.2632827E-1,1.824007E-1,3.6585596E-1,7.8181773E-1,-9.998473E-1,3.259849E-1,1.2282207E0,-3.6588392E-1,7.0722926E-1,1.458007E0,-7.7733845E-1,1.747258E0,9.998418E-1,-1.2969843E0,1.8802058E0,2.3868847E0,-1.7941658E0,-1.5565833E0,-1.0280346E0,1.1598396E-1,-1.5090903E0,-1.2227055E0,-1.8824731E-1,-1.2961835E0,-1.0796373E0,-7.1501714E-1,-6.3161546E-1,1.4744925E-2,-8.413786E-1,-1.1346824E0,-4.2528448E-1,-6.8564886E-1,-3.1450295E-1,-5.8175915E-1,-4.1478682E-1,-5.59786E-1,-1.727257E-1,-3.9709803E-1,-2.3836596E-1,-6.382516E-2,-5.930286E-1,-2.7613494E-1,-7.269066E-2,1.6137408E-1,-3.2076553E-1,-1.5041855E-1,1.143081E-3,1.8111037E-1,1.7811309E-1,4.4886556E-1,-1.4525859E-1,3.227005E-2,1.0946776E-1,-2.528557E-2,3.5721394E-1,5.6415457E-1,1.9843216E-1,3.5111228E-1,6.26417E-1,3.5958844E-1,6.6299534E-1,9.603972E-1,7.6834387E-1,5.851558E-1,8.5494614E-1,1.0427241E0,8.6479396E-1,1.0569671E0,1.1813226E0,1.6420895E0,1.2098578E0,1.6025702E0,4.4557445E-2,1.5589687E0],"split_indices":[67,67,67,67,67,67,67,67,67,67,24,59,24,24,24,24,58,24,68,58,24,51,59,59,67,59,71,70,70,67,3,0,71,13,58,27,71,77,49,58,50,51,68,67,24,71,51,67,76,58,63,59,24,49,59,59,67,62,24,58,62,0,0,0,0,0,0,0,0,0,0,0,0,0,0,0,0,0,0,0,0,0,0,0,0,0,0,0,0,0,0,0,0,0,0,0,0,0,0,0,0,0,0,0,0,0,0,0,0,0,0,0,0,0,0,0,0,0,0,0,0],"split_type":[0,0,0,0,0,0,0,0,0,0,0,0,0,0,0,0,0,0,0,0,0,0,0,0,0,0,0,0,0,0,0,0,0,0,0,0,0,0,0,0,0,0,0,0,0,0,0,0,0,0,0,0,0,0,0,0,0,0,0,0,0,0,0,0,0,0,0,0,0,0,0,0,0,0,0,0,0,0,0,0,0,0,0,0,0,0,0,0,0,0,0,0,0,0,0,0,0,0,0,0,0,0,0,0,0,0,0,0,0,0,0,0,0,0,0,0,0,0,0,0,0],"sum_hessian":[2.4428E4,1.211E4,1.2318E4,2.767E3,9.343E3,8.592E3,3.726E3,9.55E2,1.812E3,3.819E3,5.524E3,5.057E3,3.535E3,2.865E3,8.61E2,4.78E2,4.77E2,8.57E2,9.55E2,1.719E3,2.1E3,2.464E3,3.06E3,3.611E3,1.446E3,2.362E3,1.173E3,2.073E3,7.92E2,6.89E2,1.72E2,1.2E2,3.58E2,3.3E1,4.44E2,2.58E2,5.99E2,1.31E2,8.24E2,1.451E3,2.68E2,9.45E2,1.155E3,8.7E2,1.594E3,2.293E3,7.67E2,1.59E3,2.021E3,7.06E2,7.4E2,1.512E3,8.5E2,9.71E2,2.02E2,1.276E3,7.97E2,5.7E2,2.22E2,4.65E2,2.24E2,1.06E2,6.6E1,2.06E2,1.52E2,3.1E1,2E0,3.32E2,1.12E2,1E0,2.57E2,5.44E2,5.5E1,1.16E2,1.5E1,7.16E2,1.08E2,1.46E2,1.305E3,1.51E2,1.17E2,2.66E2,6.79E2,2.1E2,9.45E2,4.45E2,4.25E2,2.18E2,1.376E3,1.847E3,4.46E2,3.35E2,4.32E2,8.13E2,7.77E2,1.258E3,7.63E2,4.31E2,2.75E2,5.03E2,2.37E2,7.34E2,7.78E2,4.68E2,3.82E2,8.43E2,1.28E2,6.9E1,1.33E2,7.73E2,5.03E2,5.38E2,2.59E2,2.22E2,3.48E2,1.92E2,3E1,4.04E2,6.1E1,2E0,2.22E2],"tree_param":{"num_deleted":"0","num_feature":"78","num_nodes":"121","size_leaf_vector":"1"}},{"base_weights":[-2.1420527E-4,-5.357702E0,3.8400087E0,-1.1641285E1,-3.6342664E0,1.3434379E0,7.8665485E0,-1.5331057E1,-1.0013639E1,-5.597162E0,-2.4206538E0,2.0279859E-1,2.5885875E0,6.5638967E0,1.2743214E1,-1.7622429E0,-1.4453363E1,-1.1466266E1,-8.87235E0,-6.7739735E0,-4.841785E0,-3.4202473E0,-1.7381513E0,-2.299612E-1,1.7769815E0,1.9092606E0,3.9590552E0,5.5238614E0,7.976705E0,1.1571743E1,1.847384E1,-1.5386113E1,-1.2731995E1,-1.0933725E1,-1.3545869E1,-7.9850545E0,-1.0425835E1,-7.391701E0,-6.035888E0,-5.839446E0,-3.9738362E0,-2.3713825E0,-4.0115542E0,-2.3606434E0,-6.8848765E-1,2.199741E0,-6.448485E-1,1.1965208E0,3.886094E0,2.5054634E0,9.856848E-1,3.4597247E0,5.9279714E0,6.0750184E0,3.4796617E0,8.396649E0,5.8366632E0,1.066065E1,1.3280873E1,1.6340418E1,2.0833716E0,-2.1821213E-1,-1.542144E0,-1.171657E0,-1.5391116E0,-1.2287282E0,-1.0138599E0,-1.3612322E0,-2.4203224E-1,-1.0089716E0,-7.3111933E-1,-1.1032971E0,-8.8738644E-1,-8.228264E-1,-6.612302E-1,-4.6967617E-1,-6.60403E-1,-5.4305094E-1,-8.988759E-1,-4.7135183E-1,-1.4737989E-1,-2.8673854E-1,-6.541813E-2,-5.8762926E-1,-3.5337013E-1,-3.1126404E-1,-1.9021612E-1,-1.0043035E-1,2.336602E-1,1.3830586E-1,4.3509418E-1,-3.452934E-2,-1.6381125E-1,2.0161574E-1,6.151184E-2,1.8540269E-1,5.7719934E-1,2.0032175E-1,3.9339864E-1,7.824415E-2,3.3824208E-1,2.472326E-1,4.214003E-1,6.6155666E-1,3.8875908E-1,5.4997766E-1,7.4296075E-1,3.8898143E-1,1.9352959E-1,7.7820843E-1,9.3389875E-1,1.6746958E-1,6.048353E-1,1.1321076E0,9.078612E-1,1.2052191E0,1.4365538E0,9.6681595E-2,1.6477627E0],"categories":[],"categories_nodes":[],"categories_segments":[],"categories_sizes":[],"default_left":[0,0,0,0,0,0,0,0,0,0,0,0,0,0,0,0,0,0,0,0,0,0,0,0,0,0,0,0,0,0,0,0,0,0,0,0,0,0,0,0,0,0,0,0,0,0,0,0,0,0,0,0,0,0,0,0,0,0,0,0,0,0,0,0,0,0,0,0,0,0,0,0,0,0,0,0,0,0,0,0,0,0,0,0,0,0,0,0,0,0,0,0,0,0,0,0,0,0,0,0,0,0,0,0,0,0,0,0,0,0,0,0,0,0,0,0,0,0,0],"id":8,"left_children":[1,3,5,7,9,11,13,15,17,19,21,23,25,27,29,-1,31,33,35,37,39,41,43,45,47,49,51,53,55,57,59,61,63,65,67,69,71,73,75,77,79,81,83,85,87,89,91,93,95,97,99,101,103,105,107,109,111,113,115,117,-1,-1,-1,-1,-1,-1,-1,-1,-1,-1,-1,-1,-1,-1,-1,-1,-1,-1,-1,-1,-1,-1,-1,-1,-1,-1,-1,-1,-1,-1,-1,-1,-1,-1,-1,-1,-1,-1,-1,-1,-1,-1,-1,-1,-1,-1,-1,-1,-1,-1,-1,-1,-1,-1,-1,-1,-1,-1,-1],"loss_changes":[5.026215E5,1.1041706E5,1.4303712E5,1.3028875E4,1.905829E4,1.2476519E4,3.4512562E4,1.09275E3,2.4281562E3,2.6855781E3,3.3703848E3,3.1245894E3,3.902621E3,6.2742344E3,7.4863438E3,0E0,5.9084375E2,5.916797E2,1.1007969E3,4.993164E2,1.5926016E3,1.2352324E3,1.9213525E3,3.628392E3,1.2061404E3,1.5448242E3,1.3470391E3,2.7730156E3,1.5875234E3,1.3455156E3,6.3125E2,1.1235156E2,3.0029492E2,4.533711E2,6.464453E1,7.076875E2,1.932539E2,3.6614453E2,3.8666797E2,1.0664824E3,1.8441357E3,6.164846E2,1.1215879E3,6.308828E2,1.0503885E3,9.163274E2,9.140641E2,3.690304E2,8.05573E2,1.2168398E3,5.3513464E2,8.1776855E2,3.6710938E2,1.4801719E3,3.275542E2,8.0760156E2,2.5594629E2,5.533672E2,2.639922E2,2.0766016E2,0E0,0E0,0E0,0E0,0E0,0E0,0E0,0E0,0E0,0E0,0E0,0E0,0E0,0E0,0E0,0E0,0E0,0E0,0E0,0E0,0E0,0E0,0E0,0E0,0E0,0E0,0E0,0E0,0E0,0E0,0E0,0E0,0E0,0E0,0E0,0E0,0E0,0E0,0E0,0E0,0E0,0E0,0E0,0E0,0E0,0E0,0E0,0E0,0E0,0E0,0E0,0E0,0E0,0E0,0E0,0E0,0E0,0E0,0E0],"parents":[2147483647,0,0,1,1,2,2,3,3,4,4,5,5,6,6,7,7,8,8,9,9,10,10,11,11,12,12,13,13,14,14,16,16,17,17,18,18,19,19,20,20,21,21,22,22,23,23,24,24,25,25,26,26,27,27,28,28,29,29,30,30,31,31,32,32,33,33,34,34,35,35,36,36,37,37,38,38,39,39,40,40,41,41,42,42,43,43,44,44,45,45,46,46,47,47,48,48,49,49,50,50,51,51,52,52,53,53,54,54,55,55,56,56,57,57,58,58,59,59],"right_children":[2,4,6,8,10,12,14,16,18,20,22,24,26,28,30,-1,32,34,36,38,40,42,44,46,48,50,52,54,56,58,60,62,64,66,68,70,72,74,76,78,80,82,84,86,88,90,92,94,96,98,100,102,104,106,108,110,112,114,116,118,-1,-1,-1,-1,-1,-1,-1,-1,-1,-1,-1,-1,-1,-1,-1,-1,-1,-1,-1,-1,-1,-1,-1,-1,-1,-1,-1,-1,-1,-1,-1,-1,-1,-1,-1,-1,-1,-1,-1,-1,-1,-1,-1,-1,-1,-1,-1,-1,-1,-1,-1,-1,-1,-1,-1,-1,-1,-1,-1],"split_conditions":[-1.6425559E-1,-1.2866554E0,7.2125584E-1,-2.1510162E0,-6.887942E-1,2.1081772E-1,1.6124074E0,-2.7316918E0,-1.7047353E0,-9.111928E-1,-4.1039678E-1,1.2245907E0,5.411156E-1,1.1534362E0,2.524005E0,-1.7622429E0,-1.4990598E0,1.3661362E0,1.0001173E0,-9.898399E-1,-3.0911618E-1,-4.233985E-1,-1.4754349E-1,-1.2249426E0,5.411156E-1,7.0722926E-1,8.685549E-1,1.0001173E0,1.0001173E0,1.8992825E0,3.0027747E0,-1.7547559E0,1.0001173E0,-1.8584731E0,-3.204125E-2,-9.998473E-1,-3.6870375E-1,-1.2278934E0,-4.233985E-1,1.2282207E0,-5.246629E-1,1.2245907E0,-7.9128385E-1,-3.0911618E-1,8.22848E-1,3.9285544E-1,7.948062E-1,-1.15126155E-1,-3.0911618E-1,-3.6588392E-1,9.998418E-1,-3.0911618E-1,5.752508E-1,1.0708307E0,8.728137E-1,1.3354679E0,2.547292E-1,7.0722926E-1,1.5575198E0,-1.3189672E0,2.0833716E0,-2.1821213E-1,-1.542144E0,-1.171657E0,-1.5391116E0,-1.2287282E0,-1.0138599E0,-1.3612322E0,-2.4203224E-1,-1.0089716E0,-7.3111933E-1,-1.1032971E0,-8.8738644E-1,-8.228264E-1,-6.612302E-1,-4.6967617E-1,-6.60403E-1,-5.4305094E-1,-8.988759E-1,-4.7135183E-1,-1.4737989E-1,-2.8673854E-1,-6.541813E-2,-5.8762926E-1,-3.5337013E-1,-3.1126404E-1,-1.9021612E-1,-1.0043035E-1,2.336602E-1,1.3830586E-1,4.3509418E-1,-3.452934E-2,-1.6381125E-1,2.0161574E-1,6.151184E-2,1.8540269E-1,5.7719934E-1,2.0032175E-1,3.9339864E-1,7.824415E-2,3.3824208E-1,2.472326E-1,4.214003E-1,6.6155666E-1,3.8875908E-1,5.4997766E-1,7.4296075E-1,3.8898143E-1,1.9352959E-1,7.7820843E-1,9.3389875E-1,1.6746958E-1,6.048353E-1,1.1321076E0,9.078612E-1,1.2052191E0,1.4365538E0,9.6681595E-2,1.6477627E0],"split_indices":[67,67,67,67,67,67,67,24,67,24,24,58,24,67,67,0,71,59,59,67,51,51,71,58,24,59,71,59,59,70,24,27,59,24,22,59,55,24,51,49,24,58,24,51,71,70,49,15,51,59,58,51,68,24,77,71,76,59,24,17,0,0,0,0,0,0,0,0,0,0,0,0,0,0,0,0,0,0,0,0,0,0,0,0,0,0,0,0,0,0,0,0,0,0,0,0,0,0,0,0,0,0,0,0,0,0,0,0,0,0,0,0,0,0,0,0,0,0,0],"split_type":[0,0,0,0,0,0,0,0,0,0,0,0,0,0,0,0,0,0,0,0,0,0,0,0,0,0,0,0,0,0,0,0,0,0,0,0,0,0,0,0,0,0,0,0,0,0,0,0,0,0,0,0,0,0,0,0,0,0,0,0,0,0,0,0,0,0,0,0,0,0,0,0,0,0,0,0,0,0,0,0,0,0,0,0,0,0,0,0,0,0,0,0,0,0,0,0,0,0,0,0,0,0,0,0,0,0,0,0,0,0,0,0,0,0,0,0,0,0,0],"sum_hessian":[2.4428E4,1.0199E4,1.4229E4,2.194E3,8.005E3,8.784E3,5.445E3,6.69E2,1.525E3,3.057E3,4.948E3,4.585E3,4.199E3,4.299E3,1.146E3,1.8E2,4.89E2,6.67E2,8.58E2,1.192E3,1.865E3,2.006E3,2.942E3,3.597E3,9.88E2,2.809E3,1.39E3,2.479E3,1.82E3,9.54E2,1.92E2,3.12E2,1.77E2,5.36E2,1.31E2,5.5E2,3.08E2,6.44E2,5.48E2,8.65E2,1E3,7.25E2,1.281E3,1.846E3,1.096E3,5.24E2,3.073E3,7.76E2,2.12E2,1.706E3,1.103E3,1.111E3,2.79E2,1.951E3,5.28E2,1.519E3,3.01E2,6.27E2,3.27E2,1.05E2,8.7E1,1E0,3.11E2,1.32E2,4.5E1,1.93E2,3.43E2,1.3E2,1E0,1.3E2,4.2E2,2.17E2,9.1E1,3.06E2,3.38E2,1.66E2,3.82E2,7.68E2,9.7E1,7.71E2,2.29E2,5.62E2,1.63E2,2.59E2,1.022E3,6.97E2,1.149E3,9.93E2,1.03E2,3.81E2,1.43E2,2.362E3,7.11E2,3.21E2,4.55E2,1.03E2,1.09E2,1.264E3,4.42E2,1.018E3,8.5E1,4.83E2,6.28E2,2.07E2,7.2E1,1.373E3,5.78E2,4.16E2,1.12E2,9.25E2,5.94E2,1.5E1,2.86E2,4.38E2,1.89E2,1.59E2,1.68E2,1E0,1.04E2],"tree_param":{"num_deleted":"0","num_feature":"78","num_nodes":"119","size_leaf_vector":"1"}},{"base_weights":[-3.2121615E-4,-4.4258976E0,3.7759557E0,-9.901861E0,-2.7964928E0,1.808671E0,7.7087708E0,-1.3212649E1,-8.24071E0,-4.4100246E0,-1.5830085E0,7.9311407E-1,3.3880315E0,6.5199947E0,1.1972608E1,-1.479407E1,-1.1917886E1,-9.548276E0,-7.190697E0,-5.537819E0,-3.8007123E0,-1.0315175E0,-2.7087448E0,-1.0559385E-2,1.4965081E0,3.8938584E0,1.7145674E0,5.9168305E0,8.505523E0,1.0850646E1,1.699438E1,-1.0721811E1,-1.5109781E1,-1.2015483E1,-2.237662E0,-1.0217061E1,-8.222807E0,-6.452438E0,-8.399105E0,-4.4435415E0,-5.996984E0,-4.6315093E0,-3.1968021E0,-1.3116674E-1,-1.9394053E0,-3.2192183E0,-1.7590439E0,8.884025E-1,-6.3774914E-1,1.0696255E0,2.8670058E0,2.6323802E0,4.6552796E0,1.0906324E0,2.4896698E0,5.265426E0,7.2277756E0,7.869102E0,1.0463044E1,1.0126269E1,1.2608534E1,1.5149238E0,1.9372301E0,-1.145914E0,-2.036667E-3,-1.6885031E0,-1.442874E0,-1.3827758E0,-1.1511179E0,-4.1689405E-1,3.709366E-1,-7.91897E-1,-1.0825351E0,-6.955523E-1,-1.0039386E0,-7.6265395E-1,-5.4323626E-1,-9.328022E-1,-7.152464E-1,-5.270932E-1,-3.3120948E-1,-8.1800383E-1,-5.611953E-1,-4.3030253E-1,-7.4405164E-1,-3.6217862E-1,-2.3026364E-2,-5.9449952E-2,1.9360895E-1,-2.7152923E-1,-1.1906382E-1,-4.470008E-1,-2.9202947E-1,-2.4776188E-1,-1.0033908E-1,6.0136385E-2,3.7310168E-1,-3.0431205E-1,-2.4836516E-2,1.3488095E-1,1.52085945E-2,2.4331394E-1,5.2612406E-1,1.8562432E-1,3.3168045E-1,3.8143054E-1,5.8224404E-1,-1.501087E-1,1.2950782E-1,2.0835677E-1,3.7404147E-1,4.7371158E-1,6.273174E-1,8.033894E-1,6.357233E-1,6.627288E-1,8.4147376E-1,9.755802E-1,1.4825474E0,1.1423024E0,9.047133E-1,-2.6411949E-2,1.2725168E0],"categories":[],"categories_nodes":[],"categories_segments":[],"categories_sizes":[],"default_left":[0,0,0,0,0,0,0,0,0,0,0,0,0,0,0,0,0,0,0,0,0,0,0,0,0,0,0,0,0,0,0,0,0,0,0,0,0,0,0,0,0,0,0,0,0,0,0,0,0,0,0,0,0,0,0,0,0,0,0,0,0,0,0,0,0,0,0,0,0,0,0,0,0,0,0,0,0,0,0,0,0,0,0,0,0,0,0,0,0,0,0,0,0,0,0,0,0,0,0,0,0,0,0,0,0,0,0,0,0,0,0,0,0,0,0,0,0,0,0,0,0,0,0],"id":9,"left_children":[1,3,5,7,9,11,13,15,17,19,21,23,25,27,29,31,33,35,37,39,41,43,45,47,49,51,53,55,57,59,61,63,65,67,69,71,73,75,77,79,81,83,85,87,89,91,93,95,97,99,101,103,105,107,109,111,113,115,117,119,121,-1,-1,-1,-1,-1,-1,-1,-1,-1,-1,-1,-1,-1,-1,-1,-1,-1,-1,-1,-1,-1,-1,-1,-1,-1,-1,-1,-1,-1,-1,-1,-1,-1,-1,-1,-1,-1,-1,-1,-1,-1,-1,-1,-1,-1,-1,-1,-1,-1,-1,-1,-1,-1,-1,-1,-1,-1,-1,-1,-1,-1,-1],"loss_changes":[4.0827906E5,1.0033328E5,1.01974734E5,1.4074891E4,1.6968836E4,1.4092648E4,2.2199094E4,1.5845938E3,2.2928438E3,2.5359453E3,3.070331E3,3.024366E3,2.9043828E3,4.0682188E3,5.2075625E3,3.3039844E2,4.2470312E2,5.9235156E2,8.004531E2,6.280469E2,1.1988711E3,2.7168413E3,7.8310156E2,1.408988E3,1.6660576E3,2.5235078E3,3.8417554E2,2.2172422E3,9.130625E2,8.719297E2,4.6558594E2,2.4437134E2,1.8315625E2,2.73125E2,8.437634E1,6.1741797E2,5.3102344E2,6.759746E2,3.5017188E2,3.467036E2,7.231914E2,9.0546094E2,1.7692334E3,1.6007231E3,9.582539E2,3.8214844E2,3.07563E2,8.3572675E2,1.3779385E3,5.574602E2,6.904512E2,5.229253E2,1.5924414E3,2.377345E2,1.7302979E2,9.115742E2,5.622656E2,3.5552344E2,4.5082617E2,6.817031E2,3.4117578E2,0E0,0E0,0E0,0E0,0E0,0E0,0E0,0E0,0E0,0E0,0E0,0E0,0E0,0E0,0E0,0E0,0E0,0E0,0E0,0E0,0E0,0E0,0E0,0E0,0E0,0E0,0E0,0E0,0E0,0E0,0E0,0E0,0E0,0E0,0E0,0E0,0E0,0E0,0E0,0E0,0E0,0E0,0E0,0E0,0E0,0E0,0E0,0E0,0E0,0E0,0E0,0E0,0E0,0E0,0E0,0E0,0E0,0E0,0E0,0E0,0E0,0E0],"parents":[2147483647,0,0,1,1,2,2,3,3,4,4,5,5,6,6,7,7,8,8,9,9,10,10,11,11,12,12,13,13,14,14,15,15,16,16,17,17,18,18,19,19,20,20,21,21,22,22,23,23,24,24,25,25,26,26,27,27,28,28,29,29,30,30,31,31,32,32,33,33,34,34,35,35,36,36,37,37,38,38,39,39,40,40,41,41,42,42,43,43,44,44,45,45,46,46,47,47,48,48,49,49,50,50,51,51,52,52,53,53,54,54,55,55,56,56,57,57,58,58,59,59,60,60],"right_children":[2,4,6,8,10,12,14,16,18,20,22,24,26,28,30,32,34,36,38,40,42,44,46,48,50,52,54,56,58,60,62,64,66,68,70,72,74,76,78,80,82,84,86,88,90,92,94,96,98,100,102,104,106,108,110,112,114,116,118,120,122,-1,-1,-1,-1,-1,-1,-1,-1,-1,-1,-1,-1,-1,-1,-1,-1,-1,-1,-1,-1,-1,-1,-1,-1,-1,-1,-1,-1,-1,-1,-1,-1,-1,-1,-1,-1,-1,-1,-1,-1,-1,-1,-1,-1,-1,-1,-1,-1,-1,-1,-1,-1,-1,-1,-1,-1,-1,-1,-1,-1,-1,-1],"split_conditions":[-7.260234E-2,-1.1668012E0,9.010372E-1,-1.9853352E0,-5.5977464E-1,3.8213882E-1,1.6970105E0,-2.4802628E0,-1.555975E0,-8.420688E-1,1.0001173E0,1.4894293E-1,1.0001173E0,1.2753812E0,2.343981E0,-1.2249426E0,5.584515E-1,9.998418E-1,1.0001173E0,-4.233985E-1,-3.0911618E-1,2.6244812E-2,7.069434E-1,-3.0911618E-1,3.917973E-1,-9.998473E-1,8.0709946E-1,1.2051997E0,1.5478289E0,2.1792476E0,2.16477E0,7.71005E-1,-2.8313653E0,-2.4559014E0,-3.609089E-1,-1.0001937E0,9.996273E-1,-3.6588392E-1,7.069434E-1,-7.5083643E-1,-1.3336953E0,1.2282207E0,-3.1870174E-1,4.276596E-1,-2.996204E-1,-8.135334E-1,-2.996204E-1,6.4353657E-1,-2.862558E-1,1.0001173E0,1.1561564E0,5.908262E-1,5.293361E-1,-3.2747647E-1,5.7708824E-1,1.205608E0,-4.233985E-1,-3.0911618E-1,1.747258E0,1.8329595E0,-1.2969843E0,1.5149238E0,1.9372301E0,-1.145914E0,-2.036667E-3,-1.6885031E0,-1.442874E0,-1.3827758E0,-1.1511179E0,-4.1689405E-1,3.709366E-1,-7.91897E-1,-1.0825351E0,-6.955523E-1,-1.0039386E0,-7.6265395E-1,-5.4323626E-1,-9.328022E-1,-7.152464E-1,-5.270932E-1,-3.3120948E-1,-8.1800383E-1,-5.611953E-1,-4.3030253E-1,-7.4405164E-1,-3.6217862E-1,-2.3026364E-2,-5.9449952E-2,1.9360895E-1,-2.7152923E-1,-1.1906382E-1,-4.470008E-1,-2.9202947E-1,-2.4776188E-1,-1.0033908E-1,6.0136385E-2,3.7310168E-1,-3.0431205E-1,-2.4836516E-2,1.3488095E-1,1.52085945E-2,2.4331394E-1,5.2612406E-1,1.8562432E-1,3.3168045E-1,3.8143054E-1,5.8224404E-1,-1.501087E-1,1.2950782E-1,2.0835677E-1,3.7404147E-1,4.7371158E-1,6.273174E-1,8.033894E-1,6.357233E-1,6.627288E-1,8.4147376E-1,9.755802E-1,1.4825474E0,1.1423024E0,9.047133E-1,-2.6411949E-2,1.2725168E0],"split_indices":[67,67,67,67,67,67,67,67,67,24,59,24,59,24,24,58,71,58,59,51,51,20,58,51,71,59,74,70,71,67,3,15,67,24,3,58,50,59,58,67,24,49,24,71,67,66,67,71,24,59,71,67,76,74,24,67,51,51,24,68,62,0,0,0,0,0,0,0,0,0,0,0,0,0,0,0,0,0,0,0,0,0,0,0,0,0,0,0,0,0,0,0,0,0,0,0,0,0,0,0,0,0,0,0,0,0,0,0,0,0,0,0,0,0,0,0,0,0,0,0,0,0,0],"split_type":[0,0,0,0,0,0,0,0,0,0,0,0,0,0,0,0,0,0,0,0,0,0,0,0,0,0,0,0,0,0,0,0,0,0,0,0,0,0,0,0,0,0,0,0,0,0,0,0,0,0,0,0,0,0,0,0,0,0,0,0,0,0,0,0,0,0,0,0,0,0,0,0,0,0,0,0,0,0,0,0,0,0,0,0,0,0,0,0,0,0,0,0,0,0,0,0,0,0,0,0,0,0,0,0,0,0,0,0,0,0,0,0,0,0,0,0,0,0,0,0,0,0,0],"sum_hessian":[2.4428E4,1.1247E4,1.3181E4,2.578E3,8.669E3,8.787E3,4.394E3,8.59E2,1.719E3,3.72E3,4.949E3,5.349E3,3.438E3,3.438E3,9.56E2,3.82E2,4.77E2,7.62E2,9.57E2,1.302E3,2.418E3,3.323E3,1.626E3,2.497E3,2.852E3,2.639E3,7.99E2,2.64E3,7.98E2,7.84E2,1.72E2,3E1,3.52E2,4.72E2,5E0,5.02E2,2.6E2,5.98E2,3.59E2,3.88E2,9.14E2,1.015E3,1.403E3,1.669E3,1.654E3,1.056E3,5.7E2,1.026E3,1.471E3,2.176E3,6.76E2,9.95E2,1.644E3,4.44E2,3.55E2,1.767E3,8.73E2,6.06E2,1.92E2,5.6E2,2.24E2,1.01E2,7.1E1,2.8E1,2E0,9.1E1,2.61E2,9.7E1,3.75E2,4E0,1E0,1.08E2,3.94E2,1.56E2,1.04E2,2.75E2,3.23E2,2.02E2,1.57E2,2.22E2,1.66E2,1.34E2,7.8E2,9.11E2,1.04E2,1.227E3,1.76E2,1.364E3,3.05E2,8.11E2,8.43E2,2.01E2,8.55E2,2.91E2,2.79E2,9.33E2,9.3E1,2.04E2,1.267E3,1.668E3,5.08E2,5.74E2,1.02E2,4.68E2,5.27E2,9.58E2,6.86E2,3.2E1,4.12E2,2.7E2,8.5E1,1.163E3,6.04E2,4.49E2,4.24E2,1.89E2,4.17E2,1.68E2,2.4E1,2.5E2,3.1E2,2E0,2.22E2],"tree_param":{"num_deleted":"0","num_feature":"78","num_nodes":"123","size_leaf_vector":"1"}},{"base_weights":[-3.7970283E-4,-3.4098685E0,3.9861367E0,-8.019238E0,-1.7829325E0,2.425166E0,7.679943E0,-1.1267035E1,-6.386157E0,-3.0479112E0,-5.647761E-1,1.5569675E0,4.1214595E0,6.761337E0,1.2093469E1,-1.2789214E1,-9.733221E0,-8.078657E0,-5.7688246E0,-3.9087245E0,-2.4164166E0,-5.119175E-2,-1.6333826E0,1.0470933E0,2.6122656E0,4.694443E0,2.6297095E0,6.101927E0,8.410068E0,1.057453E1,1.5045075E1,-1.4274003E1,-1.2009453E1,-6.8508954E0,-1.00427265E1,-6.4723015E0,-8.685965E0,-6.684085E0,-4.9488926E0,-2.944196E0,-4.3583336E0,-3.2624269E0,-1.8125744E0,-1.0784E0,6.3380945E-1,-2.3672278E0,-8.686732E-1,1.3758487E0,1.2193977E-2,1.6079156E0,3.3636212E0,3.9488783E0,5.972393E0,1.9532977E0,3.4316795E0,5.7004814E0,7.5958447E0,8.076574E0,1.1186936E1,1.2196157E1,9.824324E0,1.3293825E1,1.698357E1,-1.4363159E0,-3.8694948E-1,-1.2401284E0,-9.744221E-1,-1.5250008E-1,-7.656428E-1,-9.5639724E-1,-1.1567593E0,-7.4069774E-1,-5.3423285E-1,-1.270254E0,-8.229041E-1,-6.2852794E-1,-9.440076E-1,-5.4708284E-1,-1.5542136E-1,-3.5745552E-1,-1.900448E-1,-5.7380366E-1,-3.9188877E-1,-3.5966533E-1,-1.4936398E-1,-2.1750347E-1,1.4428581E-1,-4.7798824E-2,-1.483831E-1,1.6209146E-2,2.3885301E-1,-3.4747735E-1,-1.8734232E-1,-1.5982173E-1,-3.195932E-2,1.13145225E-1,2.7796635E-1,-1.06683314E-1,5.9348572E-2,1.2657182E-1,4.3810034E-1,2.7916068E-1,6.281687E-1,3.5827297E-1,4.8396492E-1,5.4588205E-1,8.313516E-1,3.1439874E-1,9.1679715E-2,4.4608283E-1,3.0711365E-1,6.0848415E-1,4.4134766E-1,7.3225987E-1,1.2169013E0,6.601056E-1,8.451441E-1,1.2780441E0,9.4444466E-1,1.278957E0,9.052353E-1,5.435073E-1,1.0027573E0,2.8221894E-2,1.3415059E0,1.0741147E0,1.7390432E0],"categories":[],"categories_nodes":[],"categories_segments":[],"categories_sizes":[],"default_left":[0,0,0,0,0,0,0,0,0,0,0,0,0,0,0,0,0,0,0,0,0,0,0,0,0,0,0,0,0,0,0,0,0,0,0,0,0,0,0,0,0,0,0,0,0,0,0,0,0,0,0,0,0,0,0,0,0,0,0,0,0,0,0,0,0,0,0,0,0,0,0,0,0,0,0,0,0,0,0,0,0,0,0,0,0,0,0,0,0,0,0,0,0,0,0,0,0,0,0,0,0,0,0,0,0,0,0,0,0,0,0,0,0,0,0,0,0,0,0,0,0,0,0,0,0,0,0],"id":10,"left_children":[1,3,5,7,9,11,13,15,17,19,21,23,25,27,29,31,33,35,37,39,41,43,45,47,49,51,53,55,57,59,61,63,65,67,69,71,73,75,77,79,81,83,85,87,89,91,93,95,97,99,101,103,105,107,109,111,113,115,117,119,121,123,125,-1,-1,-1,-1,-1,-1,-1,-1,-1,-1,-1,-1,-1,-1,-1,-1,-1,-1,-1,-1,-1,-1,-1,-1,-1,-1,-1,-1,-1,-1,-1,-1,-1,-1,-1,-1,-1,-1,-1,-1,-1,-1,-1,-1,-1,-1,-1,-1,-1,-1,-1,-1,-1,-1,-1,-1,-1,-1,-1,-1,-1,-1,-1,-1],"loss_changes":[3.3205216E5,9.8734484E4,6.4917203E4,1.8147E4,1.4997807E4,1.1654578E4,1.3479844E4,2.5557969E3,2.3439766E3,2.5862422E3,2.7220613E3,2.816208E3,2.278379E3,2.9612812E3,2.4188125E3,4.9198438E2,4.4504688E2,5.3789844E2,1.2276797E3,8.6273047E2,1.4025166E3,2.3585774E3,9.014409E2,1.2023516E3,1.2819814E3,1.8200742E3,3.9797363E2,1.1459609E3,6.403125E2,3.461211E2,4.2941406E2,1.2252344E2,2.1821484E2,2.4144482E2,2.6752344E2,1.4103271E2,7.0114844E2,8.100586E2,1.5684023E3,4.175752E2,8.111836E2,6.7270703E2,1.904062E3,3.257245E2,1.6641843E3,4.425044E2,3.1594598E2,9.170161E2,5.356599E2,6.8908154E2,1.6099102E3,3.8220117E2,8.094785E2,4.9941675E2,1.1245825E2,7.482969E2,4.319746E2,3.3582422E2,1.069834E2,1.0249609E2,1.8369336E2,1.6342383E2,3.6710938E1,0E0,0E0,0E0,0E0,0E0,0E0,0E0,0E0,0E0,0E0,0E0,0E0,0E0,0E0,0E0,0E0,0E0,0E0,0E0,0E0,0E0,0E0,0E0,0E0,0E0,0E0,0E0,0E0,0E0,0E0,0E0,0E0,0E0,0E0,0E0,0E0,0E0,0E0,0E0,0E0,0E0,0E0,0E0,0E0,0E0,0E0,0E0,0E0,0E0,0E0,0E0,0E0,0E0,0E0,0E0,0E0,0E0,0E0,0E0,0E0,0E0,0E0,0E0,0E0],"parents":[2147483647,0,0,1,1,2,2,3,3,4,4,5,5,6,6,7,7,8,8,9,9,10,10,11,11,12,12,13,13,14,14,15,15,16,16,17,17,18,18,19,19,20,20,21,21,22,22,23,23,24,24,25,25,26,26,27,27,28,28,29,29,30,30,31,31,32,32,33,33,34,34,35,35,36,36,37,37,38,38,39,39,40,40,41,41,42,42,43,43,44,44,45,45,46,46,47,47,48,48,49,49,50,50,51,51,52,52,53,53,54,54,55,55,56,56,57,57,58,58,59,59,60,60,61,61,62,62],"right_children":[2,4,6,8,10,12,14,16,18,20,22,24,26,28,30,32,34,36,38,40,42,44,46,48,50,52,54,56,58,60,62,64,66,68,70,72,74,76,78,80,82,84,86,88,90,92,94,96,98,100,102,104,106,108,110,112,114,116,118,120,122,124,126,-1,-1,-1,-1,-1,-1,-1,-1,-1,-1,-1,-1,-1,-1,-1,-1,-1,-1,-1,-1,-1,-1,-1,-1,-1,-1,-1,-1,-1,-1,-1,-1,-1,-1,-1,-1,-1,-1,-1,-1,-1,-1,-1,-1,-1,-1,-1,-1,-1,-1,-1,-1,-1,-1,-1,-1,-1,-1,-1,-1,-1,-1,-1,-1],"split_conditions":[7.897804E-2,-9.729193E-1,1.0850488E0,-1.8083739E0,-3.5743245E-1,6.296026E-1,1.9881859E0,-2.2610002E0,-1.4684165E0,-5.937869E-1,1.0001173E0,4.6846488E-1,7.0722926E-1,1.4874789E0,2.524005E0,-2.6938853E0,-2.3616E0,-4.233985E-1,-3.0911618E-1,-4.233985E-1,-3.0911618E-1,-7.0695925E-1,3.6585596E-1,1.2282207E0,-3.0911618E-1,-3.6588392E-1,4.9950013E-1,1.338157E0,1.6971784E0,1.9880582E0,3.0027747E0,-5.264874E-1,1.3658737E0,-1.4015213E0,1.3661362E0,7.069434E-1,-2.039747E0,1.2282207E0,-8.046855E-1,-5.484942E-1,-9.9583435E-1,1.3658737E0,-6.2661E-2,7.244866E-2,4.1359594E-1,-4.2803046E-1,-1.6425559E-1,7.2018343E-1,-2.9509716E-2,9.736042E-1,8.2678086E-1,9.622074E-1,1.4079338E0,-3.0911618E-1,1.0001173E0,1.0001173E0,1.9008265E0,-7.9764533E-1,5.376809E-1,1.0837492E0,5.7091075E-1,-1.3189672E0,5.4507023E-1,-1.4363159E0,-3.8694948E-1,-1.2401284E0,-9.744221E-1,-1.5250008E-1,-7.656428E-1,-9.5639724E-1,-1.1567593E0,-7.4069774E-1,-5.3423285E-1,-1.270254E0,-8.229041E-1,-6.2852794E-1,-9.440076E-1,-5.4708284E-1,-1.5542136E-1,-3.5745552E-1,-1.900448E-1,-5.7380366E-1,-3.9188877E-1,-3.5966533E-1,-1.4936398E-1,-2.1750347E-1,1.4428581E-1,-4.7798824E-2,-1.483831E-1,1.6209146E-2,2.3885301E-1,-3.4747735E-1,-1.8734232E-1,-1.5982173E-1,-3.195932E-2,1.13145225E-1,2.7796635E-1,-1.06683314E-1,5.9348572E-2,1.2657182E-1,4.3810034E-1,2.7916068E-1,6.281687E-1,3.5827297E-1,4.8396492E-1,5.4588205E-1,8.313516E-1,3.1439874E-1,9.1679715E-2,4.4608283E-1,3.0711365E-1,6.0848415E-1,4.4134766E-1,7.3225987E-1,1.2169013E0,6.601056E-1,8.451441E-1,1.2780441E0,9.4444466E-1,1.278957E0,9.052353E-1,5.435073E-1,1.0027573E0,2.8221894E-2,1.3415059E0,1.0741147E0,1.7390432E0],"split_indices":[67,67,67,67,67,67,67,67,24,24,59,24,59,70,67,67,69,51,51,51,51,59,58,49,51,59,24,24,24,68,24,70,58,55,59,58,24,49,24,67,24,58,24,49,71,24,67,71,24,70,24,24,70,51,59,59,71,20,52,49,76,17,11,0,0,0,0,0,0,0,0,0,0,0,0,0,0,0,0,0,0,0,0,0,0,0,0,0,0,0,0,0,0,0,0,0,0,0,0,0,0,0,0,0,0,0,0,0,0,0,0,0,0,0,0,0,0,0,0,0,0,0,0,0,0,0,0],"split_type":[0,0,0,0,0,0,0,0,0,0,0,0,0,0,0,0,0,0,0,0,0,0,0,0,0,0,0,0,0,0,0,0,0,0,0,0,0,0,0,0,0,0,0,0,0,0,0,0,0,0,0,0,0,0,0,0,0,0,0,0,0,0,0,0,0,0,0,0,0,0,0,0,0,0,0,0,0,0,0,0,0,0,0,0,0,0,0,0,0,0,0,0,0,0,0,0,0,0,0,0,0,0,0,0,0,0,0,0,0,0,0,0,0,0,0,0,0,0,0,0,0,0,0,0,0,0,0],"sum_hessian":[2.4428E4,1.3167E4,1.1261E4,3.434E3,9.733E3,7.917E3,3.344E3,1.147E3,2.287E3,4.774E3,4.959E3,5.238E3,2.679E3,2.77E3,5.74E2,5.72E2,5.75E2,6.08E2,1.679E3,2.018E3,2.756E3,3.35E3,1.609E3,3.533E3,1.705E3,1.934E3,7.45E2,1.982E3,7.88E2,3.82E2,1.92E2,1.91E2,3.81E2,5.8E1,5.17E2,1.7E2,4.38E2,7.9E2,8.89E2,6.44E2,1.374E3,1.146E3,1.61E3,1.34E3,2.01E3,8.2E2,7.89E2,2.681E3,8.52E2,7.31E2,9.74E2,1.224E3,7.1E2,4.06E2,3.39E2,1.566E3,4.16E2,7.07E2,8.1E1,1.16E2,2.66E2,1.05E2,8.7E1,1.89E2,2E0,3.21E2,6E1,8E0,5E1,3.99E2,1.18E2,9E1,8E1,4.2E1,3.96E2,6.93E2,9.7E1,7.7E2,1.19E2,4E2,2.44E2,3.29E2,1.045E3,9.63E2,1.83E2,1.449E3,1.61E2,5.41E2,7.99E2,1.585E3,4.25E2,2.51E2,5.69E2,3.38E2,4.51E2,2.285E3,3.96E2,2.98E2,5.54E2,6.52E2,7.9E1,8.16E2,1.58E2,8.71E2,3.53E2,5.85E2,1.25E2,1.88E2,2.18E2,8.5E1,2.54E2,1.203E3,3.63E2,3.95E2,2.1E1,1.47E2,5.6E2,3.9E1,4.2E1,9.5E1,2.1E1,1.3E1,2.53E2,1E0,1.04E2,7E0,8E1],"tree_param":{"num_deleted":"0","num_feature":"78","num_nodes":"127","size_leaf_vector":"1"}},{"base_weights":[-1.6322247E-4,-4.0192757E0,2.748502E0,-8.662198E0,-2.7746775E0,9.3955266E-1,5.7583733E0,-1.122933E1,-7.4516654E0,-4.175286E0,-1.8759912E0,-1.0062388E-2,1.7945867E0,4.794755E0,9.365871E0,-1.3048311E0,-1.0534504E1,-8.764119E0,-6.8407807E0,-3.586007E0,-5.1457887E0,-2.3580022E0,-9.768087E-1,-4.6698454E-1,1.0606011E0,1.3731658E0,3.0708692E0,4.224334E0,6.310014E0,8.508003E0,1.3562241E1,-1.1294263E1,-9.139341E0,-7.4368477E0,-9.136662E0,-7.1501184E0,-3.921041E0,-5.1928844E0,-3.0843613E0,-7.089462E0,-4.8117065E0,-2.714771E0,-1.5808331E0,9.277381E-1,-1.2825006E0,1.6512566E0,-8.4959614E-1,7.305848E-1,2.7180986E0,9.6897894E-1,2.2591386E0,3.856106E0,1.696867E0,3.5549924E0,5.2119904E0,4.688656E0,6.754799E0,8.091285E0,1.1000794E1,1.6311178E0,1.2376961E1,-1.1930999E0,-1.0094223E0,-9.4093037E-1,-2.226481E-1,-7.594494E-1,-1.5970707E-1,-1.1632522E0,-8.5420436E-1,-7.961573E-1,-6.062915E-1,-4.504864E-1,-7.203739E-2,-6.3908917E-1,-4.7699147E-1,-3.6175978E-1,-1.3777222E-1,-8.785044E-1,-6.5392965E-1,-6.2429976E-1,-4.4912353E-1,-1.2615141E-1,-2.9290965E-1,-2.0036343E-1,-3.9151844E-2,3.743237E-2,5.68534E-1,-2.0314696E-1,-2.3853956E-2,3.9680842E-1,9.3118444E-2,-1.4454728E-1,-5.3818185E-2,1.7384028E-1,4.396892E-2,8.597794E-2,4.8094016E-1,6.281547E-2,1.7003177E-1,4.147358E-1,1.9365174E-1,2.6902616E-1,4.5658514E-1,3.0404601E-2,2.4291153E-1,4.363974E-1,2.8400984E-1,4.767154E-1,6.274395E-1,5.1459163E-1,2.303947E-1,6.266636E-1,8.363105E-1,7.295845E-1,9.164503E-1,1.1446425E0,6.70237E-1,1.0443491E0,1.3713223E0],"categories":[],"categories_nodes":[],"categories_segments":[],"categories_sizes":[],"default_left":[0,0,0,0,0,0,0,0,0,0,0,0,0,0,0,0,0,0,0,0,0,0,0,0,0,0,0,0,0,0,0,0,0,0,0,0,0,0,0,0,0,0,0,0,0,0,0,0,0,0,0,0,0,0,0,0,0,0,0,0,0,0,0,0,0,0,0,0,0,0,0,0,0,0,0,0,0,0,0,0,0,0,0,0,0,0,0,0,0,0,0,0,0,0,0,0,0,0,0,0,0,0,0,0,0,0,0,0,0,0,0,0,0,0,0,0,0,0,0],"id":11,"left_children":[1,3,5,7,9,11,13,15,17,19,21,23,25,27,29,-1,31,33,35,37,39,41,43,45,47,49,51,53,55,57,59,61,63,65,67,69,71,73,75,77,79,81,83,85,87,89,91,93,95,97,99,101,103,105,107,109,111,113,115,-1,117,-1,-1,-1,-1,-1,-1,-1,-1,-1,-1,-1,-1,-1,-1,-1,-1,-1,-1,-1,-1,-1,-1,-1,-1,-1,-1,-1,-1,-1,-1,-1,-1,-1,-1,-1,-1,-1,-1,-1,-1,-1,-1,-1,-1,-1,-1,-1,-1,-1,-1,-1,-1,-1,-1,-1,-1,-1,-1],"loss_changes":[2.6988297E5,5.7310984E4,7.898638E4,6.4329375E3,9.842809E3,7.3587485E3,1.888675E4,7.0934375E2,1.0849609E3,1.7304062E3,2.0646562E3,2.1016519E3,2.5608008E3,3.6899922E3,4.0137266E3,0E0,4.1617578E2,1.545586E2,8.561758E2,1.520377E3,7.14584E2,8.563535E2,9.7114233E2,2.4417085E3,7.009109E2,1.2823105E3,1.2698154E3,2.048664E3,8.1496484E2,9.0303906E2,4.2696094E2,1.1873047E2,3.1123828E2,8.361572E1,4.1561328E2,7.316133E2,1.7614246E2,1.9855371E2,1.319127E3,9.833789E1,4.2468555E2,6.5849023E2,4.9149902E2,6.060775E2,1.1223159E3,7.653833E2,4.725973E2,3.138069E2,8.2364856E2,6.133533E2,6.7607715E2,6.0996094E2,4.3985437E2,1.0673594E3,5.6603516E2,2.672954E2,6.691133E2,6.348594E2,1.7995898E2,0E0,2.1591016E2,0E0,0E0,0E0,0E0,0E0,0E0,0E0,0E0,0E0,0E0,0E0,0E0,0E0,0E0,0E0,0E0,0E0,0E0,0E0,0E0,0E0,0E0,0E0,0E0,0E0,0E0,0E0,0E0,0E0,0E0,0E0,0E0,0E0,0E0,0E0,0E0,0E0,0E0,0E0,0E0,0E0,0E0,0E0,0E0,0E0,0E0,0E0,0E0,0E0,0E0,0E0,0E0,0E0,0E0,0E0,0E0,0E0,0E0],"parents":[2147483647,0,0,1,1,2,2,3,3,4,4,5,5,6,6,7,7,8,8,9,9,10,10,11,11,12,12,13,13,14,14,16,16,17,17,18,18,19,19,20,20,21,21,22,22,23,23,24,24,25,25,26,26,27,27,28,28,29,29,30,30,31,31,32,32,33,33,34,34,35,35,36,36,37,37,38,38,39,39,40,40,41,41,42,42,43,43,44,44,45,45,46,46,47,47,48,48,49,49,50,50,51,51,52,52,53,53,54,54,55,55,56,56,57,57,58,58,60,60],"right_children":[2,4,6,8,10,12,14,16,18,20,22,24,26,28,30,-1,32,34,36,38,40,42,44,46,48,50,52,54,56,58,60,62,64,66,68,70,72,74,76,78,80,82,84,86,88,90,92,94,96,98,100,102,104,106,108,110,112,114,116,-1,118,-1,-1,-1,-1,-1,-1,-1,-1,-1,-1,-1,-1,-1,-1,-1,-1,-1,-1,-1,-1,-1,-1,-1,-1,-1,-1,-1,-1,-1,-1,-1,-1,-1,-1,-1,-1,-1,-1,-1,-1,-1,-1,-1,-1,-1,-1,-1,-1,-1,-1,-1,-1,-1,-1,-1,-1,-1,-1],"split_conditions":[-1.8822645E-1,-1.3261368E0,7.2125584E-1,-2.1510162E0,-7.000746E-1,1.6287602E-1,1.6124074E0,-2.7316918E0,-1.7576085E0,1.0001173E0,-1.6395943E-1,9.998418E-1,6.167077E-1,1.2678502E0,2.524005E0,-1.3048311E0,-1.4990598E0,-1.1090924E0,-2.8255448E-1,-9.998473E-1,-1.2230611E0,9.998418E-1,-1.2249426E0,-1.2249426E0,5.3194606E-1,4.9950013E-1,5.454962E-1,9.622074E-1,-9.998473E-1,9.998418E-1,-1.2249426E0,-4.233985E-1,9.367892E-1,-7.392629E-1,-2.251351E0,-3.0911618E-1,4.276596E-1,-1.0673927E0,-2.0801716E-1,1.9176286E-1,-9.943528E-1,-1.2249426E0,-1.4754349E-1,1.0004244E0,1.2245907E0,7.912648E-2,-2.3364928E-1,-4.6489337E-1,-3.0911618E-1,3.6585596E-1,9.515005E-2,-3.6588392E-1,2.4275401E-1,-4.233985E-1,1.2074888E0,1.0999662E0,1.7028838E0,1.9881859E0,5.376809E-1,1.6311178E0,1.7060921E0,-1.1930999E0,-1.0094223E0,-9.4093037E-1,-2.226481E-1,-7.594494E-1,-1.5970707E-1,-1.1632522E0,-8.5420436E-1,-7.961573E-1,-6.062915E-1,-4.504864E-1,-7.203739E-2,-6.3908917E-1,-4.7699147E-1,-3.6175978E-1,-1.3777222E-1,-8.785044E-1,-6.5392965E-1,-6.2429976E-1,-4.4912353E-1,-1.2615141E-1,-2.9290965E-1,-2.0036343E-1,-3.9151844E-2,3.743237E-2,5.68534E-1,-2.0314696E-1,-2.3853956E-2,3.9680842E-1,9.3118444E-2,-1.4454728E-1,-5.3818185E-2,1.7384028E-1,4.396892E-2,8.597794E-2,4.8094016E-1,6.281547E-2,1.7003177E-1,4.147358E-1,1.9365174E-1,2.6902616E-1,4.5658514E-1,3.0404601E-2,2.4291153E-1,4.363974E-1,2.8400984E-1,4.767154E-1,6.274395E-1,5.1459163E-1,2.303947E-1,6.266636E-1,8.363105E-1,7.295845E-1,9.164503E-1,1.1446425E0,6.70237E-1,1.0443491E0,1.3713223E0],"split_indices":[67,67,67,67,67,67,67,24,24,59,70,58,70,70,67,0,71,51,71,59,74,58,58,58,24,24,69,24,59,58,58,51,13,3,24,51,71,67,71,28,55,58,71,77,58,54,70,17,51,58,68,59,24,51,71,77,70,67,52,0,23,0,0,0,0,0,0,0,0,0,0,0,0,0,0,0,0,0,0,0,0,0,0,0,0,0,0,0,0,0,0,0,0,0,0,0,0,0,0,0,0,0,0,0,0,0,0,0,0,0,0,0,0,0,0,0,0,0,0],"split_type":[0,0,0,0,0,0,0,0,0,0,0,0,0,0,0,0,0,0,0,0,0,0,0,0,0,0,0,0,0,0,0,0,0,0,0,0,0,0,0,0,0,0,0,0,0,0,0,0,0,0,0,0,0,0,0,0,0,0,0,0,0,0,0,0,0,0,0,0,0,0,0,0,0,0,0,0,0,0,0,0,0,0,0,0,0,0,0,0,0,0,0,0,0,0,0,0,0,0,0,0,0,0,0,0,0,0,0,0,0,0,0,0,0,0,0,0,0,0,0],"sum_hessian":[2.4428E4,9.921E3,1.4507E4,2.096E3,7.825E3,9.062E3,5.445E3,6.69E2,1.427E3,3.057E3,4.768E3,4.294E3,4.768E3,4.299E3,1.146E3,1.8E2,4.89E2,4.49E2,9.78E2,1.905E3,1.152E3,3.103E3,1.665E3,3.01E3,1.284E3,3.586E3,1.182E3,3.126E3,1.173E3,9.54E2,1.92E2,3.12E2,1.77E2,1.03E2,3.46E2,8.83E2,9.5E1,4.51E2,1.454E3,1.66E2,9.86E2,2.125E3,9.78E2,2.3E2,1.435E3,4.6E2,2.55E3,1.072E3,2.12E2,2.464E3,1.122E3,7.51E2,4.31E2,1.866E3,1.26E3,2.55E2,9.18E2,8.21E2,1.33E2,5.4E1,1.38E2,1.98E2,1.14E2,1.7E2,7E0,1E2,3E0,6.3E1,2.83E2,5.02E2,3.81E2,8E1,1.5E1,1.14E2,3.37E2,1.107E3,3.47E2,3.7E1,1.29E2,1.77E2,8.09E2,2.74E2,1.851E3,7.21E2,2.57E2,2.07E2,2.3E1,8.35E2,6E2,1.08E2,3.52E2,8.74E2,1.676E3,2.39E2,8.33E2,1.13E2,9.9E1,1.682E3,7.82E2,1.62E2,9.6E2,2.86E2,4.65E2,1.49E2,2.82E2,8.73E2,9.93E2,8.92E2,3.68E2,2.13E2,4.2E1,7.08E2,2.1E2,4.76E2,3.45E2,1.19E2,1.4E1,6E1,7.8E1],"tree_param":{"num_deleted":"0","num_feature":"78","num_nodes":"119","size_leaf_vector":"1"}},{"base_weights":[-1.2964275E-4,-3.020227E0,2.9689748E0,-6.987727E0,-1.7912108E0,1.7197729E0,6.188898E0,-9.153983E0,-5.5352817E0,-2.952864E0,-8.6465526E-1,8.9194626E-1,3.031645E0,5.3111076E0,9.2445135E0,-1.0381759E1,-7.9167104E0,-7.0159974E0,-5.0085917E0,-3.7087991E0,-2.4218905E0,-1.3465811E0,-1.0715211E-1,5.260569E-1,1.9157119E0,3.454177E0,1.5750711E0,4.905145E0,7.005837E0,8.277349E0,1.2542099E1,-1.2463602E0,-9.941929E0,-4.77016E0,-8.142628E0,-5.6068316E0,-7.5028906E0,-5.4010468E0,-3.293018E0,-3.4881554E0,-5.028241E0,-3.1515048E0,-1.8546586E0,-1.6693087E0,-4.8853335E-1,-6.9349396E-1,8.142723E-1,2.3233867E0,1.689032E-1,1.2445987E0,2.8669984E0,2.4161227E0,4.0319576E0,9.874762E-1,2.485202E0,5.2407146E0,3.4311175E0,6.6431403E0,1.064638E1,8.815575E0,6.5106974E0,1.0714303E1,1.4126287E1,-9.316037E-1,-1.1116412E0,-5.974769E-1,-1.7160206E-1,-7.7425075E-1,-9.49439E-1,-6.487188E-1,-4.5354414E-1,-1.0351819E0,-7.0742387E-1,-6.200532E-1,-4.6409273E-1,-1.7634237E-1,-4.8465562E-1,-2.609775E-1,-3.8443032E-1,-4.3596512E-1,-6.286837E-1,-2.8856316E-1,-5.406947E-1,-2.2157541E-1,3.8059104E-2,-2.2276905E-1,-1.3263293E-1,-1.0176641E-1,3.872567E-2,-7.782444E-2,3.241478E-1,-3.914823E-2,2.0366168E-1,1.17716454E-1,3.5704368E-1,-4.323469E-2,6.2401075E-2,1.0843098E-1,3.7618878E-1,3.682972E-1,1.3978116E-1,1.3290304E-1,2.7137324E-1,3.689177E-1,5.892889E-1,-2.4615831E-3,1.491994E-1,3.6914882E-1,1.9581728E-1,4.8540893E-1,6.310138E-1,2.4134593E-1,4.0038115E-1,6.113294E-1,7.747149E-1,1.1645588E0,8.107468E-1,8.2773966E-1,1.0661794E0,3.5722768E-1,6.9594467E-1,5.350922E-1,1.0915586E0,1.192251E0,1.5927156E0],"categories":[],"categories_nodes":[],"categories_segments":[],"categories_sizes":[],"default_left":[0,0,0,0,0,0,0,0,0,0,0,0,0,0,0,0,0,0,0,0,0,0,0,0,0,0,0,0,0,0,0,0,0,0,0,0,0,0,0,0,0,0,0,0,0,0,0,0,0,0,0,0,0,0,0,0,0,0,0,0,0,0,0,0,0,0,0,0,0,0,0,0,0,0,0,0,0,0,0,0,0,0,0,0,0,0,0,0,0,0,0,0,0,0,0,0,0,0,0,0,0,0,0,0,0,0,0,0,0,0,0,0,0,0,0,0,0,0,0,0,0,0,0,0,0],"id":12,"left_children":[1,3,5,7,9,11,13,15,17,19,21,23,25,27,29,31,33,35,37,39,41,43,45,47,49,51,53,55,57,59,61,-1,63,65,67,69,71,73,75,77,79,81,83,85,87,89,91,93,95,97,99,101,103,105,107,109,111,113,115,117,119,121,123,-1,-1,-1,-1,-1,-1,-1,-1,-1,-1,-1,-1,-1,-1,-1,-1,-1,-1,-1,-1,-1,-1,-1,-1,-1,-1,-1,-1,-1,-1,-1,-1,-1,-1,-1,-1,-1,-1,-1,-1,-1,-1,-1,-1,-1,-1,-1,-1,-1,-1,-1,-1,-1,-1,-1,-1,-1,-1,-1,-1,-1,-1],"loss_changes":[2.1906344E5,5.9042188E4,4.9540492E4,8.960531E3,9.951404E3,9.637742E3,9.1856875E3,1.6617266E3,1.3039102E3,1.6378867E3,1.8784565E3,2.0382329E3,2.1080098E3,1.8073984E3,2.3423828E3,4.0076172E2,3.7061328E2,2.6531055E2,8.372871E2,4.7475586E2,9.928008E2,8.700835E2,1.0821847E3,2.5750024E3,9.1128906E2,1.5862383E3,4.1147192E2,1.0519219E3,6.092871E2,5.093125E2,3.466836E2,0E0,2.478164E2,1.4058801E2,2.1639453E2,8.281909E1,3.2976367E2,5.98375E2,5.5938525E2,4.4420117E2,1.7454785E2,6.164404E2,1.0985518E3,4.346538E2,3.9938794E2,4.107151E2,1.1489244E3,9.4634546E2,9.163946E2,3.3566248E2,7.045513E2,3.0504004E2,1.0677793E3,2.4104858E2,1.8540332E2,6.970703E2,2.2579053E2,2.2815234E2,1.974414E1,3.6283984E2,1.6370117E2,3.2274414E1,1.6332617E2,0E0,0E0,0E0,0E0,0E0,0E0,0E0,0E0,0E0,0E0,0E0,0E0,0E0,0E0,0E0,0E0,0E0,0E0,0E0,0E0,0E0,0E0,0E0,0E0,0E0,0E0,0E0,0E0,0E0,0E0,0E0,0E0,0E0,0E0,0E0,0E0,0E0,0E0,0E0,0E0,0E0,0E0,0E0,0E0,0E0,0E0,0E0,0E0,0E0,0E0,0E0,0E0,0E0,0E0,0E0,0E0,0E0,0E0,0E0,0E0,0E0,0E0],"parents":[2147483647,0,0,1,1,2,2,3,3,4,4,5,5,6,6,7,7,8,8,9,9,10,10,11,11,12,12,13,13,14,14,15,15,16,16,17,17,18,18,19,19,20,20,21,21,22,22,23,23,24,24,25,25,26,26,27,27,28,28,29,29,30,30,32,32,33,33,34,34,35,35,36,36,37,37,38,38,39,39,40,40,41,41,42,42,43,43,44,44,45,45,46,46,47,47,48,48,49,49,50,50,51,51,52,52,53,53,54,54,55,55,56,56,57,57,58,58,59,59,60,60,61,61,62,62],"right_children":[2,4,6,8,10,12,14,16,18,20,22,24,26,28,30,32,34,36,38,40,42,44,46,48,50,52,54,56,58,60,62,-1,64,66,68,70,72,74,76,78,80,82,84,86,88,90,92,94,96,98,100,102,104,106,108,110,112,114,116,118,120,122,124,-1,-1,-1,-1,-1,-1,-1,-1,-1,-1,-1,-1,-1,-1,-1,-1,-1,-1,-1,-1,-1,-1,-1,-1,-1,-1,-1,-1,-1,-1,-1,-1,-1,-1,-1,-1,-1,-1,-1,-1,-1,-1,-1,-1,-1,-1,-1,-1,-1,-1,-1,-1,-1,-1,-1,-1,-1,-1,-1,-1,-1,-1],"split_conditions":[-1.3948113E-3,-1.0892484E0,1.0681282E0,-1.8083739E0,-4.8645204E-1,5.0199306E-1,1.8330803E0,-2.2610002E0,-1.5460045E0,-7.306241E-1,-4.9217556E-2,9.998418E-1,1.0001173E0,1.4178612E0,2.343981E0,-2.8313653E0,-2.361753E0,-1.1090924E0,-3.880318E-1,1.2282207E0,-3.0911618E-1,9.998418E-1,7.629225E-2,-1.2249426E0,3.519132E-1,-9.998473E-1,9.648094E-1,1.0001173E0,1.9008265E0,7.0722926E-1,8.6477166E-1,-1.2463602E0,1.0001173E0,-5.603115E-1,1.3661362E0,7.069434E-1,-2.039747E0,-3.0911618E-1,-1.2866377E0,-4.233985E-1,-3.131017E-1,1.2282207E0,-2.41819E-1,-3.5044235E-1,-1.3137029E-1,1.2074888E0,-3.0911618E-1,-7.2208035E-1,1.0097937E-1,8.351056E-1,9.996273E-1,2.878962E-1,1.3572665E0,1.8209422E-1,-3.0493778E-1,1.458007E0,9.418635E-1,5.249777E-1,2.3708346E-1,2.2998068E0,9.736042E-1,5.7049077E-2,2.9939058E0,-9.316037E-1,-1.1116412E0,-5.974769E-1,-1.7160206E-1,-7.7425075E-1,-9.49439E-1,-6.487188E-1,-4.5354414E-1,-1.0351819E0,-7.0742387E-1,-6.200532E-1,-4.6409273E-1,-1.7634237E-1,-4.8465562E-1,-2.609775E-1,-3.8443032E-1,-4.3596512E-1,-6.286837E-1,-2.8856316E-1,-5.406947E-1,-2.2157541E-1,3.8059104E-2,-2.2276905E-1,-1.3263293E-1,-1.0176641E-1,3.872567E-2,-7.782444E-2,3.241478E-1,-3.914823E-2,2.0366168E-1,1.17716454E-1,3.5704368E-1,-4.323469E-2,6.2401075E-2,1.0843098E-1,3.7618878E-1,3.682972E-1,1.3978116E-1,1.3290304E-1,2.7137324E-1,3.689177E-1,5.892889E-1,-2.4615831E-3,1.491994E-1,3.6914882E-1,1.9581728E-1,4.8540893E-1,6.310138E-1,2.4134593E-1,4.0038115E-1,6.113294E-1,7.747149E-1,1.1645588E0,8.107468E-1,8.2773966E-1,1.0661794E0,3.5722768E-1,6.9594467E-1,5.350922E-1,1.0915586E0,1.192251E0,1.5927156E0],"split_indices":[67,67,67,67,67,67,67,67,24,24,70,58,59,24,24,67,68,51,71,49,51,58,24,58,76,59,74,59,71,59,11,0,59,71,59,58,24,51,68,51,75,49,24,24,71,71,51,77,24,77,50,24,71,24,75,67,74,77,55,67,70,11,70,0,0,0,0,0,0,0,0,0,0,0,0,0,0,0,0,0,0,0,0,0,0,0,0,0,0,0,0,0,0,0,0,0,0,0,0,0,0,0,0,0,0,0,0,0,0,0,0,0,0,0,0,0,0,0,0,0,0,0,0,0,0],"split_type":[0,0,0,0,0,0,0,0,0,0,0,0,0,0,0,0,0,0,0,0,0,0,0,0,0,0,0,0,0,0,0,0,0,0,0,0,0,0,0,0,0,0,0,0,0,0,0,0,0,0,0,0,0,0,0,0,0,0,0,0,0,0,0,0,0,0,0,0,0,0,0,0,0,0,0,0,0,0,0,0,0,0,0,0,0,0,0,0,0,0,0,0,0,0,0,0,0,0,0,0,0,0,0,0,0,0,0,0,0,0,0,0,0,0,0,0,0,0,0,0,0,0,0,0,0],"sum_hessian":[2.4428E4,1.211E4,1.2318E4,2.863E3,9.247E3,8.876E3,3.442E3,1.147E3,1.716E3,4.102E3,5.145E3,5.443E3,3.433E3,2.676E3,7.66E2,5.72E2,5.75E2,4.47E2,1.269E3,1.69E3,2.412E3,3.144E3,2.001E3,4.011E3,1.432E3,2.66E3,7.73E2,2.162E3,5.14E2,5.95E2,1.71E2,9.5E1,4.77E2,4E1,5.35E2,1.18E2,3.29E2,1.031E3,2.38E2,1.451E3,2.39E2,1.053E3,1.359E3,2.284E3,8.6E2,1.223E3,7.78E2,6.64E2,3.347E3,8.41E2,5.91E2,9.53E2,1.707E3,4.71E2,3.02E2,1.759E3,4.03E2,4.7E2,4.4E1,4.53E2,1.42E2,8.3E1,8.8E1,3.17E2,1.6E2,2.8E1,1.2E1,4.18E2,1.17E2,6.2E1,5.6E1,4E1,2.89E2,4.99E2,5.32E2,1.21E2,1.17E2,4.21E2,1.03E3,1.59E2,8E1,9.44E2,1.09E2,1.17E3,1.89E2,8.67E2,1.417E3,5.36E2,3.24E2,1.198E3,2.5E1,3.92E2,3.86E2,3.47E2,3.17E2,1.442E3,1.905E3,7.92E2,4.9E1,3.79E2,2.12E2,2.06E2,7.47E2,1.444E3,2.63E2,1.57E2,3.14E2,9E1,2.12E2,1.296E3,4.63E2,1.47E2,2.56E2,3.22E2,1.48E2,2.9E1,1.5E1,3.55E2,9.8E1,2E1,1.22E2,4E0,7.9E1,4.3E1,4.5E1],"tree_param":{"num_deleted":"0","num_feature":"78","num_nodes":"125","size_leaf_vector":"1"}},{"base_weights":[3.3199608E-6,-3.3753252E0,2.160712E0,-7.1457577E0,-2.3723316E0,6.457658E-1,4.57823E0,-9.118951E0,-6.149367E0,-3.5958412E0,-1.6982708E0,-7.688693E-2,1.3678043E0,3.6569853E0,7.1095634E0,-1.0423778E1,-8.408611E0,-6.4713583E0,-4.3751674E0,-4.5579553E0,-3.1514015E0,-1.287306E0,-2.470229E0,-4.2683044E-1,9.428005E-1,1.2527446E0,4.6234875E0,3.1769302E0,4.8982396E0,6.3728285E0,1.0463454E1,-1.1811622E0,-9.812871E0,-9.196605E0,-6.844778E0,-3.877252E0,-6.7257204E0,-3.119112E0,-6.267166E0,-3.637158E0,-4.903707E0,-3.9141335E0,-2.5503182E0,-2.1770194E0,-8.121703E-1,-3.0785687E0,-1.963349E0,-7.3459697E-1,4.029011E-1,2.6231563E0,4.9719575E-1,2.679602E0,1.0355868E0,3.4040802E0,7.067285E0,3.5365376E0,2.0693035E0,4.555834E0,6.975006E0,6.9072013E0,4.893511E0,9.055799E0,1.2543222E1,-3.3749065E-1,-9.870453E-1,-5.593416E-1,-9.4294465E-1,-7.9215777E-1,-3.956036E-1,-1.6405319E-1,-4.8174992E-1,-7.270881E-1,-5.966595E-1,-3.5041958E-1,-2.2858191E-2,-6.382926E-1,-1.0911713E-1,-3.9467463E-1,-1.4003986E-1,-7.610203E-1,-4.561356E-1,-3.597066E-1,-6.1166614E-1,-2.9733473E-1,2.226163E-2,-2.667261E-1,-1.5617852E-1,-1.07645445E-1,1.02371626E-1,-4.2047307E-1,-2.744834E-1,-2.4091859E-1,-1.426011E-1,5.0382134E-2,-9.021349E-2,7.336345E-2,-7.029879E-2,1.8642735E-1,4.531839E-1,-5.607012E-2,8.3159044E-2,2.0161465E-1,4.310443E-1,5.4878127E-2,1.7147695E-1,2.6948932E-1,4.6537828E-1,1.1638769E-1,7.284488E-1,4.1856655E-1,2.9882443E-1,1.421196E-1,2.694851E-1,3.7308756E-1,5.001814E-1,5.925733E-1,9.5378E-1,6.445267E-1,8.6275387E-1,2.68577E-1,5.1902395E-1,1.2883097E-1,9.1421425E-1,1.3790559E0,1.0630925E0],"categories":[],"categories_nodes":[],"categories_segments":[],"categories_sizes":[],"default_left":[0,0,0,0,0,0,0,0,0,0,0,0,0,0,0,0,0,0,0,0,0,0,0,0,0,0,0,0,0,0,0,0,0,0,0,0,0,0,0,0,0,0,0,0,0,0,0,0,0,0,0,0,0,0,0,0,0,0,0,0,0,0,0,0,0,0,0,0,0,0,0,0,0,0,0,0,0,0,0,0,0,0,0,0,0,0,0,0,0,0,0,0,0,0,0,0,0,0,0,0,0,0,0,0,0,0,0,0,0,0,0,0,0,0,0,0,0,0,0,0,0,0,0,0,0],"id":13,"left_children":[1,3,5,7,9,11,13,15,17,19,21,23,25,27,29,31,33,35,37,39,41,43,45,47,49,51,53,55,57,59,61,-1,63,65,67,69,71,73,75,77,79,81,83,85,87,89,91,93,95,97,99,101,103,105,107,109,111,113,115,117,119,121,123,-1,-1,-1,-1,-1,-1,-1,-1,-1,-1,-1,-1,-1,-1,-1,-1,-1,-1,-1,-1,-1,-1,-1,-1,-1,-1,-1,-1,-1,-1,-1,-1,-1,-1,-1,-1,-1,-1,-1,-1,-1,-1,-1,-1,-1,-1,-1,-1,-1,-1,-1,-1,-1,-1,-1,-1,-1,-1,-1,-1,-1,-1],"loss_changes":[1.7817047E5,3.6041742E4,5.4548633E4,3.8819688E3,6.206508E3,4.778595E3,1.3354891E4,5.3335156E2,7.337656E2,1.1294727E3,1.5383271E3,1.6339838E3,1.7102412E3,2.492461E3,3.713836E3,8.079492E1,4.7802734E2,7.175664E2,4.7475488E2,2.5054883E2,8.3038477E2,1.3395684E3,5.141504E2,8.708305E2,8.7476184E2,1.3686348E3,4.4082007E2,1.202748E3,8.0163086E2,9.598672E2,6.885742E2,0E0,2.859668E1,1.897207E2,4.383623E2,2.0871301E2,3.808125E2,1.4056201E2,4.2167236E1,1.5651172E2,5.3049414E2,5.4086816E2,1.2065386E3,3.2881592E2,1.0054568E3,2.759751E2,2.1768335E2,5.164624E2,3.3810712E2,3.4642578E2,3.280435E2,6.231914E2,1.2696699E3,8.140344E1,5.691577E1,8.0324414E2,2.9902026E2,3.5256445E2,3.8448926E2,6.7629297E2,2.068291E2,1.0022266E2,1.1100391E2,0E0,0E0,0E0,0E0,0E0,0E0,0E0,0E0,0E0,0E0,0E0,0E0,0E0,0E0,0E0,0E0,0E0,0E0,0E0,0E0,0E0,0E0,0E0,0E0,0E0,0E0,0E0,0E0,0E0,0E0,0E0,0E0,0E0,0E0,0E0,0E0,0E0,0E0,0E0,0E0,0E0,0E0,0E0,0E0,0E0,0E0,0E0,0E0,0E0,0E0,0E0,0E0,0E0,0E0,0E0,0E0,0E0,0E0,0E0,0E0,0E0,0E0],"parents":[2147483647,0,0,1,1,2,2,3,3,4,4,5,5,6,6,7,7,8,8,9,9,10,10,11,11,12,12,13,13,14,14,15,15,16,16,17,17,18,18,19,19,20,20,21,21,22,22,23,23,24,24,25,25,26,26,27,27,28,28,29,29,30,30,32,32,33,33,34,34,35,35,36,36,37,37,38,38,39,39,40,40,41,41,42,42,43,43,44,44,45,45,46,46,47,47,48,48,49,49,50,50,51,51,52,52,53,53,54,54,55,55,56,56,57,57,58,58,59,59,60,60,61,61,62,62],"right_children":[2,4,6,8,10,12,14,16,18,20,22,24,26,28,30,32,34,36,38,40,42,44,46,48,50,52,54,56,58,60,62,-1,64,66,68,70,72,74,76,78,80,82,84,86,88,90,92,94,96,98,100,102,104,106,108,110,112,114,116,118,120,122,124,-1,-1,-1,-1,-1,-1,-1,-1,-1,-1,-1,-1,-1,-1,-1,-1,-1,-1,-1,-1,-1,-1,-1,-1,-1,-1,-1,-1,-1,-1,-1,-1,-1,-1,-1,-1,-1,-1,-1,-1,-1,-1,-1,-1,-1,-1,-1,-1,-1,-1,-1,-1,-1,-1,-1,-1,-1,-1,-1,-1,-1,-1],"split_conditions":[-2.2418272E-1,-1.3620931E0,6.719041E-1,-2.1510162E0,-7.66347E-1,1.537107E-1,1.484798E0,-2.5962653E0,1.3658737E0,-1.0586102E0,1.0001173E0,2.4221273E-1,1.4140627E0,1.1124462E0,2.0103521E0,-1.4656267E0,-4.233985E-1,-1.2249426E0,9.996273E-1,-4.233985E-1,-3.0911618E-1,-7.0695925E-1,3.6585596E-1,9.998418E-1,-2.4183695E-1,-1.2249426E0,3.5535657E-1,1.0001173E0,1.5478289E0,7.0722926E-1,1.8357252E0,-1.1811622E0,-1.3662256E0,-1.2249426E0,-2.039747E0,-4.0276533E-1,-1.6525635E0,-5.401375E-1,-3.2747647E-1,1.3658737E0,-1.5460045E0,1.2282207E0,-5.246629E-1,-4.2581987E-1,8.867858E-1,-8.566343E-1,-4.8645204E-1,-1.2249426E0,9.996273E-1,5.0443757E-1,-9.998473E-1,8.3915204E-1,3.6585596E-1,5.5595005E-1,-9.1245764E-1,-3.0911618E-1,9.545149E-1,-3.0911618E-1,1.0999662E0,2.077019E0,