{"learner":{"attributes":{"scikit_learn":"{\"_estimator_type\": \"regressor\"}"},"feature_names":["generation biomass","generation fossil brown coal/lignite","generation fossil coal-derived gas","generation fossil gas","generation fossil hard coal","generation fossil oil","generation fossil oil shale","generation fossil peat","generation geothermal","generation hydro pumped storage consumption","generation hydro run-of-river and poundage","generation hydro water reservoir","generation marine","generation nuclear","generation other","generation other renewable","generation solar","generation waste","generation wind offshore","generation wind onshore","forecast solar day ahead","forecast wind onshore day ahead","total load forecast","total load actual","price day ahead","temp","temp_min","temp_max","pressure","humidity","wind_speed","wind_deg","rain_1h","rain_3h","snow_3h","clouds_all","weather_id","weather_main_clear","weather_main_clouds","weather_main_fog","weather_main_mist","weather_main_other","weather_main_rain","weather_description_broken clouds","weather_description_few clouds","weather_description_light rain","weather_description_other","weather_description_scattered clouds","weather_description_sky is clear","hour","dayofweek","day","month","quarter","year","dayofyear","weekofyear","is_weekend","hour_sin","hour_cos","dow_sin","dow_cos","month_sin","month_cos","season","virtual_hour_of_year","virtual_day_of_year","price actual_lag_1","price actual_lag_2","price actual_lag_3","price actual_lag_24","price actual_lag_168","price actual_roll_mean_3","price actual_roll_std_3","price actual_roll_mean_24","price actual_roll_std_24","price actual_roll_mean_168","price actual_roll_std_168"],"feature_types":["float","float","float","float","float","float","float","float","float","float","float","float","float","float","float","float","float","float","float","float","float","float","float","float","float","float","float","float","float","float","float","float","float","float","float","float","float","float","float","float","float","float","float","float","float","float","float","float","float","float","float","float","float","float","float","float","float","float","float","float","float","float","float","float","float","float","float","float","float","float","float","float","float","float","float","float","float","float"],"gradient_booster":{"model":{"cats":{"enc":[],"feature_segments":[],"sorted_idx":[]},"gbtree_model_param":{"num_parallel_tree":"1","num_trees":"495"},"iteration_indptr":[0,1,2,3,4,5,6,7,8,9,10,11,12,13,14,15,16,17,18,19,20,21,22,23,24,25,26,27,28,29,30,31,32,33,34,35,36,37,38,39,40,41,42,43,44,45,46,47,48,49,50,51,52,53,54,55,56,57,58,59,60,61,62,63,64,65,66,67,68,69,70,71,72,73,74,75,76,77,78,79,80,81,82,83,84,85,86,87,88,89,90,91,92,93,94,95,96,97,98,99,100,101,102,103,104,105,106,107,108,109,110,111,112,113,114,115,116,117,118,119,120,121,122,123,124,125,126,127,128,129,130,131,132,133,134,135,136,137,138,139,140,141,142,143,144,145,146,147,148,149,150,151,152,153,154,155,156,157,158,159,160,161,162,163,164,165,166,167,168,169,170,171,172,173,174,175,176,177,178,179,180,181,182,183,184,185,186,187,188,189,190,191,192,193,194,195,196,197,198,199,200,201,202,203,204,205,206,207,208,209,210,211,212,213,214,215,216,217,218,219,220,221,222,223,224,225,226,227,228,229,230,231,232,233,234,235,236,237,238,239,240,241,242,243,244,245,246,247,248,249,250,251,252,253,254,255,256,257,258,259,260,261,262,263,264,265,266,267,268,269,270,271,272,273,274,275,276,277,278,279,280,281,282,283,284,285,286,287,288,289,290,291,292,293,294,295,296,297,298,299,300,301,302,303,304,305,306,307,308,309,310,311,312,313,314,315,316,317,318,319,320,321,322,323,324,325,326,327,328,329,330,331,332,333,334,335,336,337,338,339,340,341,342,343,344,345,346,347,348,349,350,351,352,353,354,355,356,357,358,359,360,361,362,363,364,365,366,367,368,369,370,371,372,373,374,375,376,377,378,379,380,381,382,383,384,385,386,387,388,389,390,391,392,393,394,395,396,397,398,399,400,401,402,403,404,405,406,407,408,409,410,411,412,413,414,415,416,417,418,419,420,421,422,423,424,425,426,427,428,429,430,431,432,433,434,435,436,437,438,439,440,441,442,443,444,445,446,447,448,449,450,451,452,453,454,455,456,457,458,459,460,461,462,463,464,465,466,467,468,469,470,471,472,473,474,475,476,477,478,479,480,481,482,483,484,485,486,487,488,489,490,491,492,493,494,495],"tree_info":[0,0,0,0,0,0,0,0,0,0,0,0,0,0,0,0,0,0,0,0,0,0,0,0,0,0,0,0,0,0,0,0,0,0,0,0,0,0,0,0,0,0,0,0,0,0,0,0,0,0,0,0,0,0,0,0,0,0,0,0,0,0,0,0,0,0,0,0,0,0,0,0,0,0,0,0,0,0,0,0,0,0,0,0,0,0,0,0,0,0,0,0,0,0,0,0,0,0,0,0,0,0,0,0,0,0,0,0,0,0,0,0,0,0,0,0,0,0,0,0,0,0,0,0,0,0,0,0,0,0,0,0,0,0,0,0,0,0,0,0,0,0,0,0,0,0,0,0,0,0,0,0,0,0,0,0,0,0,0,0,0,0,0,0,0,0,0,0,0,0,0,0,0,0,0,0,0,0,0,0,0,0,0,0,0,0,0,0,0,0,0,0,0,0,0,0,0,0,0,0,0,0,0,0,0,0,0,0,0,0,0,0,0,0,0,0,0,0,0,0,0,0,0,0,0,0,0,0,0,0,0,0,0,0,0,0,0,0,0,0,0,0,0,0,0,0,0,0,0,0,0,0,0,0,0,0,0,0,0,0,0,0,0,0,0,0,0,0,0,0,0,0,0,0,0,0,0,0,0,0,0,0,0,0,0,0,0,0,0,0,0,0,0,0,0,0,0,0,0,0,0,0,0,0,0,0,0,0,0,0,0,0,0,0,0,0,0,0,0,0,0,0,0,0,0,0,0,0,0,0,0,0,0,0,0,0,0,0,0,0,0,0,0,0,0,0,0,0,0,0,0,0,0,0,0,0,0,0,0,0,0,0,0,0,0,0,0,0,0,0,0,0,0,0,0,0,0,0,0,0,0,0,0,0,0,0,0,0,0,0,0,0,0,0,0,0,0,0,0,0,0,0,0,0,0,0,0,0,0,0,0,0,0,0,0,0,0,0,0,0,0,0,0,0,0,0,0,0,0,0,0,0,0,0,0,0,0,0,0,0,0,0,0,0,0,0,0,0,0,0,0,0,0,0,0,0,0,0,0,0,0,0,0,0,0,0,0,0,0,0,0,0,0,0,0,0,0,0,0,0,0,0,0,0,0,0,0,0,0,0,0,0,0,0,0],"trees":[{"base_weights":[-5.6482445E-2,-1.1135083E1,9.7896385E0,-2.527941E1,-7.009875E0,4.74286E0,1.965247E1,-3.432568E1,-2.1444456E1,-1.1262893E1,-3.9153948E0,2.3514826E0,8.88101E0,1.6895971E1,3.1142078E1,-1.571063E0,-3.1892624E1,-2.4686531E1,-1.8530851E1,-1.3257509E1,-9.134698E0,-5.761813E0,-2.1535292E0,9.723358E-1,4.6039186E0,6.992407E0,1.1558949E1,1.4734501E1,2.0357027E1,2.8096277E1,4.295932E1,-3.2015263E1,-5.905435E-1,-2.5716099E1,-2.1511723E1,-1.9528868E1,-1.5820241E1,-1.4171962E1,-1.0681902E1,-1.0386E1,-7.7483673E0,-7.118633E0,-4.3030868E0,-2.8584025E0,6.646157E-1,1.9385791E0,-6.266592E-1,3.9267426E0,8.185625E0,8.423375E0,4.711709E0,1.0401629E1,1.3677096E1,1.6155888E1,1.085775E1,2.1591503E1,1.7064531E1,2.6347715E1,3.1550589E1,1.5274622E0,1.9210192E0,-1.4219921E0,-1.2653503E0,-8.7720567E-1,-1.0917704E0,-9.562588E-1,-7.7676076E-1,-5.678182E-1,-8.238884E-1,-7.3499E-1,-6.0072964E-1,-4.1059428E-1,-6.0032713E-1,-5.020598E-1,-3.654155E-1,-4.4444594E-1,-3.419398E-1,-2.7915502E-1,-4.0148425E-1,-2.5770462E-1,-3.4056845E-1,-1.4989708E-1,-2.7131498E-1,-1.6018675E-1,-6.431302E-2,5.23259E-2,-1.4240408E-1,2.9881662E-2,1.3244842E-1,-6.541833E-2,3.6947947E-2,1.3488959E-1,2.3542406E-1,2.7769476E-1,4.481439E-1,2.8173465E-1,4.1393346E-1,1.6516618E-1,2.6327968E-1,4.4505224E-1,3.056404E-1,5.04155E-1,6.5035063E-1,5.7426095E-1,7.0873636E-1,3.7490982E-1,5.0343955E-1,8.121297E-1,9.378707E-1,7.592103E-1,6.3552177E-1,1.130228E0,9.077623E-1,2.1776412E-1,1.2955644E0],"categories":[],"categories_nodes":[],"categories_segments":[],"categories_sizes":[],"default_left":[0,0,0,0,0,0,0,0,0,0,0,0,0,0,0,0,0,0,0,0,0,0,0,0,0,0,0,0,0,0,0,0,0,0,0,0,0,0,0,0,0,0,0,0,0,0,0,0,0,0,0,0,0,0,0,0,0,0,0,0,0,0,0,0,0,0,0,0,0,0,0,0,0,0,0,0,0,0,0,0,0,0,0,0,0,0,0,0,0,0,0,0,0,0,0,0,0,0,0,0,0,0,0,0,0,0,0,0,0,0,0,0,0,0,0],"id":0,"left_children":[1,3,5,7,9,11,13,15,17,19,21,23,25,27,29,-1,31,33,35,37,39,41,43,45,47,49,51,53,55,57,59,61,-1,63,65,67,69,71,73,75,77,79,81,83,85,87,89,91,93,95,97,99,101,103,105,107,109,111,113,-1,-1,-1,-1,-1,-1,-1,-1,-1,-1,-1,-1,-1,-1,-1,-1,-1,-1,-1,-1,-1,-1,-1,-1,-1,-1,-1,-1,-1,-1,-1,-1,-1,-1,-1,-1,-1,-1,-1,-1,-1,-1,-1,-1,-1,-1,-1,-1,-1,-1,-1,-1,-1,-1,-1,-1],"loss_changes":[2.4890158E6,6.263084E5,6.0124475E5,8.3357375E4,1.0937544E5,7.9076875E4,1.28977E5,5.88325E3,1.56481875E4,1.4740406E4,1.5648211E4,1.5735852E4,1.4722656E4,2.438725E4,2.7227438E4,0E0,5.1478125E2,2.0748125E3,2.1311562E3,4.0999062E3,2.8633438E3,4.6205547E3,4.898463E3,4.858752E3,4.634414E3,5.5704453E3,2.8214531E3,1.1038156E4,4.77725E3,2.98E3,1.8351875E3,2.828125E2,0E0,1.8972188E3,5.0889844E2,1.9424688E3,3.424375E2,2.5752188E3,1.2160469E3,7.625156E2,1.4804062E3,1.1498125E3,1.6673867E3,2.6721006E3,1.2608193E3,3.0705571E3,1.7622129E3,1.8472305E3,1.1065723E3,2.6758047E3,7.480703E2,1.0063203E3,1.0796797E3,3.42225E3,1.2316602E3,1.6667188E3,5.107578E2,1.6295938E3,3.8275E2,0E0,0E0,0E0,0E0,0E0,0E0,0E0,0E0,0E0,0E0,0E0,0E0,0E0,0E0,0E0,0E0,0E0,0E0,0E0,0E0,0E0,0E0,0E0,0E0,0E0,0E0,0E0,0E0,0E0,0E0,0E0,0E0,0E0,0E0,0E0,0E0,0E0,0E0,0E0,0E0,0E0,0E0,0E0,0E0,0E0,0E0,0E0,0E0,0E0,0E0,0E0,0E0,0E0,0E0,0E0,0E0],"parents":[2147483647,0,0,1,1,2,2,3,3,4,4,5,5,6,6,7,7,8,8,9,9,10,10,11,11,12,12,13,13,14,14,16,16,17,17,18,18,19,19,20,20,21,21,22,22,23,23,24,24,25,25,26,26,27,27,28,28,29,29,30,30,31,31,33,33,34,34,35,35,36,36,37,37,38,38,39,39,40,40,41,41,42,42,43,43,44,44,45,45,46,46,47,47,48,48,49,49,50,50,51,51,52,52,53,53,54,54,55,55,56,56,57,57,58,58],"right_children":[2,4,6,8,10,12,14,16,18,20,22,24,26,28,30,-1,32,34,36,38,40,42,44,46,48,50,52,54,56,58,60,62,-1,64,66,68,70,72,74,76,78,80,82,84,86,88,90,92,94,96,98,100,102,104,106,108,110,112,114,-1,-1,-1,-1,-1,-1,-1,-1,-1,-1,-1,-1,-1,-1,-1,-1,-1,-1,-1,-1,-1,-1,-1,-1,-1,-1,-1,-1,-1,-1,-1,-1,-1,-1,-1,-1,-1,-1,-1,-1,-1,-1,-1,-1,-1,-1,-1,-1,-1,-1,-1,-1,-1,-1,-1,-1],"split_conditions":[-5.6386765E-2,-1.1668012E0,9.010372E-1,-2.0720534E0,-5.5977464E-1,4.1527498E-1,1.768923E0,-2.5782614E0,-1.555975E0,-7.980731E-1,-2.1995325E-1,3.0552983E-1,6.419801E-1,1.3141819E0,2.343981E0,-1.571063E0,5.303242E-1,1.2245907E0,1.2245907E0,1.2245907E0,-5.415912E-1,-3.475621E-1,2.0896992E-1,1.0001173E0,6.013456E-1,7.0722926E-1,8.537881E-1,7.0722926E-1,7.0722926E-1,2.1792476E0,3.0027747E0,-2.4559014E0,-5.905435E-1,-1.0001937E0,-1.7569071E0,-1.2249426E0,-1.1933314E0,-1.2249426E0,-6.509199E-1,1.2245907E0,1.0001173E0,1.0001173E0,1.2282207E0,-2.2418272E-1,1.0001173E0,1.2480467E-1,1.6287602E-1,3.9285544E-1,1.0858382E0,-9.998473E-1,7.2125584E-1,1.2282207E0,1.0278046E0,-9.998473E-1,6.1165017E-1,1.458007E0,1.3726922E0,7.0722926E-1,-8.8729125E-1,1.5274622E0,1.9210192E0,-1.4219921E0,-1.2653503E0,-8.7720567E-1,-1.0917704E0,-9.562588E-1,-7.7676076E-1,-5.678182E-1,-8.238884E-1,-7.3499E-1,-6.0072964E-1,-4.1059428E-1,-6.0032713E-1,-5.020598E-1,-3.654155E-1,-4.4444594E-1,-3.419398E-1,-2.7915502E-1,-4.0148425E-1,-2.5770462E-1,-3.4056845E-1,-1.4989708E-1,-2.7131498E-1,-1.6018675E-1,-6.431302E-2,5.23259E-2,-1.4240408E-1,2.9881662E-2,1.3244842E-1,-6.541833E-2,3.6947947E-2,1.3488959E-1,2.3542406E-1,2.7769476E-1,4.481439E-1,2.8173465E-1,4.1393346E-1,1.6516618E-1,2.6327968E-1,4.4505224E-1,3.056404E-1,5.04155E-1,6.5035063E-1,5.7426095E-1,7.0873636E-1,3.7490982E-1,5.0343955E-1,8.121297E-1,9.378707E-1,7.592103E-1,6.3552177E-1,1.130228E0,9.077623E-1,2.1776412E-1,1.2955644E0],"split_indices":[67,67,67,67,67,67,67,67,67,67,24,24,24,67,24,0,71,58,58,58,24,67,71,59,71,59,71,59,59,67,24,24,0,58,67,58,24,58,24,58,59,59,49,67,59,67,67,70,71,59,67,49,24,59,24,67,49,59,71,0,0,0,0,0,0,0,0,0,0,0,0,0,0,0,0,0,0,0,0,0,0,0,0,0,0,0,0,0,0,0,0,0,0,0,0,0,0,0,0,0,0,0,0,0,0,0,0,0,0,0,0,0,0,0,0],"split_type":[0,0,0,0,0,0,0,0,0,0,0,0,0,0,0,0,0,0,0,0,0,0,0,0,0,0,0,0,0,0,0,0,0,0,0,0,0,0,0,0,0,0,0,0,0,0,0,0,0,0,0,0,0,0,0,0,0,0,0,0,0,0,0,0,0,0,0,0,0,0,0,0,0,0,0,0,0,0,0,0,0,0,0,0,0,0,0,0,0,0,0,0,0,0,0,0,0,0,0,0,0,0,0,0,0,0,0,0,0,0,0,0,0,0,0],"sum_hessian":[2.2816E4,1.0736E4,1.208E4,2.423E3,8.313E3,7.992E3,4.088E3,7.19E2,1.704E3,3.5E3,4.813E3,5.066E3,2.926E3,3.299E3,7.89E2,2.64E2,4.55E2,8.03E2,9.01E2,1.804E3,1.696E3,2.349E3,2.464E3,3.143E3,1.923E3,1.718E3,1.208E3,2.034E3,1.265E3,6.3E2,1.59E2,4.51E2,4E0,6.01E2,2.02E2,6.54E2,2.47E2,1.328E3,4.76E2,8.88E2,8.08E2,1.215E3,1.134E3,1.971E3,4.93E2,1.959E3,1.184E3,1.619E3,3.04E2,1.054E3,6.64E2,7.85E2,4.23E2,1.486E3,5.48E2,9.16E2,3.49E2,4.24E2,2.06E2,7E1,8.9E1,1.21E2,3.3E2,1.14E2,4.87E2,1.12E2,9E1,6.5E1,5.89E2,8.1E1,1.66E2,1.44E2,1.184E3,2.47E2,2.29E2,7.17E2,1.71E2,5.6E2,2.48E2,7.25E2,4.9E2,8.91E2,2.43E2,1.082E3,8.89E2,4.3E2,6.3E1,1.015E3,9.44E2,7.24E2,4.6E2,1.205E3,4.14E2,2.04E2,1E2,5.54E2,5E2,4.79E2,1.85E2,6.74E2,1.11E2,2.66E2,1.57E2,5.29E2,9.57E2,2.55E2,2.93E2,4.01E2,5.15E2,1.72E2,1.77E2,3.21E2,1.03E2,1E0,2.05E2],"tree_param":{"num_deleted":"0","num_feature":"78","num_nodes":"115","size_leaf_vector":"1"}},{"base_weights":[1.9138271E-2,-1.1062145E1,8.120318E0,-2.3567547E1,-7.0994587E0,3.6809752E0,1.7295824E1,-2.989797E1,-1.8973429E1,-1.1028161E1,-4.376627E0,1.0183363E0,8.47374E0,1.4969423E1,2.9333586E1,-3.467715E1,-2.7011314E1,-1.6637726E1,-2.4177536E1,-1.3019146E1,-8.390622E0,-5.684027E0,1.254694E-1,2.8130045E0,-1.721593E0,5.87996E0,1.2863473E1,1.7102995E1,9.578331E0,2.581488E1,4.1471153E1,-3.550284E1,-2.5319395E1,-2.4741451E1,-1.2966629E0,-2.1434883E1,-1.4575252E1,-2.6163147E1,-2.1747719E1,-1.1438848E1,-1.5401839E1,-6.1952405E0,-1.0493459E1,-9.938406E0,-4.72379E0,-1.5676602E0,3.374893E0,8.7699485E-1,5.335803E0,-3.7297525E0,1.4629811E-1,4.3443847E0,8.394355E0,1.0814817E1,1.6039648E1,1.5536225E1,2.226833E1,6.882595E0,1.4553812E1,2.3903795E1,2.8491198E1,1.4708358E0,1.8577068E0,-1.2129711E0,-1.4774041E0,-1.461925E-1,-1.0596073E0,-1.0611221E0,-5.8885E-1,-9.6653855E-1,-7.819138E-1,-6.791127E-1,-4.621183E-1,-1.0127654E0,-1.1893544E0,-6.939934E-1,-9.3691504E-1,-5.4836994E-1,-4.16813E-1,-5.726547E-1,-7.6785225E-1,-1.6856413E-1,-3.5443112E-1,-3.6632472E-1,-4.9430367E-1,-5.035955E-1,-2.1632096E-1,-1.4852904E-1,-3.0931935E-1,-3.2618916E-1,-3.5643984E-2,1.5964004E-1,-4.538987E-1,-3.7251607E-2,1.0144064E-1,1.9158137E-1,5.3157794E-1,-9.810416E-2,-2.6032695E-1,4.9587395E-2,-5.6450326E-2,1.05716504E-1,2.5319228E-1,3.5718235E-1,1.3041236E-1,4.10539E-1,5.6637925E-1,5.8367306E-1,7.573633E-1,5.9240943E-1,7.9369473E-1,8.594551E-1,1.1353798E0,2.099054E-1,3.835722E-1,5.497478E-1,9.217445E-1,7.0932174E-1,1.0107484E0,1.1686478E0,3.1212723E-1],"categories":[],"categories_nodes":[],"categories_segments":[],"categories_sizes":[],"default_left":[0,0,0,0,0,0,0,0,0,0,0,0,0,0,0,0,0,0,0,0,0,0,0,0,0,0,0,0,0,0,0,0,0,0,0,0,0,0,0,0,0,0,0,0,0,0,0,0,0,0,0,0,0,0,0,0,0,0,0,0,0,0,0,0,0,0,0,0,0,0,0,0,0,0,0,0,0,0,0,0,0,0,0,0,0,0,0,0,0,0,0,0,0,0,0,0,0,0,0,0,0,0,0,0,0,0,0,0,0,0,0,0,0,0,0,0,0,0,0,0,0],"id":1,"left_children":[1,3,5,7,9,11,13,15,17,19,21,23,25,27,29,31,33,35,37,39,41,43,45,47,49,51,53,55,57,59,61,63,65,67,-1,69,71,73,75,77,79,81,83,85,87,89,91,93,95,97,99,101,103,105,107,109,111,113,115,117,119,-1,-1,-1,-1,-1,-1,-1,-1,-1,-1,-1,-1,-1,-1,-1,-1,-1,-1,-1,-1,-1,-1,-1,-1,-1,-1,-1,-1,-1,-1,-1,-1,-1,-1,-1,-1,-1,-1,-1,-1,-1,-1,-1,-1,-1,-1,-1,-1,-1,-1,-1,-1,-1,-1,-1,-1,-1,-1,-1,-1],"loss_changes":[2.0542409E6,4.7873212E5,5.383888E5,6.705E4,7.846916E4,1.1369548E5,1.20261125E5,1.25280625E4,1.6007344E4,1.5665625E4,2.5528477E4,2.8175848E4,3.6154625E4,4.1405375E4,2.869725E4,1.9135625E3,5.7109062E3,8.938469E3,1.4380781E3,6.2625938E3,5.9133984E3,1.3683445E4,5.3804473E3,1.6904291E4,8.507867E3,7.693336E3,7.511172E3,2.0598375E4,1.3674555E4,2.0962188E3,1.7288125E3,8.340625E1,3.1518164E2,4.735172E3,0E0,9.663672E2,4.164453E3,2.0170312E2,6.683906E2,2.4013438E3,2.9549531E3,3.2191445E3,1.5047109E3,6.7363047E3,8.48598E3,2.8613625E3,2.5885515E3,5.611184E3,7.4745234E3,3.8169404E3,1.9125159E3,4.0225684E3,1.2829258E3,1.5716406E3,1.7575469E3,7.8691875E3,3.5888125E3,2.8682715E3,2.9173984E3,1.2494531E3,5.9796875E1,0E0,0E0,0E0,0E0,0E0,0E0,0E0,0E0,0E0,0E0,0E0,0E0,0E0,0E0,0E0,0E0,0E0,0E0,0E0,0E0,0E0,0E0,0E0,0E0,0E0,0E0,0E0,0E0,0E0,0E0,0E0,0E0,0E0,0E0,0E0,0E0,0E0,0E0,0E0,0E0,0E0,0E0,0E0,0E0,0E0,0E0,0E0,0E0,0E0,0E0,0E0,0E0,0E0,0E0,0E0,0E0,0E0,0E0,0E0,0E0],"parents":[2147483647,0,0,1,1,2,2,3,3,4,4,5,5,6,6,7,7,8,8,9,9,10,10,11,11,12,12,13,13,14,14,15,15,16,16,17,17,18,18,19,19,20,20,21,21,22,22,23,23,24,24,25,25,26,26,27,27,28,28,29,29,30,30,31,31,32,32,33,33,35,35,36,36,37,37,38,38,39,39,40,40,41,41,42,42,43,43,44,44,45,45,46,46,47,47,48,48,49,49,50,50,51,51,52,52,53,53,54,54,55,55,56,56,57,57,58,58,59,59,60,60],"right_children":[2,4,6,8,10,12,14,16,18,20,22,24,26,28,30,32,34,36,38,40,42,44,46,48,50,52,54,56,58,60,62,64,66,68,-1,70,72,74,76,78,80,82,84,86,88,90,92,94,96,98,100,102,104,106,108,110,112,114,116,118,120,-1,-1,-1,-1,-1,-1,-1,-1,-1,-1,-1,-1,-1,-1,-1,-1,-1,-1,-1,-1,-1,-1,-1,-1,-1,-1,-1,-1,-1,-1,-1,-1,-1,-1,-1,-1,-1,-1,-1,-1,-1,-1,-1,-1,-1,-1,-1,-1,-1,-1,-1,-1,-1,-1,-1,-1,-1,-1,-1,-1],"split_conditions":[-1.5212865E-1,-1.2021295E0,8.626646E-1,-1.874906E0,-5.415912E-1,4.2896548E-1,1.7697579E0,-2.4755907E0,1.0001173E0,-6.60124E-1,1.0771167E-1,1.0001173E0,6.2806654E-1,1.0001173E0,2.343981E0,-5.603115E-1,1.0001173E0,-7.0695925E-1,-1.4698988E0,1.0001173E0,1.0001173E0,-7.645493E-1,5.9968597E-1,1.8821149E-1,1.9587573E-1,4.3790746E-1,1.0066442E0,1.4729296E0,1.391018E0,1.8875171E0,3.0027747E0,-1.2249426E0,-1.4024031E0,1.3531405E0,-1.2966629E0,-1.4698988E0,2.2174661E-1,7.4298483E-1,-5.6630665E-1,-7.0695925E-1,2.9121372E-1,-4.233985E-1,1.6832097E-1,-3.0911618E-1,1.0001173E0,-9.241747E-1,1.0001173E0,-7.0695925E-1,1.3658737E0,2.514671E-1,6.763533E-1,-3.0911618E-1,1.0001173E0,1.2904643E0,1.270072E0,1.2753812E0,2.0702612E0,5.0443757E-1,2.1667829E0,-1.2245882E0,3.5418067E0,1.4708358E0,1.8577068E0,-1.2129711E0,-1.4774041E0,-1.461925E-1,-1.0596073E0,-1.0611221E0,-5.8885E-1,-9.6653855E-1,-7.819138E-1,-6.791127E-1,-4.621183E-1,-1.0127654E0,-1.1893544E0,-6.939934E-1,-9.3691504E-1,-5.4836994E-1,-4.16813E-1,-5.726547E-1,-7.6785225E-1,-1.6856413E-1,-3.5443112E-1,-3.6632472E-1,-4.9430367E-1,-5.035955E-1,-2.1632096E-1,-1.4852904E-1,-3.0931935E-1,-3.2618916E-1,-3.5643984E-2,1.5964004E-1,-4.538987E-1,-3.7251607E-2,1.0144064E-1,1.9158137E-1,5.3157794E-1,-9.810416E-2,-2.6032695E-1,4.9587395E-2,-5.6450326E-2,1.05716504E-1,2.5319228E-1,3.5718235E-1,1.3041236E-1,4.10539E-1,5.6637925E-1,5.8367306E-1,7.573633E-1,5.9240943E-1,7.9369473E-1,8.594551E-1,1.1353798E0,2.099054E-1,3.835722E-1,5.497478E-1,9.217445E-1,7.0932174E-1,1.0107484E0,1.1686478E0,3.1212723E-1],"split_indices":[72,72,72,72,24,24,70,72,59,72,71,59,71,59,24,71,59,59,72,59,59,72,73,72,72,70,24,72,72,72,24,58,10,73,0,72,73,73,73,59,73,51,73,51,59,74,59,59,58,73,73,51,59,71,71,24,72,24,72,59,73,0,0,0,0,0,0,0,0,0,0,0,0,0,0,0,0,0,0,0,0,0,0,0,0,0,0,0,0,0,0,0,0,0,0,0,0,0,0,0,0,0,0,0,0,0,0,0,0,0,0,0,0,0,0,0,0,0,0,0,0],"split_type":[0,0,0,0,0,0,0,0,0,0,0,0,0,0,0,0,0,0,0,0,0,0,0,0,0,0,0,0,0,0,0,0,0,0,0,0,0,0,0,0,0,0,0,0,0,0,0,0,0,0,0,0,0,0,0,0,0,0,0,0,0,0,0,0,0,0,0,0,0,0,0,0,0,0,0,0,0,0,0,0,0,0,0,0,0,0,0,0,0,0,0,0,0,0,0,0,0,0,0,0,0,0,0,0,0,0,0,0,0,0,0,0,0,0,0,0,0,0,0,0,0],"sum_hessian":[2.2881E4,9.663E3,1.3218E4,2.324E3,7.339E3,8.909E3,4.309E3,9.75E2,1.349E3,3.003E3,4.336E3,5.728E3,3.181E3,3.613E3,6.96E2,3.63E2,6.12E2,9.34E2,4.15E2,1.709E3,1.294E3,3.36E3,9.76E2,3.461E3,2.267E3,2.001E3,1.18E3,2.587E3,1.026E3,5.42E2,1.54E2,3.31E2,3.2E1,4.16E2,1.96E2,2.78E2,6.56E2,2.23E2,1.92E2,1.031E3,6.78E2,6.35E2,6.59E2,6.17E2,2.743E3,6.42E2,3.34E2,1.959E3,1.502E3,1.092E3,1.175E3,1.244E3,7.57E2,7.2E2,4.6E2,1.988E3,5.99E2,6.67E2,3.59E2,3.22E2,2.2E2,6.8E1,8.6E1,3.5E1,2.96E2,1E0,3.1E1,3.72E2,4.4E1,1.39E2,1.39E2,4.04E2,2.52E2,1.56E2,6.7E1,4E1,1.52E2,3.99E2,6.32E2,4.81E2,1.97E2,3.46E2,2.89E2,3.37E2,3.22E2,4.08E2,2.09E2,1.98E3,7.63E2,6.2E1,5.8E2,3.23E2,1.1E1,9.26E2,1.033E3,1.385E3,1.17E2,7.26E2,3.66E2,6.92E2,4.83E2,6.37E2,6.07E2,7.11E2,4.6E1,5.75E2,1.45E2,2.71E2,1.89E2,1.562E3,4.26E2,4.9E2,1.09E2,3.93E2,2.74E2,3.17E2,4.2E1,3.7E1,2.85E2,2.19E2,1E0],"tree_param":{"num_deleted":"0","num_feature":"78","num_nodes":"121","size_leaf_vector":"1"}},{"base_weights":[-4.8218075E-2,-1.0446693E1,8.867777E0,-2.33697E1,-6.57502E0,4.2590427E0,1.8122433E1,-3.1721952E1,-1.9841904E1,-1.0377316E1,-3.7357574E0,2.0177653E0,8.057182E0,1.5364158E1,2.7951458E1,-1.4550359E0,-2.9385006E1,-2.2812666E1,-1.7104036E1,-1.2226509E1,-8.40914E0,-5.3947105E0,-2.092911E0,7.601627E-1,4.1187825E0,6.4055142E0,1.0489341E1,1.320435E1,1.803616E1,2.544839E1,3.940942E1,-2.9500576E1,-5.3647196E-1,-2.3751421E1,-1.991794E1,-2.0098095E1,-1.6232712E1,-1.306703E1,-9.870317E0,-9.130422E0,-6.416584E0,-6.439673E0,-3.9124482E0,-2.798626E0,1.485072E-1,-3.1113097E-1,1.9945623E0,3.309013E0,6.5597067E0,7.31222E0,4.013353E0,9.3873205E0,1.256498E1,1.42757225E1,9.670048E0,1.905632E1,1.5021173E1,2.2893343E1,2.7738241E1,1.4114354E0,1.767836E0,-1.2580763E0,-1.1261117E0,-8.1604487E-1,-1.0061452E0,-9.217171E-1,-7.5166917E-1,-7.251583E-1,-8.5784984E-1,-7.0127195E-1,-5.786221E-1,-3.7748215E-1,-5.5490774E-1,-4.6377718E-1,-3.3721942E-1,-2.6968443E-1,-3.999313E-1,-3.0482432E-1,-2.0010933E-1,-2.5035477E-1,-3.515891E-1,-1.3418616E-1,-2.5580046E-1,-1.6193536E-1,-7.673929E-2,-6.4098164E-2,5.3471606E-2,7.3550334E-3,-1.1170194E-1,1.0808665E-1,5.4223267E-3,9.1270596E-2,1.7027721E-1,2.3166372E-1,4.0688798E-1,2.5875378E-1,3.7354127E-1,1.1645389E-1,2.1375516E-1,3.2191512E-1,4.255475E-1,4.6141472E-1,5.9815836E-1,5.5024105E-1,6.8456423E-1,3.2998717E-1,4.5184162E-1,7.2878075E-1,8.485365E-1,5.549604E-1,6.6857773E-1,9.866498E-1,7.888595E-1,1.0798229E0,1.2409644E0],"categories":[],"categories_nodes":[],"categories_segments":[],"categories_sizes":[],"default_left":[0,0,0,0,0,0,0,0,0,0,0,0,0,0,0,0,0,0,0,0,0,0,0,0,0,0,0,0,0,0,0,0,0,0,0,0,0,0,0,0,0,0,0,0,0,0,0,0,0,0,0,0,0,0,0,0,0,0,0,0,0,0,0,0,0,0,0,0,0,0,0,0,0,0,0,0,0,0,0,0,0,0,0,0,0,0,0,0,0,0,0,0,0,0,0,0,0,0,0,0,0,0,0,0,0,0,0,0,0,0,0,0,0,0,0],"id":2,"left_children":[1,3,5,7,9,11,13,15,17,19,21,23,25,27,29,-1,31,33,35,37,39,41,43,45,47,49,51,53,55,57,59,61,-1,63,65,67,69,71,73,75,77,79,81,83,85,87,89,91,93,95,97,99,101,103,105,107,109,111,113,-1,-1,-1,-1,-1,-1,-1,-1,-1,-1,-1,-1,-1,-1,-1,-1,-1,-1,-1,-1,-1,-1,-1,-1,-1,-1,-1,-1,-1,-1,-1,-1,-1,-1,-1,-1,-1,-1,-1,-1,-1,-1,-1,-1,-1,-1,-1,-1,-1,-1,-1,-1,-1,-1,-1,-1],"loss_changes":[2.123493E6,5.2885225E5,5.258677E5,7.1176875E4,8.780597E4,7.006867E4,1.1069925E5,5.41125E3,1.3567E4,1.2555531E4,1.2689098E4,1.3681057E4,1.2205109E4,1.8246375E4,2.4723125E4,0E0,4.6746875E2,1.7552188E3,2.0138125E3,3.4179375E3,2.3673906E3,3.5651719E3,3.706579E3,4.286533E3,3.8108945E3,3.922539E3,2.7046875E3,6.5830938E3,4.109E3,3.6886562E3,1.4722031E3,2.6E2,0E0,1.4535E3,4.229297E2,3.43125E1,1.0787188E3,2.3560625E3,1.0384297E3,1.9489609E3,6.7525E2,8.912031E2,1.4037012E3,1.8982949E3,1.1177031E3,2.0606836E3,1.8115576E3,1.329791E3,1.4102656E3,2.3139766E3,6.955449E2,1.1629688E3,9.6028906E2,2.5485938E3,8.2678125E2,1.8603125E3,4.8148438E2,1.09275E3,5.4796875E2,0E0,0E0,0E0,0E0,0E0,0E0,0E0,0E0,0E0,0E0,0E0,0E0,0E0,0E0,0E0,0E0,0E0,0E0,0E0,0E0,0E0,0E0,0E0,0E0,0E0,0E0,0E0,0E0,0E0,0E0,0E0,0E0,0E0,0E0,0E0,0E0,0E0,0E0,0E0,0E0,0E0,0E0,0E0,0E0,0E0,0E0,0E0,0E0,0E0,0E0,0E0,0E0,0E0,0E0,0E0,0E0],"parents":[2147483647,0,0,1,1,2,2,3,3,4,4,5,5,6,6,7,7,8,8,9,9,10,10,11,11,12,12,13,13,14,14,16,16,17,17,18,18,19,19,20,20,21,21,22,22,23,23,24,24,25,25,26,26,27,27,28,28,29,29,30,30,31,31,33,33,34,34,35,35,36,36,37,37,38,38,39,39,40,40,41,41,42,42,43,43,44,44,45,45,46,46,47,47,48,48,49,49,50,50,51,51,52,52,53,53,54,54,55,55,56,56,57,57,58,58],"right_children":[2,4,6,8,10,12,14,16,18,20,22,24,26,28,30,-1,32,34,36,38,40,42,44,46,48,50,52,54,56,58,60,62,-1,64,66,68,70,72,74,76,78,80,82,84,86,88,90,92,94,96,98,100,102,104,106,108,110,112,114,-1,-1,-1,-1,-1,-1,-1,-1,-1,-1,-1,-1,-1,-1,-1,-1,-1,-1,-1,-1,-1,-1,-1,-1,-1,-1,-1,-1,-1,-1,-1,-1,-1,-1,-1,-1,-1,-1,-1,-1,-1,-1,-1,-1,-1,-1,-1,-1,-1,-1,-1,-1,-1,-1,-1,-1],"split_conditions":[-7.260234E-2,-1.1668012E0,9.010372E-1,-2.0720534E0,-5.5977464E-1,4.0469962E-1,1.6970105E0,-2.5782614E0,-1.555975E0,-7.980731E-1,-2.1995325E-1,3.0552983E-1,6.419801E-1,1.2450894E0,2.343981E0,-1.4550359E0,5.584515E-1,1.2245907E0,-1.514264E0,1.2245907E0,1.2245907E0,-3.214762E-1,1.5341853E-1,1.15639344E-1,4.1359594E-1,1.2282207E0,8.537881E-1,1.2282207E0,1.2282207E0,1.9881859E0,3.0027747E0,-2.2610002E0,-5.3647196E-1,-1.0001937E0,-1.5953788E0,-1.1090924E0,1.2245907E0,-1.2249426E0,-6.509199E-1,-1.0001937E0,-3.1870174E-1,1.3726922E0,1.2282207E0,-3.0911618E-1,-3.0911618E-1,1.2282207E0,1.2282207E0,-3.0911618E-1,1.0858382E0,6.296026E-1,2.3146847E-1,6.296026E-1,1.0278046E0,1.2048465E0,6.1165017E-1,1.458007E0,1.0503334E0,1.2282207E0,2.2998068E0,1.4114354E0,1.767836E0,-1.2580763E0,-1.1261117E0,-8.1604487E-1,-1.0061452E0,-9.217171E-1,-7.5166917E-1,-7.251583E-1,-8.5784984E-1,-7.0127195E-1,-5.786221E-1,-3.7748215E-1,-5.5490774E-1,-4.6377718E-1,-3.3721942E-1,-2.6968443E-1,-3.999313E-1,-3.0482432E-1,-2.0010933E-1,-2.5035477E-1,-3.515891E-1,-1.3418616E-1,-2.5580046E-1,-1.6193536E-1,-7.673929E-2,-6.4098164E-2,5.3471606E-2,7.3550334E-3,-1.1170194E-1,1.0808665E-1,5.4223267E-3,9.1270596E-2,1.7027721E-1,2.3166372E-1,4.0688798E-1,2.5875378E-1,3.7354127E-1,1.1645389E-1,2.1375516E-1,3.2191512E-1,4.255475E-1,4.6141472E-1,5.9815836E-1,5.5024105E-1,6.8456423E-1,3.2998717E-1,4.5184162E-1,7.2878075E-1,8.485365E-1,5.549604E-1,6.6857773E-1,9.866498E-1,7.888595E-1,1.0798229E0,1.2409644E0],"split_indices":[67,67,67,67,67,67,67,67,67,67,24,24,24,67,24,0,71,58,24,58,58,67,71,67,71,49,71,49,49,67,24,67,0,58,24,51,58,58,24,58,24,49,49,51,51,49,49,51,71,67,24,67,24,24,24,67,70,49,67,0,0,0,0,0,0,0,0,0,0,0,0,0,0,0,0,0,0,0,0,0,0,0,0,0,0,0,0,0,0,0,0,0,0,0,0,0,0,0,0,0,0,0,0,0,0,0,0,0,0,0,0,0,0,0,0],"split_type":[0,0,0,0,0,0,0,0,0,0,0,0,0,0,0,0,0,0,0,0,0,0,0,0,0,0,0,0,0,0,0,0,0,0,0,0,0,0,0,0,0,0,0,0,0,0,0,0,0,0,0,0,0,0,0,0,0,0,0,0,0,0,0,0,0,0,0,0,0,0,0,0,0,0,0,0,0,0,0,0,0,0,0,0,0,0,0,0,0,0,0,0,0,0,0,0,0,0,0,0,0,0,0,0,0,0,0,0,0,0,0,0,0,0,0],"sum_hessian":[2.2902E4,1.0572E4,1.233E4,2.436E3,8.136E3,8.232E3,4.098E3,7.21E2,1.715E3,3.477E3,4.659E3,5.178E3,3.054E3,3.202E3,8.96E2,2.68E2,4.53E2,8.19E2,8.96E2,1.79E3,1.687E3,2.317E3,2.342E3,3.24E3,1.938E3,1.821E3,1.233E3,1.774E3,1.428E3,7.38E2,1.58E2,4.49E2,4E0,6.13E2,2.06E2,1.97E2,6.99E2,1.316E3,4.74E2,1.236E3,4.51E2,1.357E3,9.6E2,1.781E3,5.61E2,1.735E3,1.505E3,1.457E3,4.81E2,1.319E3,5.02E2,8.09E2,4.24E2,1.359E3,4.15E2,1.063E3,3.65E2,3.54E2,3.84E2,7.3E1,8.5E1,2.68E2,1.81E2,1.14E2,4.99E2,7.2E1,1.34E2,5.8E1,1.39E2,4.84E2,2.15E2,1.51E2,1.165E3,2.47E2,2.27E2,2.51E2,9.85E2,2.67E2,1.84E2,1.183E3,1.74E2,7.57E2,2.03E2,7.89E2,9.92E2,2.26E2,3.35E2,1.443E3,2.92E2,1.117E3,3.88E2,6.44E2,8.13E2,3.82E2,9.9E1,8.56E2,4.63E2,2.57E2,2.45E2,3.26E2,4.83E2,2.64E2,1.6E2,1.019E3,3.4E2,1.94E2,2.21E2,6.15E2,4.48E2,1.78E2,1.87E2,2.61E2,9.3E1,2.59E2,1.25E2],"tree_param":{"num_deleted":"0","num_feature":"78","num_nodes":"115","size_leaf_vector":"1"}},{"base_weights":[-2.967846E-2,-9.148695E0,9.272782E0,-2.2336777E1,-5.664322E0,5.2013316E0,1.8471573E1,-2.9290535E1,-1.8276419E1,-9.630191E0,-2.773533E0,2.9047751E0,9.031578E0,1.5780845E1,2.7470304E1,-3.3382267E1,-2.6507864E1,-2.0542376E1,-1.5790772E1,-1.1690441E1,-7.8264227E0,-4.2722907E0,-9.323506E-1,1.5162612E0,4.671507E0,1.0326308E1,5.7963247E0,1.3925081E1,1.821372E1,2.4895054E1,3.7842377E1,-1.4986324E0,-1.3173655E0,-2.6641544E1,-1.0303727E1,-1.9097166E1,-9.320154E-1,-1.45079775E1,-1.7779287E1,-1.3320959E1,-1.0491956E1,-6.8611817E0,-9.377789E0,-5.204215E0,-2.6323292E0,-2.5343351E0,3.316165E-1,2.4180548E0,7.719608E-3,4.0995717E0,8.2914915E0,8.438445E0,1.2328278E1,4.53016E0,7.7943096E0,1.5114426E1,1.0475654E1,1.9288176E1,1.5321636E1,2.3302292E1,2.8001085E1,1.3538333E0,1.6982816E0,-1.1581115E0,-1.0171285E0,-5.189051E-1,3.2025117E-2,-8.817954E-1,-7.2796404E-1,-7.010994E-1,-5.3473055E-1,-7.746386E-1,-6.457441E-1,-5.042004E-1,-5.878285E-1,-3.972443E-1,-5.044587E-1,-3.5954678E-1,-2.4248485E-1,-4.3511233E-1,-3.5607794E-1,-1.8234876E-1,-2.6205087E-1,-7.163911E-2,-1.5533294E-1,-1.5991448E-1,-3.5625648E-2,-1.7367648E-2,2.4633867E-1,5.8055732E-2,1.6257313E-1,-4.0854525E-2,4.8405223E-2,1.2931274E-1,2.0594622E-1,2.8620523E-1,4.3099627E-1,2.897498E-1,4.263129E-1,4.6408036E-1,5.9360015E-1,2.3515788E-1,1.4746048E-1,2.430748E-1,3.4785667E-1,5.381037E-1,6.6302073E-1,3.8632438E-1,4.9674606E-1,7.109544E-1,8.3188576E-1,5.920323E-1,7.209459E-1,9.999272E-1,8.047608E-1,1.6904607E-1,1.1499349E0],"categories":[],"categories_nodes":[],"categories_segments":[],"categories_sizes":[],"default_left":[0,0,0,0,0,0,0,0,0,0,0,0,0,0,0,0,0,0,0,0,0,0,0,0,0,0,0,0,0,0,0,0,0,0,0,0,0,0,0,0,0,0,0,0,0,0,0,0,0,0,0,0,0,0,0,0,0,0,0,0,0,0,0,0,0,0,0,0,0,0,0,0,0,0,0,0,0,0,0,0,0,0,0,0,0,0,0,0,0,0,0,0,0,0,0,0,0,0,0,0,0,0,0,0,0,0,0,0,0,0,0,0,0,0,0,0,0],"id":3,"left_children":[1,3,5,7,9,11,13,15,17,19,21,23,25,27,29,31,33,35,37,39,41,43,45,47,49,51,53,55,57,59,61,-1,-1,63,65,67,-1,69,71,73,75,77,79,81,83,85,87,89,91,93,95,97,99,101,103,105,107,109,111,113,115,-1,-1,-1,-1,-1,-1,-1,-1,-1,-1,-1,-1,-1,-1,-1,-1,-1,-1,-1,-1,-1,-1,-1,-1,-1,-1,-1,-1,-1,-1,-1,-1,-1,-1,-1,-1,-1,-1,-1,-1,-1,-1,-1,-1,-1,-1,-1,-1,-1,-1,-1,-1,-1,-1,-1,-1],"loss_changes":[1.9422516E6,5.311726E5,4.243897E5,6.7679875E4,1.0483897E5,6.909567E4,8.37555E4,9.23725E3,8.281875E3,1.423825E4,1.4599215E4,1.2047605E4,1.2276125E4,1.18416875E4,2.039975E4,1.99125E2,8.8221875E2,2.128E3,1.6118281E3,3.3737969E3,3.0188906E3,4.44441E3,4.8118984E3,3.7451436E3,4.442203E3,7.840375E3,2.0998242E3,6.0939375E3,3.2966562E3,2.5285312E3,1.3581406E3,0E0,0E0,8.633125E2,1.6781049E2,1.1864062E3,0E0,1.4828281E3,3.510547E2,6.138594E2,1.3813984E3,2.241668E3,5.762344E2,1.6400508E3,1.0794272E3,2.3901035E3,5.7155854E3,2.67071E3,1.2195519E3,1.621918E3,7.812832E2,2.8423125E3,2.0272031E3,5.6419727E2,3.7556055E2,2.1995938E3,5.640703E2,1.3143438E3,3.7028906E2,1.2883906E3,3.574375E2,0E0,0E0,0E0,0E0,0E0,0E0,0E0,0E0,0E0,0E0,0E0,0E0,0E0,0E0,0E0,0E0,0E0,0E0,0E0,0E0,0E0,0E0,0E0,0E0,0E0,0E0,0E0,0E0,0E0,0E0,0E0,0E0,0E0,0E0,0E0,0E0,0E0,0E0,0E0,0E0,0E0,0E0,0E0,0E0,0E0,0E0,0E0,0E0,0E0,0E0,0E0,0E0,0E0,0E0,0E0,0E0],"parents":[2147483647,0,0,1,1,2,2,3,3,4,4,5,5,6,6,7,7,8,8,9,9,10,10,11,11,12,12,13,13,14,14,15,15,16,16,17,17,18,18,19,19,20,20,21,21,22,22,23,23,24,24,25,25,26,26,27,27,28,28,29,29,30,30,33,33,34,34,35,35,37,37,38,38,39,39,40,40,41,41,42,42,43,43,44,44,45,45,46,46,47,47,48,48,49,49,50,50,51,51,52,52,53,53,54,54,55,55,56,56,57,57,58,58,59,59,60,60],"right_children":[2,4,6,8,10,12,14,16,18,20,22,24,26,28,30,32,34,36,38,40,42,44,46,48,50,52,54,56,58,60,62,-1,-1,64,66,68,-1,70,72,74,76,78,80,82,84,86,88,90,92,94,96,98,100,102,104,106,108,110,112,114,116,-1,-1,-1,-1,-1,-1,-1,-1,-1,-1,-1,-1,-1,-1,-1,-1,-1,-1,-1,-1,-1,-1,-1,-1,-1,-1,-1,-1,-1,-1,-1,-1,-1,-1,-1,-1,-1,-1,-1,-1,-1,-1,-1,-1,-1,-1,-1,-1,-1,-1,-1,-1,-1,-1,-1,-1],"split_conditions":[1.411574E-2,-1.1668012E0,1.008201E0,-1.9247031E0,-5.14653E-1,5.0199306E-1,1.768923E0,-2.4802628E0,-1.4600916E0,-7.980731E-1,-1.2825821E-1,3.0552983E-1,7.0722926E-1,1.3353326E0,2.343981E0,-2.8313653E0,5.584515E-1,1.0001173E0,1.0001173E0,-9.111928E-1,1.0001173E0,-2.1431237E-1,-3.0911618E-1,1.0001173E0,7.2018343E-1,-7.0695925E-1,5.3194606E-1,7.0722926E-1,7.0722926E-1,2.1792476E0,3.0027747E0,-1.4986324E0,-1.3173655E0,-2.1510162E0,1.8314986E-2,-7.0695925E-1,-9.320154E-1,-7.0695925E-1,-2.9918718E-1,1.0001173E0,1.0001173E0,-7.0695925E-1,-6.887942E-1,1.0001173E0,1.0001173E0,-1.9739178E-1,3.337437E-1,2.1081772E-1,1.9389713E-1,2.7850014E-1,1.1744392E0,7.882332E-1,1.063072E0,-3.0911618E-1,6.8741465E-1,-9.998473E-1,8.9378875E-1,-9.998473E-1,1.3106486E0,7.0722926E-1,-8.8729125E-1,1.3538333E0,1.6982816E0,-1.1581115E0,-1.0171285E0,-5.189051E-1,3.2025117E-2,-8.817954E-1,-7.2796404E-1,-7.010994E-1,-5.3473055E-1,-7.746386E-1,-6.457441E-1,-5.042004E-1,-5.878285E-1,-3.972443E-1,-5.044587E-1,-3.5954678E-1,-2.4248485E-1,-4.3511233E-1,-3.5607794E-1,-1.8234876E-1,-2.6205087E-1,-7.163911E-2,-1.5533294E-1,-1.5991448E-1,-3.5625648E-2,-1.7367648E-2,2.4633867E-1,5.8055732E-2,1.6257313E-1,-4.0854525E-2,4.8405223E-2,1.2931274E-1,2.0594622E-1,2.8620523E-1,4.3099627E-1,2.897498E-1,4.263129E-1,4.6408036E-1,5.9360015E-1,2.3515788E-1,1.4746048E-1,2.430748E-1,3.4785667E-1,5.381037E-1,6.6302073E-1,3.8632438E-1,4.9674606E-1,7.109544E-1,8.3188576E-1,5.920323E-1,7.209459E-1,9.999272E-1,8.047608E-1,1.6904607E-1,1.1499349E0],"split_indices":[67,67,67,67,67,67,67,67,67,67,24,24,59,67,24,67,71,59,59,24,59,67,51,59,71,59,24,59,59,67,24,0,0,67,4,59,0,59,55,59,59,59,67,59,59,67,24,67,67,67,71,67,24,51,67,59,24,59,24,59,71,0,0,0,0,0,0,0,0,0,0,0,0,0,0,0,0,0,0,0,0,0,0,0,0,0,0,0,0,0,0,0,0,0,0,0,0,0,0,0,0,0,0,0,0,0,0,0,0,0,0,0,0,0,0,0,0],"split_type":[0,0,0,0,0,0,0,0,0,0,0,0,0,0,0,0,0,0,0,0,0,0,0,0,0,0,0,0,0,0,0,0,0,0,0,0,0,0,0,0,0,0,0,0,0,0,0,0,0,0,0,0,0,0,0,0,0,0,0,0,0,0,0,0,0,0,0,0,0,0,0,0,0,0,0,0,0,0,0,0,0,0,0,0,0,0,0,0,0,0,0,0,0,0,0,0,0,0,0,0,0,0,0,0,0,0,0,0,0,0,0,0,0,0,0,0,0],"sum_hessian":[2.2894E4,1.1561E4,1.1333E4,2.415E3,9.146E3,7.857E3,3.476E3,8.88E2,1.527E3,3.855E3,5.291E3,4.913E3,2.944E3,2.678E3,7.98E2,3.55E2,5.33E2,7.95E2,7.32E2,1.797E3,2.058E3,2.916E3,2.375E3,2.752E3,2.161E3,2.101E3,8.43E2,1.523E3,1.155E3,6.42E2,1.56E2,8.8E1,2.67E2,5.28E2,5E0,4.88E2,3.07E2,4.5E2,2.82E2,7.57E2,1.04E3,1.272E3,7.86E2,1.858E3,1.058E3,1.047E3,1.328E3,1.722E3,1.03E3,1.868E3,2.93E2,1.084E3,1.017E3,5.18E2,3.25E2,1.13E3,3.93E2,8.38E2,3.17E2,4.3E2,2.12E2,7.2E1,8.4E1,2.67E2,2.61E2,4E0,1E0,1.65E2,3.23E2,1.56E2,2.94E2,1.74E2,1.08E2,3.92E2,3.65E2,7.32E2,3.08E2,4.14E2,8.58E2,2.71E2,5.15E2,1.146E3,7.12E2,6.03E2,4.55E2,5.73E2,4.74E2,1.173E3,1.55E2,1.049E3,6.73E2,5.55E2,4.75E2,9.32E2,9.36E2,1.88E2,1.05E2,6.45E2,4.39E2,7.03E2,3.14E2,2.22E2,2.96E2,9.2E1,2.33E2,4.06E2,7.24E2,2.46E2,1.47E2,3E2,5.38E2,2.36E2,8.1E1,3.24E2,1.06E2,1E0,2.11E2],"tree_param":{"num_deleted":"0","num_feature":"78","num_nodes":"117","size_leaf_vector":"1"}},{"base_weights":[1.0770918E-2,-9.244778E0,7.553282E0,-2.087029E1,-5.867523E0,3.8886452E0,1.5836384E1,-2.7943388E1,-1.7641296E1,-8.905991E0,-2.9356935E0,1.5537121E0,8.571645E0,1.3821982E1,2.6184696E1,-1.3155618E0,-2.567954E1,-2.191092E1,-1.5523996E1,-1.1004616E1,-6.8422437E0,-4.2287655E0,1.1718365E0,6.0206383E-1,4.567515E0,5.84355E0,1.2057478E1,1.163476E1,1.7343605E1,2.2738636E1,3.6122307E1,-2.877093E1,-2.168994E1,-2.2662422E1,-1.7930027E1,-1.7195826E1,-1.0953835E1,-1.296298E1,-8.932821E0,-4.8200855E0,-8.093814E0,-8.557249E0,-3.3213015E0,-3.0006716E-1,3.9883611E0,-8.2721734E-1,2.3288713E0,7.4113913E0,2.7636075E0,4.3620677E0,7.7543826E0,1.0289811E1,1.50594225E1,1.3141268E1,8.5468235E0,1.5833345E1,2.153291E1,1.9460953E1,2.502056E1,3.1317354E1,1.6288271E0,-1.2301105E0,-9.9442536E-1,-9.3567806E-1,-4.1005555E-1,-9.9591106E-1,-8.56337E-1,-5.482009E-1,-8.252781E-1,-7.737357E-1,-5.7393295E-1,-4.8025978E-1,-1.0838911E-1,-5.081289E-1,-6.926722E-1,-2.3945352E-1,-3.8339E-1,-2.3554546E-1,-4.9847778E-2,-4.5115554E-1,-2.8329518E-1,-4.38176E-1,-1.09722115E-1,-2.70575E-1,-1.1933131E-1,-1.2273578E-1,3.2753516E-2,7.432109E-2,2.8381565E-1,4.490773E-2,-9.121191E-2,6.243845E-2,1.442075E-1,2.426952E-1,5.3939384E-1,-6.0543157E-3,2.1454394E-1,1.1523057E-1,2.7337682E-1,3.409642E-1,1.5712805E-1,3.9297718E-1,5.2419674E-1,5.662807E-1,7.4450755E-1,4.8143163E-1,6.6097754E-1,2.4299803E-1,4.5087537E-1,6.654386E-1,3.807304E-1,9.2088234E-1,5.852299E-1,6.202175E-1,8.233129E-1,9.1962045E-1,1.1256688E0,1.2946175E0,1.7538796E-1],"categories":[],"categories_nodes":[],"categories_segments":[],"categories_sizes":[],"default_left":[0,0,0,0,0,0,0,0,0,0,0,0,0,0,0,0,0,0,0,0,0,0,0,0,0,0,0,0,0,0,0,0,0,0,0,0,0,0,0,0,0,0,0,0,0,0,0,0,0,0,0,0,0,0,0,0,0,0,0,0,0,0,0,0,0,0,0,0,0,0,0,0,0,0,0,0,0,0,0,0,0,0,0,0,0,0,0,0,0,0,0,0,0,0,0,0,0,0,0,0,0,0,0,0,0,0,0,0,0,0,0,0,0,0,0,0,0,0,0],"id":4,"left_children":[1,3,5,7,9,11,13,15,17,19,21,23,25,27,29,-1,31,33,35,37,39,41,43,45,47,49,51,53,55,57,59,61,63,65,67,69,71,73,75,77,79,81,83,85,87,89,91,93,95,97,99,101,103,105,107,109,111,113,115,117,-1,-1,-1,-1,-1,-1,-1,-1,-1,-1,-1,-1,-1,-1,-1,-1,-1,-1,-1,-1,-1,-1,-1,-1,-1,-1,-1,-1,-1,-1,-1,-1,-1,-1,-1,-1,-1,-1,-1,-1,-1,-1,-1,-1,-1,-1,-1,-1,-1,-1,-1,-1,-1,-1,-1,-1,-1,-1,-1],"loss_changes":[1.5950208E6,4.026697E5,3.8207194E5,5.224225E4,7.080353E4,9.543384E4,8.0123125E4,6.0350625E3,1.40155E4,1.6833094E4,2.1505219E4,1.6706686E4,2.7545672E4,2.4708312E4,2.0684875E4,0E0,5.222E3,1.1612812E3,7.948797E3,7.731078E3,4.949336E3,1.2065719E4,4.02248E3,1.0933111E4,7.151385E3,4.5833164E3,6.605453E3,9.182375E3,7.4855E3,3.0209375E3,1.5766094E3,7.848281E2,2.65175E3,7.607031E2,6.212539E2,3.9511562E3,1.8334258E3,1.9457344E3,1.2063281E3,2.5380645E3,4.0992656E3,6.6989805E3,3.381168E3,1.8966802E3,2.1184746E3,6.538526E3,1.9194248E3,4.554092E3,6.183672E3,3.2818867E3,1.5709141E3,1.2729062E3,1.5496328E3,5.372422E3,4.17425E3,2.3776875E3,1.9481094E3,2.4986719E2,1.1112656E3,4.878125E2,0E0,0E0,0E0,0E0,0E0,0E0,0E0,0E0,0E0,0E0,0E0,0E0,0E0,0E0,0E0,0E0,0E0,0E0,0E0,0E0,0E0,0E0,0E0,0E0,0E0,0E0,0E0,0E0,0E0,0E0,0E0,0E0,0E0,0E0,0E0,0E0,0E0,0E0,0E0,0E0,0E0,0E0,0E0,0E0,0E0,0E0,0E0,0E0,0E0,0E0,0E0,0E0,0E0,0E0,0E0,0E0,0E0,0E0,0E0],"parents":[2147483647,0,0,1,1,2,2,3,3,4,4,5,5,6,6,7,7,8,8,9,9,10,10,11,11,12,12,13,13,14,14,16,16,17,17,18,18,19,19,20,20,21,21,22,22,23,23,24,24,25,25,26,26,27,27,28,28,29,29,30,30,31,31,32,32,33,33,34,34,35,35,36,36,37,37,38,38,39,39,40,40,41,41,42,42,43,43,44,44,45,45,46,46,47,47,48,48,49,49,50,50,51,51,52,52,53,53,54,54,55,55,56,56,57,57,58,58,59,59],"right_children":[2,4,6,8,10,12,14,16,18,20,22,24,26,28,30,-1,32,34,36,38,40,42,44,46,48,50,52,54,56,58,60,62,64,66,68,70,72,74,76,78,80,82,84,86,88,90,92,94,96,98,100,102,104,106,108,110,112,114,116,118,-1,-1,-1,-1,-1,-1,-1,-1,-1,-1,-1,-1,-1,-1,-1,-1,-1,-1,-1,-1,-1,-1,-1,-1,-1,-1,-1,-1,-1,-1,-1,-1,-1,-1,-1,-1,-1,-1,-1,-1,-1,-1,-1,-1,-1,-1,-1,-1,-1,-1,-1,-1,-1,-1,-1,-1,-1,-1,-1],"split_conditions":[-9.1293745E-2,-1.2021295E0,9.3978596E-1,-2.0667515E0,-3.9911124E-1,4.9950013E-1,1.5575198E0,-2.4559014E0,-1.5953788E0,-6.60124E-1,1.3654214E-1,4.1359594E-1,6.147061E-1,1.1744392E0,2.343981E0,-1.3155618E0,-1.4990598E0,1.2245907E0,-5.947674E-1,-8.9003235E-1,-4.233985E-1,-7.341318E-1,6.3696045E-1,9.0399176E-2,-3.0911618E-1,4.3370667E-1,1.0708307E0,1.3726922E0,1.7040544E0,5.249777E-1,3.0027747E0,-3.0911618E-1,1.9378259E0,-1.8986778E0,-1.1090924E0,1.2245907E0,7.054166E-1,8.984954E-1,7.912648E-2,1.2245907E0,-7.9128385E-1,-3.0911618E-1,-1.2277949E0,-4.5199203E-1,4.0075162E-1,-4.233985E-1,2.9790592E-1,1.3658737E0,1.34836E-1,-3.0911618E-1,1.3726922E0,1.2904643E0,9.9269354E-1,1.3229979E0,1.2772521E0,1.3726922E0,1.3726922E0,-1.4519393E0,1.582276E0,7.5741947E-1,1.6288271E0,-1.2301105E0,-9.9442536E-1,-9.3567806E-1,-4.1005555E-1,-9.9591106E-1,-8.56337E-1,-5.482009E-1,-8.252781E-1,-7.737357E-1,-5.7393295E-1,-4.8025978E-1,-1.0838911E-1,-5.081289E-1,-6.926722E-1,-2.3945352E-1,-3.8339E-1,-2.3554546E-1,-4.9847778E-2,-4.5115554E-1,-2.8329518E-1,-4.38176E-1,-1.09722115E-1,-2.70575E-1,-1.1933131E-1,-1.2273578E-1,3.2753516E-2,7.432109E-2,2.8381565E-1,4.490773E-2,-9.121191E-2,6.243845E-2,1.442075E-1,2.426952E-1,5.3939384E-1,-6.0543157E-3,2.1454394E-1,1.1523057E-1,2.7337682E-1,3.409642E-1,1.5712805E-1,3.9297718E-1,5.2419674E-1,5.662807E-1,7.4450755E-1,4.8143163E-1,6.6097754E-1,2.4299803E-1,4.5087537E-1,6.654386E-1,3.807304E-1,9.2088234E-1,5.852299E-1,6.202175E-1,8.233129E-1,9.1962045E-1,1.1256688E0,1.2946175E0,1.7538796E-1],"split_indices":[72,72,72,72,24,24,24,24,24,72,71,71,71,71,24,0,71,58,71,24,51,72,73,24,51,72,24,49,72,77,24,51,73,24,51,58,71,73,54,58,24,51,49,72,24,51,72,58,24,51,49,71,75,72,72,49,49,51,22,10,0,0,0,0,0,0,0,0,0,0,0,0,0,0,0,0,0,0,0,0,0,0,0,0,0,0,0,0,0,0,0,0,0,0,0,0,0,0,0,0,0,0,0,0,0,0,0,0,0,0,0,0,0,0,0,0,0,0,0],"split_type":[0,0,0,0,0,0,0,0,0,0,0,0,0,0,0,0,0,0,0,0,0,0,0,0,0,0,0,0,0,0,0,0,0,0,0,0,0,0,0,0,0,0,0,0,0,0,0,0,0,0,0,0,0,0,0,0,0,0,0,0,0,0,0,0,0,0,0,0,0,0,0,0,0,0,0,0,0,0,0,0,0,0,0,0,0,0,0,0,0,0,0,0,0,0,0,0,0,0,0,0,0,0,0,0,0,0,0,0,0,0,0,0,0,0,0,0,0,0,0],"sum_hessian":[2.2846E4,1.0258E4,1.2588E4,2.308E3,7.95E3,8.728E3,3.86E3,7.21E2,1.587E3,3.903E3,4.047E3,5.825E3,2.903E3,3.233E3,6.27E2,2.48E2,4.73E2,5.23E2,1.064E3,1.933E3,1.97E3,3.078E3,9.69E2,4.428E3,1.397E3,1.63E3,1.273E3,1.997E3,1.236E3,4.68E2,1.59E2,2.63E2,2.1E2,4.36E2,8.7E1,7.77E2,2.87E2,9.91E2,9.42E2,7.55E2,1.215E3,5.32E2,2.546E3,6.37E2,3.32E2,2.423E3,2.005E3,5.41E2,8.56E2,9.2E2,7.1E2,8.04E2,4.69E2,1.34E3,6.57E2,9.12E2,3.24E2,1.96E2,2.72E2,7.3E1,8.6E1,2E2,6.3E1,1.9E2,2E1,2.16E2,2.2E2,3.1E1,5.6E1,5.02E2,2.75E2,2.62E2,2.5E1,8.74E2,1.17E2,1.18E2,8.24E2,5.99E2,1.56E2,3.45E2,8.7E2,3.89E2,1.43E2,2.78E2,2.268E3,1.84E2,4.53E2,1.92E2,1.4E2,1.021E3,1.402E3,1.2E3,8.05E2,4.32E2,1.09E2,3.94E2,4.62E2,5.53E2,3.67E2,6.18E2,9.2E1,6.35E2,1.69E2,3.41E2,1.28E2,9.22E2,4.18E2,3.21E2,3.36E2,8.55E2,5.7E1,2.84E2,4E1,2.9E1,1.67E2,1.39E2,1.33E2,7.2E1,1E0],"tree_param":{"num_deleted":"0","num_feature":"78","num_nodes":"119","size_leaf_vector":"1"}},{"base_weights":[-7.697634E-3,-8.918842E0,8.12186E0,-2.1259892E1,-5.751549E0,4.311807E0,1.6750769E1,-2.8077026E1,-1.8006441E1,-9.61619E0,-3.2678237E0,2.0212867E0,7.6273975E0,1.4486241E1,2.6051157E1,-1.2869718E0,-2.596652E1,-2.0862095E1,-1.600138E1,-1.1846413E1,-8.299001E0,-5.2551713E0,-1.9959188E0,5.4709375E-1,3.3870728E0,6.186992E0,1.01198845E1,1.2723335E1,1.719258E1,2.3491251E1,3.516481E1,-2.0481178E1,-2.6397156E1,-2.147482E1,-1.7293945E1,-1.4719409E1,-1.8140015E1,-1.0756213E1,-1.3641394E1,-9.412336E0,-7.0956345E0,-6.4053288E0,-4.004541E0,-3.1168032E0,-3.0913058E-1,1.4485072E0,-7.6854485E-1,2.60424E0,5.450031E0,7.37232E0,4.1919565E0,8.969059E0,1.1744117E1,1.3865532E1,9.469687E0,1.8251335E1,1.4404396E1,2.4528625E1,1.996071E1,1.2522662E0,1.5748812E0,-2.6307732E-1,-8.6367786E-1,-1.1206868E0,-9.602432E-1,-6.8152237E-1,-8.9653534E-1,-7.2648454E-1,-3.0749658E-1,-6.987303E-1,-5.515873E-1,-7.686707E-1,-6.3618773E-1,-5.229438E-1,-3.936673E-1,-6.536999E-1,-5.372368E-1,-3.6156893E-1,-4.3191722E-1,-2.576039E-1,-3.6011386E-1,-2.4649052E-1,-3.3663878E-1,-1.353534E-1,-2.4712193E-1,-1.1113244E-1,-2.2660412E-1,-7.370794E-2,3.834517E-2,3.357208E-2,1.3226286E-1,-6.2922515E-2,1.7879339E-2,7.054357E-2,1.4570029E-1,2.0281914E-1,3.7975487E-1,2.4062787E-1,3.6145815E-1,1.4195567E-1,2.2932874E-1,3.8484994E-1,2.668802E-1,4.432234E-1,5.78795E-1,4.895273E-1,6.1013526E-1,3.437901E-1,4.5219192E-1,6.66966E-1,7.8741145E-1,5.2299863E-1,6.33225E-1,9.5797163E-1,1.1541202E0,7.595873E-1,9.5612776E-1],"categories":[],"categories_nodes":[],"categories_segments":[],"categories_sizes":[],"default_left":[0,0,0,0,0,0,0,0,0,0,0,0,0,0,0,0,0,0,0,0,0,0,0,0,0,0,0,0,0,0,0,0,0,0,0,0,0,0,0,0,0,0,0,0,0,0,0,0,0,0,0,0,0,0,0,0,0,0,0,0,0,0,0,0,0,0,0,0,0,0,0,0,0,0,0,0,0,0,0,0,0,0,0,0,0,0,0,0,0,0,0,0,0,0,0,0,0,0,0,0,0,0,0,0,0,0,0,0,0,0,0,0,0,0,0,0,0],"id":5,"left_children":[1,3,5,7,9,11,13,15,17,19,21,23,25,27,29,-1,31,33,35,37,39,41,43,45,47,49,51,53,55,57,59,61,63,65,67,69,71,73,75,77,79,81,83,85,87,89,91,93,95,97,99,101,103,105,107,109,111,113,115,-1,-1,-1,-1,-1,-1,-1,-1,-1,-1,-1,-1,-1,-1,-1,-1,-1,-1,-1,-1,-1,-1,-1,-1,-1,-1,-1,-1,-1,-1,-1,-1,-1,-1,-1,-1,-1,-1,-1,-1,-1,-1,-1,-1,-1,-1,-1,-1,-1,-1,-1,-1,-1,-1,-1,-1,-1,-1],"loss_changes":[1.6568589E6,4.2636394E5,3.931318E5,4.8909688E4,8.332372E4,6.3003156E4,7.676894E4,4.282875E3,8.3178125E3,9.8808125E3,1.3356082E4,9.882086E3,1.2108125E4,1.384625E4,1.587825E4,0E0,5.1525E2,9.84125E2,2.1785469E3,2.317E3,2.7989375E3,2.9418164E3,6.098418E3,2.80229E3,4.100705E3,5.0557188E3,2.2124844E3,6.5171562E3,3.1614062E3,1.56875E3,1.1687031E3,1.8648828E2,5.4378125E2,7.2075E2,2.9381055E2,1.4161328E3,2.5620312E2,1.6892109E3,3.5776562E2,6.378047E2,1.3537461E3,6.98625E2,1.3856533E3,1.8685098E3,2.3972935E3,1.5678057E3,8.911205E2,1.5497676E3,1.2801758E3,2.8844297E3,8.015869E2,7.1321875E2,9.6821875E2,2.4439531E3,6.9771875E2,1.3013125E3,3.642578E2,1.1132969E3,2.0073828E2,0E0,0E0,0E0,0E0,0E0,0E0,0E0,0E0,0E0,0E0,0E0,0E0,0E0,0E0,0E0,0E0,0E0,0E0,0E0,0E0,0E0,0E0,0E0,0E0,0E0,0E0,0E0,0E0,0E0,0E0,0E0,0E0,0E0,0E0,0E0,0E0,0E0,0E0,0E0,0E0,0E0,0E0,0E0,0E0,0E0,0E0,0E0,0E0,0E0,0E0,0E0,0E0,0E0,0E0,0E0,0E0,0E0,0E0],"parents":[2147483647,0,0,1,1,2,2,3,3,4,4,5,5,6,6,7,7,8,8,9,9,10,10,11,11,12,12,13,13,14,14,16,16,17,17,18,18,19,19,20,20,21,21,22,22,23,23,24,24,25,25,26,26,27,27,28,28,29,29,30,30,31,31,32,32,33,33,34,34,35,35,36,36,37,37,38,38,39,39,40,40,41,41,42,42,43,43,44,44,45,45,46,46,47,47,48,48,49,49,50,50,51,51,52,52,53,53,54,54,55,55,56,56,57,57,58,58],"right_children":[2,4,6,8,10,12,14,16,18,20,22,24,26,28,30,-1,32,34,36,38,40,42,44,46,48,50,52,54,56,58,60,62,64,66,68,70,72,74,76,78,80,82,84,86,88,90,92,94,96,98,100,102,104,106,108,110,112,114,116,-1,-1,-1,-1,-1,-1,-1,-1,-1,-1,-1,-1,-1,-1,-1,-1,-1,-1,-1,-1,-1,-1,-1,-1,-1,-1,-1,-1,-1,-1,-1,-1,-1,-1,-1,-1,-1,-1,-1,-1,-1,-1,-1,-1,-1,-1,-1,-1,-1,-1,-1,-1,-1,-1,-1,-1,-1,-1],"split_conditions":[-3.9466165E-2,-1.2210882E0,9.736548E-1,-2.0720534E0,-5.943209E-1,4.1527498E-1,1.8330803E0,-2.5782614E0,-1.6525635E0,-9.193374E-1,-3.5743245E-1,1.9620115E-1,7.238003E-1,1.3564835E0,2.343981E0,-1.2869718E0,-1.2249426E0,1.3658737E0,1.0001173E0,1.0001173E0,-6.2270606E-1,-3.5044235E-1,-6.2661E-2,1.0001173E0,4.0482238E-1,7.0722926E-1,8.537881E-1,7.0722926E-1,7.0722926E-1,7.0722926E-1,3.0027747E0,7.912648E-2,1.2245907E0,-1.2249426E0,2.1399567E0,-7.0695925E-1,-1.2866554E0,-7.0695925E-1,-1.0029873E0,1.2248582E0,1.0001173E0,1.2282207E0,1.0001173E0,1.3726922E0,-3.0911618E-1,2.1081772E-1,1.6287602E-1,2.18573E-1,1.0858382E0,-9.998473E-1,3.9369816E-1,1.2282207E0,1.1660525E0,-9.998473E-1,1.1886874E0,-9.998473E-1,1.0503334E0,2.2998068E0,1.747258E0,1.2522662E0,1.5748812E0,-2.6307732E-1,-8.6367786E-1,-1.1206868E0,-9.602432E-1,-6.8152237E-1,-8.9653534E-1,-7.2648454E-1,-3.0749658E-1,-6.987303E-1,-5.515873E-1,-7.686707E-1,-6.3618773E-1,-5.229438E-1,-3.936673E-1,-6.536999E-1,-5.372368E-1,-3.6156893E-1,-4.3191722E-1,-2.576039E-1,-3.6011386E-1,-2.4649052E-1,-3.3663878E-1,-1.353534E-1,-2.4712193E-1,-1.1113244E-1,-2.2660412E-1,-7.370794E-2,3.834517E-2,3.357208E-2,1.3226286E-1,-6.2922515E-2,1.7879339E-2,7.054357E-2,1.4570029E-1,2.0281914E-1,3.7975487E-1,2.4062787E-1,3.6145815E-1,1.4195567E-1,2.2932874E-1,3.8484994E-1,2.668802E-1,4.432234E-1,5.78795E-1,4.895273E-1,6.1013526E-1,3.437901E-1,4.5219192E-1,6.66966E-1,7.8741145E-1,5.2299863E-1,6.33225E-1,9.5797163E-1,1.1541202E0,7.595873E-1,9.5612776E-1],"split_indices":[67,67,67,67,67,67,67,67,67,67,67,24,24,67,24,0,58,58,59,59,24,24,24,59,70,59,71,59,59,59,24,54,58,58,73,59,67,59,56,59,59,49,59,49,51,67,67,67,71,59,24,49,24,59,67,59,70,67,24,0,0,0,0,0,0,0,0,0,0,0,0,0,0,0,0,0,0,0,0,0,0,0,0,0,0,0,0,0,0,0,0,0,0,0,0,0,0,0,0,0,0,0,0,0,0,0,0,0,0,0,0,0,0,0,0,0,0],"split_type":[0,0,0,0,0,0,0,0,0,0,0,0,0,0,0,0,0,0,0,0,0,0,0,0,0,0,0,0,0,0,0,0,0,0,0,0,0,0,0,0,0,0,0,0,0,0,0,0,0,0,0,0,0,0,0,0,0,0,0,0,0,0,0,0,0,0,0,0,0,0,0,0,0,0,0,0,0,0,0,0,0,0,0,0,0,0,0,0,0,0,0,0,0,0,0,0,0,0,0,0,0,0,0,0,0,0,0,0,0,0,0,0,0,0,0,0,0],"sum_hessian":[2.2869E4,1.091E4,1.1959E4,2.227E3,8.683E3,8.297E3,3.662E3,7.17E2,1.51E3,3.396E3,5.287E3,4.908E3,3.389E3,2.947E3,7.15E2,2.71E2,4.46E2,6.19E2,8.91E2,1.258E3,2.138E3,2.062E3,3.225E3,2.361E3,2.547E3,2.15E3,1.239E3,1.788E3,1.159E3,5.61E2,1.54E2,3.6E1,4.1E2,5.24E2,9.5E1,5.62E2,3.29E2,7.87E2,4.71E2,1.107E3,1.031E3,1.072E3,9.9E2,1.937E3,1.288E3,1.401E3,9.6E2,1.848E3,6.99E2,1.347E3,8.03E2,7.29E2,5.1E2,1.321E3,4.67E2,8.36E2,3.23E2,4.29E2,1.32E2,6.9E1,8.5E1,2E0,3.4E1,3.01E2,1.09E2,4.6E1,4.78E2,9E1,5E0,1.9E2,3.72E2,2.59E2,7E1,2.8E2,5.07E2,8E1,3.91E2,7.4E2,3.67E2,7.04E2,3.27E2,8.89E2,1.83E2,7.39E2,2.51E2,1.663E3,2.74E2,5.86E2,7.02E2,1.037E3,3.64E2,5.86E2,3.74E2,9.63E2,8.85E2,6.21E2,7.8E1,6.68E2,6.79E2,5.33E2,2.7E2,6.17E2,1.12E2,3.73E2,1.37E2,4.71E2,8.5E2,2.82E2,1.85E2,2.86E2,5.5E2,1.33E2,1.9E2,3.34E2,9.5E1,9.8E1,3.4E1],"tree_param":{"num_deleted":"0","num_feature":"78","num_nodes":"117","size_leaf_vector":"1"}},{"base_weights":[1.2839389E-2,-8.037113E0,8.316947E0,-1.9286852E1,-4.8216553E0,4.6650095E0,1.6389088E1,-2.487968E1,-1.52892475E1,-8.008855E0,-2.1448536E0,2.627808E0,7.9940624E0,1.4136068E1,2.5014439E1,-2.8109812E1,-2.1627361E1,-1.7594666E1,-1.3629263E1,-9.872659E0,-6.429551E0,-3.3516264E0,-4.6256697E-1,1.5337636E0,4.3577023E0,9.157202E0,5.081549E0,1.2499838E1,1.6714134E1,2.2466187E1,3.364698E1,-1.2769973E0,-2.6521713E1,-1.635102E1,-2.2028925E1,-1.8517185E1,-1.4739102E1,-1.569647E1,-1.2581294E1,-1.05927515E1,-7.881054E0,-5.5810204E0,-7.8588724E0,-4.2324553E0,-2.1920667E0,-2.0436816E0,8.2906306E-1,2.3849075E0,5.5284876E-2,3.6182272E0,6.6956825E0,7.404136E0,1.1054515E1,3.977309E0,6.840122E0,1.3577837E1,9.483837E0,1.7769617E1,1.3937494E1,2.1035753E1,2.478153E1,1.1994426E0,1.508086E0,-1.0868756E0,-3.0855295E-1,-6.9745827E-1,-7.033756E-2,-9.4450474E-1,-7.830997E-1,-6.0833293E-1,-7.893829E-1,-6.1405194E-1,-3.2478598E-1,-5.6136465E-1,-6.6459614E-1,-3.910139E-1,-5.5274904E-1,-2.937269E-1,-4.5202008E-1,-3.8003463E-1,-2.665468E-1,-2.9825026E-1,-1.936616E-1,-3.6461315E-1,-2.9077196E-1,-1.4537634E-1,-2.1898738E-1,-5.63961E-2,-1.3636494E-1,-1.3675605E-1,-2.764525E-2,1.033876E-2,2.7932343E-1,5.851668E-2,1.4756678E-1,-3.492013E-2,4.215877E-2,1.6358405E-1,7.522283E-2,2.47481E-1,3.944223E-1,2.5268143E-1,3.7459973E-1,3.731508E-1,4.9064884E-1,2.1245715E-1,1.2890027E-1,2.0983922E-1,3.087126E-1,4.8353654E-1,5.952142E-1,3.452633E-1,4.5478114E-1,6.441638E-1,7.6920646E-1,5.2207357E-1,6.3357013E-1,8.9914805E-1,7.2142553E-1,2.5315863E-1,1.020474E0],"categories":[],"categories_nodes":[],"categories_segments":[],"categories_sizes":[],"default_left":[0,0,0,0,0,0,0,0,0,0,0,0,0,0,0,0,0,0,0,0,0,0,0,0,0,0,0,0,0,0,0,0,0,0,0,0,0,0,0,0,0,0,0,0,0,0,0,0,0,0,0,0,0,0,0,0,0,0,0,0,0,0,0,0,0,0,0,0,0,0,0,0,0,0,0,0,0,0,0,0,0,0,0,0,0,0,0,0,0,0,0,0,0,0,0,0,0,0,0,0,0,0,0,0,0,0,0,0,0,0,0,0,0,0,0,0,0,0,0,0,0],"id":6,"left_children":[1,3,5,7,9,11,13,15,17,19,21,23,25,27,29,31,33,35,37,39,41,43,45,47,49,51,53,55,57,59,61,-1,63,65,67,69,71,73,75,77,79,81,83,85,87,89,91,93,95,97,99,101,103,105,107,109,111,113,115,117,119,-1,-1,-1,-1,-1,-1,-1,-1,-1,-1,-1,-1,-1,-1,-1,-1,-1,-1,-1,-1,-1,-1,-1,-1,-1,-1,-1,-1,-1,-1,-1,-1,-1,-1,-1,-1,-1,-1,-1,-1,-1,-1,-1,-1,-1,-1,-1,-1,-1,-1,-1,-1,-1,-1,-1,-1,-1,-1,-1,-1],"loss_changes":[1.5270015E6,4.1947844E5,3.3138488E5,5.7258312E4,7.695403E4,5.2491625E4,6.770106E4,1.0664375E4,5.523625E3,1.2057906E4,9.956275E3,9.087168E3,9.9098125E3,1.151375E4,1.5170594E4,1.7967812E3,7.818281E2,1.3787812E3,1.7089219E3,2.62275E3,2.663164E3,2.9077637E3,4.1882354E3,3.7058506E3,3.1932148E3,6.8996562E3,1.6059219E3,5.4113438E3,2.90575E3,1.34E3,1.1838125E3,0E0,1.7734375E1,3.9395312E2,1.0681094E3,1.0332031E3,1.6357031E2,9E1,1.5173438E3,2.0499844E3,9.099336E2,2.0001094E3,5.9329297E2,1.2150801E3,1.1412666E3,1.634509E3,3.900147E3,2.1736162E3,9.544989E2,9.464336E2,7.9345703E2,2.2969297E3,1.7089375E3,5.0511133E2,3.4990723E2,1.9593438E3,6.7746094E2,1.31725E3,3.512539E2,7.373906E2,4.2801562E2,0E0,0E0,0E0,0E0,0E0,0E0,0E0,0E0,0E0,0E0,0E0,0E0,0E0,0E0,0E0,0E0,0E0,0E0,0E0,0E0,0E0,0E0,0E0,0E0,0E0,0E0,0E0,0E0,0E0,0E0,0E0,0E0,0E0,0E0,0E0,0E0,0E0,0E0,0E0,0E0,0E0,0E0,0E0,0E0,0E0,0E0,0E0,0E0,0E0,0E0,0E0,0E0,0E0,0E0,0E0,0E0,0E0,0E0,0E0,0E0],"parents":[2147483647,0,0,1,1,2,2,3,3,4,4,5,5,6,6,7,7,8,8,9,9,10,10,11,11,12,12,13,13,14,14,15,15,16,16,17,17,18,18,19,19,20,20,21,21,22,22,23,23,24,24,25,25,26,26,27,27,28,28,29,29,30,30,32,32,33,33,34,34,35,35,36,36,37,37,38,38,39,39,40,40,41,41,42,42,43,43,44,44,45,45,46,46,47,47,48,48,49,49,50,50,51,51,52,52,53,53,54,54,55,55,56,56,57,57,58,58,59,59,60,60],"right_children":[2,4,6,8,10,12,14,16,18,20,22,24,26,28,30,32,34,36,38,40,42,44,46,48,50,52,54,56,58,60,62,-1,64,66,68,70,72,74,76,78,80,82,84,86,88,90,92,94,96,98,100,102,104,106,108,110,112,114,116,118,120,-1,-1,-1,-1,-1,-1,-1,-1,-1,-1,-1,-1,-1,-1,-1,-1,-1,-1,-1,-1,-1,-1,-1,-1,-1,-1,-1,-1,-1,-1,-1,-1,-1,-1,-1,-1,-1,-1,-1,-1,-1,-1,-1,-1,-1,-1,-1,-1,-1,-1,-1,-1,-1,-1,-1,-1,-1,-1,-1,-1],"split_conditions":[2.1871015E-2,-1.1146294E0,1.008201E0,-1.8083739E0,-4.660063E-1,5.0199306E-1,1.8330803E0,-2.2610002E0,-1.4600916E0,-7.5083643E-1,-7.5357236E-2,3.5843083E-1,7.0722926E-1,1.3790442E0,2.343981E0,-2.6938853E0,-1.2249426E0,1.2245907E0,-1.2991333E0,1.2245907E0,1.0001173E0,-2.1431237E-1,-3.0911618E-1,1.0001173E0,5.0149375E-1,-7.0695925E-1,5.3194606E-1,7.0722926E-1,7.0722926E-1,2.1792476E0,3.0027747E0,-1.2769973E0,5.303242E-1,7.054166E-1,1.2245907E0,-1.0001937E0,2.1399567E0,-1.1090924E0,-1.4600053E0,-1.2249426E0,-6.509199E-1,-7.0695925E-1,3.6585596E-1,1.0001173E0,1.0001173E0,-1.8822645E-1,4.3601894E-1,2.1081772E-1,1.9389713E-1,1.0001173E0,1.2285842E0,7.882332E-1,6.719041E-1,-4.233985E-1,6.8741465E-1,-9.998473E-1,8.9378875E-1,-9.998473E-1,1.1448921E0,7.0722926E-1,-1.2969843E0,1.1994426E0,1.508086E0,-1.0868756E0,-3.0855295E-1,-6.9745827E-1,-7.033756E-2,-9.4450474E-1,-7.830997E-1,-6.0833293E-1,-7.893829E-1,-6.1405194E-1,-3.2478598E-1,-5.6136465E-1,-6.6459614E-1,-3.910139E-1,-5.5274904E-1,-2.937269E-1,-4.5202008E-1,-3.8003463E-1,-2.665468E-1,-2.9825026E-1,-1.936616E-1,-3.6461315E-1,-2.9077196E-1,-1.4537634E-1,-2.1898738E-1,-5.63961E-2,-1.3636494E-1,-1.3675605E-1,-2.764525E-2,1.033876E-2,2.7932343E-1,5.851668E-2,1.4756678E-1,-3.492013E-2,4.215877E-2,1.6358405E-1,7.522283E-2,2.47481E-1,3.944223E-1,2.5268143E-1,3.7459973E-1,3.731508E-1,4.9064884E-1,2.1245715E-1,1.2890027E-1,2.0983922E-1,3.087126E-1,4.8353654E-1,5.952142E-1,3.452633E-1,4.5478114E-1,6.441638E-1,7.6920646E-1,5.2207357E-1,6.3357013E-1,8.9914805E-1,7.2142553E-1,2.5315863E-1,1.020474E0],"split_indices":[67,67,67,67,67,67,67,67,67,67,24,24,59,67,24,67,58,58,24,58,59,67,51,59,71,59,24,59,59,67,24,0,71,71,58,58,73,51,69,58,24,59,58,59,59,67,24,67,67,59,71,67,67,51,67,59,24,59,24,59,62,0,0,0,0,0,0,0,0,0,0,0,0,0,0,0,0,0,0,0,0,0,0,0,0,0,0,0,0,0,0,0,0,0,0,0,0,0,0,0,0,0,0,0,0,0,0,0,0,0,0,0,0,0,0,0,0,0,0,0,0],"split_type":[0,0,0,0,0,0,0,0,0,0,0,0,0,0,0,0,0,0,0,0,0,0,0,0,0,0,0,0,0,0,0,0,0,0,0,0,0,0,0,0,0,0,0,0,0,0,0,0,0,0,0,0,0,0,0,0,0,0,0,0,0,0,0,0,0,0,0,0,0,0,0,0,0,0,0,0,0,0,0,0,0,0,0,0,0,0,0,0,0,0,0,0,0,0,0,0,0,0,0,0,0,0,0,0,0,0,0,0,0,0,0,0,0,0,0,0,0,0,0,0,0],"sum_hessian":[2.2841E4,1.1598E4,1.1243E4,2.577E3,9.021E3,7.742E3,3.501E3,1.072E3,1.505E3,4.117E3,4.904E3,4.804E3,2.938E3,2.778E3,7.23E2,5.34E2,5.38E2,6.26E2,8.79E2,1.886E3,2.231E3,2.855E3,2.049E3,2.944E3,1.86E3,2.098E3,8.4E2,1.703E3,1.075E3,5.61E2,1.62E2,1.75E2,3.59E2,4.1E1,4.97E2,4.69E2,1.57E2,2.91E2,5.88E2,1.382E3,5.04E2,1.403E3,8.28E2,1.621E3,1.234E3,9.21E2,1.128E3,1.868E3,1.076E3,1.415E3,4.45E2,1.093E3,1.005E3,5.18E2,3.22E2,1.252E3,4.51E2,7.75E2,3E2,3.53E2,2.08E2,7.3E1,8.9E1,3.58E2,1E0,3.9E1,2E0,3.6E2,1.37E2,8.5E1,3.84E2,1.5E2,7E0,6.8E1,2.23E2,1.4E2,4.48E2,1.63E2,1.219E3,2.46E2,2.58E2,4.64E2,9.39E2,3.42E2,4.86E2,1.01E3,6.11E2,7.21E2,5.13E2,4.72E2,4.49E2,1.03E3,9.8E1,1.049E3,8.19E2,5.57E2,5.19E2,1.166E3,2.49E2,3.67E2,7.8E1,6.44E2,4.49E2,3.3E2,6.75E2,2.08E2,3.1E2,9.6E1,2.26E2,4.47E2,8.05E2,2.78E2,1.73E2,2.65E2,5.1E2,1.75E2,1.25E2,2.73E2,8E1,2E0,2.06E2],"tree_param":{"num_deleted":"0","num_feature":"78","num_nodes":"121","size_leaf_vector":"1"}},{"base_weights":[2.6039198E-2,-7.7730613E0,7.912083E0,-1.899641E1,-4.8171415E0,4.4255667E0,1.5714359E1,-2.5821566E1,-1.610972E1,-7.8651023E0,-2.1017897E0,2.4647896E0,7.7142467E0,1.3533902E1,2.4095715E1,-2.8264536E1,-2.3271149E1,-1.91975E1,-1.4316282E1,-9.9478855E0,-6.3677163E0,-3.247092E0,-4.522561E-1,1.431716E0,4.154359E0,6.442821E0,9.974344E0,1.1893436E1,1.5807449E1,2.1566315E1,3.235351E1,-1.2796948E0,-1.1123126E0,-1.902356E1,-2.3797266E1,-1.9980711E1,-1.6830677E1,-1.6901474E1,-1.3395429E1,-1.065478E1,-7.92657E0,-7.377649E0,-5.1585336E0,-4.0790443E0,-2.1609783E0,-2.004728E0,9.023621E-1,5.5869484E-1,2.5679946E0,3.4351287E0,6.459822E0,7.2272043E0,4.279208E0,1.0381029E1,6.585802E0,1.2804634E1,9.0094E0,1.6714823E1,1.31736145E1,2.0585974E1,2.4831495E1,1.151931E0,1.4476942E0,-8.084859E-1,-3.843272E-1,-1.0219313E0,-8.451381E-1,-6.3055813E-1,-8.391915E-1,-6.949305E-1,-1.4182635E-1,-7.1696705E-1,-6.0518235E-1,-5.613371E-1,-3.7893742E-1,-2.9472804E-1,-4.536133E-1,-3.745964E-1,-2.6792076E-1,-3.194936E-1,-2.5863975E-1,-2.3509778E-1,-1.3215725E-1,-1.8788026E-1,-1.1638475E-1,-6.781304E-2,-1.7662673E-1,-1.3560377E-1,-3.7571374E-2,4.4813086E-3,2.201983E-1,4.469163E-2,-6.6412754E-2,1.3158183E-1,3.651873E-2,1.20563686E-1,1.9620799E-1,2.3235147E-1,3.6444032E-1,2.5448075E-1,3.5170424E-1,1.3885102E-1,2.3492418E-1,4.6751735E-1,3.7647775E-1,2.0142038E-1,3.726088E-1,4.9713406E-1,5.921862E-1,3.3096215E-1,4.2936936E-1,6.4961934E-1,7.5707847E-1,5.073505E-1,6.0500216E-1,8.7457585E-1,7.1217334E-1,1.1992884E-1,1.0227009E0],"categories":[],"categories_nodes":[],"categories_segments":[],"categories_sizes":[],"default_left":[0,0,0,0,0,0,0,0,0,0,0,0,0,0,0,0,0,0,0,0,0,0,0,0,0,0,0,0,0,0,0,0,0,0,0,0,0,0,0,0,0,0,0,0,0,0,0,0,0,0,0,0,0,0,0,0,0,0,0,0,0,0,0,0,0,0,0,0,0,0,0,0,0,0,0,0,0,0,0,0,0,0,0,0,0,0,0,0,0,0,0,0,0,0,0,0,0,0,0,0,0,0,0,0,0,0,0,0,0,0,0,0,0,0,0,0,0,0,0],"id":7,"left_children":[1,3,5,7,9,11,13,15,17,19,21,23,25,27,29,31,33,35,37,39,41,43,45,47,49,51,53,55,57,59,61,-1,-1,63,65,67,69,71,73,75,77,79,81,83,85,87,89,91,93,95,97,99,101,103,105,107,109,111,113,115,117,-1,-1,-1,-1,-1,-1,-1,-1,-1,-1,-1,-1,-1,-1,-1,-1,-1,-1,-1,-1,-1,-1,-1,-1,-1,-1,-1,-1,-1,-1,-1,-1,-1,-1,-1,-1,-1,-1,-1,-1,-1,-1,-1,-1,-1,-1,-1,-1,-1,-1,-1,-1,-1,-1,-1,-1,-1,-1],"loss_changes":[1.4091192E6,3.8205494E5,3.0982438E5,4.6888812E4,7.545494E4,5.076189E4,6.3966E4,3.7784375E3,9.0839375E3,1.3334719E4,9.112104E3,8.607846E3,8.386859E3,1.0232719E4,1.4445531E4,3.236875E2,3.3839062E2,8.092969E2,2.3279688E3,2.4803438E3,3.0173672E3,2.5637188E3,4.1615566E3,3.0380386E3,3.0818828E3,3.1681016E3,1.3882422E3,4.1602812E3,2.5711562E3,1.2749531E3,1.1375469E3,0E0,0E0,1.23413086E2,6.3021875E2,7.7978125E2,2.5608203E2,1.0272656E2,9.225625E2,1.8797969E3,7.3365234E2,5.6734375E2,1.2710586E3,1.0043125E3,1.3365024E3,1.3078594E3,3.7517402E3,2.0183661E3,1.439585E3,9.363496E2,7.9930273E2,1.8522422E3,6.3327637E2,1.0552109E3,4.4138672E2,1.1769375E3,4.5397266E2,1.0068281E3,1.9715625E2,7.107656E2,3.456797E2,0E0,0E0,0E0,0E0,0E0,0E0,0E0,0E0,0E0,0E0,0E0,0E0,0E0,0E0,0E0,0E0,0E0,0E0,0E0,0E0,0E0,0E0,0E0,0E0,0E0,0E0,0E0,0E0,0E0,0E0,0E0,0E0,0E0,0E0,0E0,0E0,0E0,0E0,0E0,0E0,0E0,0E0,0E0,0E0,0E0,0E0,0E0,0E0,0E0,0E0,0E0,0E0,0E0,0E0,0E0,0E0,0E0,0E0],"parents":[2147483647,0,0,1,1,2,2,3,3,4,4,5,5,6,6,7,7,8,8,9,9,10,10,11,11,12,12,13,13,14,14,15,15,16,16,17,17,18,18,19,19,20,20,21,21,22,22,23,23,24,24,25,25,26,26,27,27,28,28,29,29,30,30,33,33,34,34,35,35,36,36,37,37,38,38,39,39,40,40,41,41,42,42,43,43,44,44,45,45,46,46,47,47,48,48,49,49,50,50,51,51,52,52,53,53,54,54,55,55,56,56,57,57,58,58,59,59,60,60],"right_children":[2,4,6,8,10,12,14,16,18,20,22,24,26,28,30,32,34,36,38,40,42,44,46,48,50,52,54,56,58,60,62,-1,-1,64,66,68,70,72,74,76,78,80,82,84,86,88,90,92,94,96,98,100,102,104,106,108,110,112,114,116,118,-1,-1,-1,-1,-1,-1,-1,-1,-1,-1,-1,-1,-1,-1,-1,-1,-1,-1,-1,-1,-1,-1,-1,-1,-1,-1,-1,-1,-1,-1,-1,-1,-1,-1,-1,-1,-1,-1,-1,-1,-1,-1,-1,-1,-1,-1,-1,-1,-1,-1,-1,-1,-1,-1,-1,-1,-1,-1],"split_conditions":[1.411574E-2,-1.1668012E0,1.008201E0,-2.0720534E0,-4.660063E-1,5.0199306E-1,1.8330803E0,-2.4802628E0,-1.6525635E0,-7.980731E-1,-6.618773E-2,3.5843083E-1,8.056205E-1,1.3564835E0,2.343981E0,-2.8313653E0,-1.0001937E0,1.2245907E0,-1.514264E0,1.2245907E0,-4.851635E-1,-2.1431237E-1,-3.0911618E-1,2.1081772E-1,5.0149375E-1,1.2282207E0,1.2282207E0,1.2282207E0,1.2282207E0,2.2998068E0,3.0027747E0,-1.2796948E0,-1.1123126E0,-1.17094755E-1,1.2245907E0,-1.2249426E0,3.2823505E0,9.998418E-1,3.458072E-2,-1.2249426E0,-6.509199E-1,9.998418E-1,1.3658737E0,9.998418E-1,1.2282207E0,-2.2418272E-1,3.337437E-1,1.2282207E0,1.2282207E0,1.2245907E0,1.1392801E0,7.2125584E-1,4.0075162E-1,-2.5849557E-1,-3.0911618E-1,1.2387031E0,8.9378875E-1,1.6124074E0,1.3811842E0,1.2282207E0,-4.363834E-1,1.151931E0,1.4476942E0,-8.084859E-1,-3.843272E-1,-1.0219313E0,-8.451381E-1,-6.3055813E-1,-8.391915E-1,-6.949305E-1,-1.4182635E-1,-7.1696705E-1,-6.0518235E-1,-5.613371E-1,-3.7893742E-1,-2.9472804E-1,-4.536133E-1,-3.745964E-1,-2.6792076E-1,-3.194936E-1,-2.5863975E-1,-2.3509778E-1,-1.3215725E-1,-1.8788026E-1,-1.1638475E-1,-6.781304E-2,-1.7662673E-1,-1.3560377E-1,-3.7571374E-2,4.4813086E-3,2.201983E-1,4.469163E-2,-6.6412754E-2,1.3158183E-1,3.651873E-2,1.20563686E-1,1.9620799E-1,2.3235147E-1,3.6444032E-1,2.5448075E-1,3.5170424E-1,1.3885102E-1,2.3492418E-1,4.6751735E-1,3.7647775E-1,2.0142038E-1,3.726088E-1,4.9713406E-1,5.921862E-1,3.3096215E-1,4.2936936E-1,6.4961934E-1,7.5707847E-1,5.073505E-1,6.0500216E-1,8.7457585E-1,7.1217334E-1,1.1992884E-1,1.0227009E0],"split_indices":[67,67,67,67,67,67,67,67,67,67,24,24,24,67,24,67,58,58,24,58,24,67,51,67,71,49,49,49,49,67,24,0,0,76,58,58,30,58,71,58,24,58,58,58,49,67,24,49,49,58,71,67,24,16,51,24,24,67,70,49,70,0,0,0,0,0,0,0,0,0,0,0,0,0,0,0,0,0,0,0,0,0,0,0,0,0,0,0,0,0,0,0,0,0,0,0,0,0,0,0,0,0,0,0,0,0,0,0,0,0,0,0,0,0,0,0,0,0,0],"split_type":[0,0,0,0,0,0,0,0,0,0,0,0,0,0,0,0,0,0,0,0,0,0,0,0,0,0,0,0,0,0,0,0,0,0,0,0,0,0,0,0,0,0,0,0,0,0,0,0,0,0,0,0,0,0,0,0,0,0,0,0,0,0,0,0,0,0,0,0,0,0,0,0,0,0,0,0,0,0,0,0,0,0,0,0,0,0,0,0,0,0,0,0,0,0,0,0,0,0,0,0,0,0,0,0,0,0,0,0,0,0,0,0,0,0,0,0,0,0,0],"sum_hessian":[2.2909E4,1.1518E4,1.1391E4,2.4E3,9.118E3,7.874E3,3.517E3,7.11E2,1.689E3,4.295E3,4.823E3,4.934E3,2.94E3,2.793E3,7.24E2,3.58E2,3.53E2,6.17E2,1.072E3,1.794E3,2.501E3,2.846E3,1.977E3,3.063E3,1.871E3,1.884E3,1.056E3,1.626E3,1.167E3,5.57E2,1.67E2,8.8E1,2.7E2,4.3E1,3.1E2,4.58E2,1.59E2,2.77E2,7.95E2,1.326E3,4.68E2,1.36E3,1.141E3,1.61E3,1.236E3,9.21E2,1.056E3,1.733E3,1.33E3,1.428E3,4.43E2,1.381E3,5.03E2,9.41E2,1.15E2,1.233E3,3.93E2,8.64E2,3.03E2,4.34E2,1.23E2,7.4E1,9.3E1,3.9E1,4E0,2.21E2,8.9E1,5E1,4.08E2,1.57E2,2E0,2.09E2,6.8E1,7.36E2,5.9E1,1.48E2,1.178E3,2.45E2,2.23E2,9.64E2,3.96E2,8.74E2,2.67E2,1.137E3,4.73E2,1.003E3,2.33E2,4.17E2,5.04E2,8.98E2,1.58E2,1.393E3,3.4E2,9.59E2,3.71E2,1.052E3,3.76E2,3.38E2,1.05E2,7.97E2,5.84E2,3.15E2,1.88E2,4.96E2,4.45E2,7.1E1,4.4E1,8.89E2,3.44E2,2.46E2,1.47E2,5.93E2,2.71E2,2.1E2,9.3E1,3.44E2,9E1,1E0,1.22E2],"tree_param":{"num_deleted":"0","num_feature":"78","num_nodes":"119","size_leaf_vector":"1"}},{"base_weights":[1.2611277E-2,-8.131229E0,6.9840865E0,-1.8986795E1,-5.3540983E0,2.9123974E0,1.3436076E1,-2.475215E1,-1.6122963E1,-8.736213E0,-3.139104E0,1.3690505E0,5.4480333E0,1.1436855E1,2.2038462E1,-2.7108477E1,-2.234643E1,-1.8739357E1,-1.4555548E1,-1.0710886E1,-7.518634E0,-4.516325E0,-1.7644367E0,1.3428904E-1,2.6432238E0,6.2605495E0,2.738372E0,9.748539E0,1.4015343E1,1.9983164E1,3.0862505E1,-1.2224988E0,-1.0666274E0,-1.8249792E1,-2.2833168E1,-1.8781582E1,7.881117E-2,-1.3386222E1,-1.6581491E1,-9.626198E0,-1.2439959E1,-8.141599E0,-5.7912445E0,-5.42436E0,-3.1894224E0,-1.1306087E0,-3.7612703E0,6.401752E-1,-1.7364615E0,1.945112E0,4.7138658E0,4.504157E0,7.328821E0,1.9823456E0,4.3337946E0,1.0849723E1,6.70735E0,1.4886887E1,1.1666788E1,1.8029001E1,2.1707174E1,1.1010969E0,1.3821706E0,-7.860824E-1,-4.3364242E-1,-9.794543E-1,-8.164918E-1,-7.9512507E-1,-6.8307674E-1,-6.374002E-1,-5.0010085E-1,-7.194123E-1,-6.071628E-1,-4.7446373E-1,-3.4853742E-1,-6.000409E-1,-4.863889E-1,-2.4848919E-1,-3.5280052E-1,-1.9996177E-1,-2.9175767E-1,-1.9675292E-1,-2.5802383E-1,-1.0898241E-1,-2.141451E-1,-6.7461886E-2,4.979034E-2,-2.405295E-1,-1.2258417E-1,-1.5705875E-3,7.799099E-2,-1.2665583E-1,-1.8194385E-2,9.882399E-2,1.7394658E-2,1.7242502E-1,3.4086478E-1,1.5323575E-1,2.3397544E-1,2.587301E-1,3.7493774E-1,1.2009463E-1,5.0727732E-2,1.5064645E-1,2.4111553E-1,3.6261696E-1,4.8831695E-1,2.2295567E-1,3.294991E-1,5.4137987E-1,6.4568454E-1,4.421708E-1,5.4634935E-1,7.79635E-1,6.1997896E-1,9.2232805E-1,7.624383E-1],"categories":[],"categories_nodes":[],"categories_segments":[],"categories_sizes":[],"default_left":[0,0,0,0,0,0,0,0,0,0,0,0,0,0,0,0,0,0,0,0,0,0,0,0,0,0,0,0,0,0,0,0,0,0,0,0,0,0,0,0,0,0,0,0,0,0,0,0,0,0,0,0,0,0,0,0,0,0,0,0,0,0,0,0,0,0,0,0,0,0,0,0,0,0,0,0,0,0,0,0,0,0,0,0,0,0,0,0,0,0,0,0,0,0,0,0,0,0,0,0,0,0,0,0,0,0,0,0,0,0,0,0,0,0,0,0,0],"id":8,"left_children":[1,3,5,7,9,11,13,15,17,19,21,23,25,27,29,31,33,35,37,39,41,43,45,47,49,51,53,55,57,59,61,-1,-1,63,65,67,-1,69,71,73,75,77,79,81,83,85,87,89,91,93,95,97,99,101,103,105,107,109,111,113,115,-1,-1,-1,-1,-1,-1,-1,-1,-1,-1,-1,-1,-1,-1,-1,-1,-1,-1,-1,-1,-1,-1,-1,-1,-1,-1,-1,-1,-1,-1,-1,-1,-1,-1,-1,-1,-1,-1,-1,-1,-1,-1,-1,-1,-1,-1,-1,-1,-1,-1,-1,-1,-1,-1,-1,-1],"loss_changes":[1.3000244E6,3.1828438E5,3.2406E5,3.5116062E4,6.2982438E4,2.9597152E4,8.183431E4,3.4303438E3,5.632625E3,7.9210312E3,9.61716E3,7.400449E3,6.283953E3,1.6732406E4,1.56875625E4,2.4953125E2,2.97125E2,5.0385938E2,1.9219688E3,2.2565156E3,2.1717734E3,3.041875E3,3.2180889E3,2.2629763E3,3.337254E3,4.0967344E3,7.899009E2,7.7804375E3,2.9600625E3,2.07475E3,1.0252812E3,0E0,0E0,1.1093359E2,5.219844E2,3.9728125E2,0E0,1.2884375E3,3.0771875E2,1.6111562E3,4.25375E2,1.4443516E3,6.312344E2,7.875E2,1.0987051E3,2.3513083E3,9.761006E2,1.6158059E3,8.915737E2,1.2352192E3,1.0211543E3,7.4825586E2,2.4649375E3,3.152766E2,1.9396411E2,3.5934219E3,1.0154512E3,1.4322188E3,4.6444922E2,7.358594E2,5.575781E2,0E0,0E0,0E0,0E0,0E0,0E0,0E0,0E0,0E0,0E0,0E0,0E0,0E0,0E0,0E0,0E0,0E0,0E0,0E0,0E0,0E0,0E0,0E0,0E0,0E0,0E0,0E0,0E0,0E0,0E0,0E0,0E0,0E0,0E0,0E0,0E0,0E0,0E0,0E0,0E0,0E0,0E0,0E0,0E0,0E0,0E0,0E0,0E0,0E0,0E0,0E0,0E0,0E0,0E0,0E0,0E0],"parents":[2147483647,0,0,1,1,2,2,3,3,4,4,5,5,6,6,7,7,8,8,9,9,10,10,11,11,12,12,13,13,14,14,15,15,16,16,17,17,18,18,19,19,20,20,21,21,22,22,23,23,24,24,25,25,26,26,27,27,28,28,29,29,30,30,33,33,34,34,35,35,37,37,38,38,39,39,40,40,41,41,42,42,43,43,44,44,45,45,46,46,47,47,48,48,49,49,50,50,51,51,52,52,53,53,54,54,55,55,56,56,57,57,58,58,59,59,60,60],"right_children":[2,4,6,8,10,12,14,16,18,20,22,24,26,28,30,32,34,36,38,40,42,44,46,48,50,52,54,56,58,60,62,-1,-1,64,66,68,-1,70,72,74,76,78,80,82,84,86,88,90,92,94,96,98,100,102,104,106,108,110,112,114,116,-1,-1,-1,-1,-1,-1,-1,-1,-1,-1,-1,-1,-1,-1,-1,-1,-1,-1,-1,-1,-1,-1,-1,-1,-1,-1,-1,-1,-1,-1,-1,-1,-1,-1,-1,-1,-1,-1,-1,-1,-1,-1,-1,-1,-1,-1,-1,-1,-1,-1,-1,-1,-1,-1,-1,-1],"split_conditions":[-7.260234E-2,-1.2514042E0,7.882332E-1,-2.0720534E0,-6.1617666E-1,3.504127E-1,1.6970105E0,-2.4802628E0,-1.7047353E0,-9.36963E-1,-2.41819E-1,1.8914768E-1,1.0001173E0,1.2232337E0,2.343981E0,-2.8313653E0,-1.0001937E0,8.685549E-1,1.0001173E0,1.0001173E0,1.2245907E0,-3.475621E-1,1.0001173E0,1.2282207E0,4.0482238E-1,-9.998473E-1,4.3601894E-1,7.0722926E-1,7.0722926E-1,1.9881859E0,3.0027747E0,-1.2224988E0,-1.0666274E0,-4.7650784E-1,1.2245907E0,1.2245907E0,7.881117E-2,-7.0695925E-1,7.069434E-1,-7.0695925E-1,-1.0029873E0,-1.0001937E0,9.996273E-1,1.0001173E0,1.2282207E0,3.0389953E-1,-3.6659777E-1,1.311499E-1,-1.4095445E-1,1.0001173E0,1.0858382E0,5.908262E-1,5.293361E-1,-3.0911618E-1,6.719041E-1,-9.998473E-1,5.982486E-1,-9.998473E-1,1.1448921E0,7.0722926E-1,7.0722926E-1,1.1010969E0,1.3821706E0,-7.860824E-1,-4.3364242E-1,-9.794543E-1,-8.164918E-1,-7.9512507E-1,-6.8307674E-1,-6.374002E-1,-5.0010085E-1,-7.194123E-1,-6.071628E-1,-4.7446373E-1,-3.4853742E-1,-6.000409E-1,-4.863889E-1,-2.4848919E-1,-3.5280052E-1,-1.9996177E-1,-2.9175767E-1,-1.9675292E-1,-2.5802383E-1,-1.0898241E-1,-2.141451E-1,-6.7461886E-2,4.979034E-2,-2.405295E-1,-1.2258417E-1,-1.5705875E-3,7.799099E-2,-1.2665583E-1,-1.8194385E-2,9.882399E-2,1.7394658E-2,1.7242502E-1,3.4086478E-1,1.5323575E-1,2.3397544E-1,2.587301E-1,3.7493774E-1,1.2009463E-1,5.0727732E-2,1.5064645E-1,2.4111553E-1,3.6261696E-1,4.8831695E-1,2.2295567E-1,3.294991E-1,5.4137987E-1,6.4568454E-1,4.421708E-1,5.4634935E-1,7.79635E-1,6.1997896E-1,9.2232805E-1,7.624383E-1],"split_indices":[67,67,67,67,67,67,67,67,67,67,24,24,59,67,24,67,58,71,59,59,58,67,59,49,70,59,24,59,59,67,24,0,0,70,58,58,0,59,58,59,56,58,50,59,49,71,67,67,24,59,71,67,76,51,67,59,24,59,24,59,59,0,0,0,0,0,0,0,0,0,0,0,0,0,0,0,0,0,0,0,0,0,0,0,0,0,0,0,0,0,0,0,0,0,0,0,0,0,0,0,0,0,0,0,0,0,0,0,0,0,0,0,0,0,0,0,0],"split_type":[0,0,0,0,0,0,0,0,0,0,0,0,0,0,0,0,0,0,0,0,0,0,0,0,0,0,0,0,0,0,0,0,0,0,0,0,0,0,0,0,0,0,0,0,0,0,0,0,0,0,0,0,0,0,0,0,0,0,0,0,0,0,0,0,0,0,0,0,0,0,0,0,0,0,0,0,0,0,0,0,0,0,0,0,0,0,0,0,0,0,0,0,0,0,0,0,0,0,0,0,0,0,0,0,0,0,0,0,0,0,0,0,0,0,0,0,0],"sum_hessian":[2.2896E4,1.056E4,1.2336E4,2.15E3,8.41E3,7.564E3,4.772E3,7.11E2,1.439E3,3.327E3,5.083E3,4.703E3,2.861E3,3.874E3,8.98E2,3.54E2,3.57E2,5.35E2,9.04E2,1.266E3,2.061E3,2.538E3,2.545E3,2.389E3,2.314E3,2.2E3,6.61E2,2.344E3,1.53E3,7.31E2,1.67E2,9E1,2.64E2,4.2E1,3.15E2,5.34E2,1E0,5.78E2,3.26E2,7.82E2,4.84E2,1.512E3,5.49E2,1.505E3,1.033E3,1.933E3,6.12E2,1.881E3,5.08E2,1.732E3,5.82E2,8.34E2,1.366E3,4.5E2,2.11E2,1.719E3,6.25E2,1.112E3,4.18E2,3.48E2,3.83E2,7.5E1,9.2E1,3.6E1,6E0,2.23E2,9.2E1,4.02E2,1.32E2,1.97E2,3.81E2,2.02E2,1.24E2,2.79E2,5.03E2,9.2E1,3.92E2,2.86E2,1.226E3,3.3E2,2.19E2,8.88E2,6.17E2,8.23E2,2.1E2,1.584E3,3.49E2,1.61E2,4.51E2,1.225E3,6.56E2,2.47E2,2.61E2,1.323E3,4.09E2,5.13E2,6.9E1,5.15E2,3.19E2,8.84E2,4.82E2,1.96E2,2.54E2,1.51E2,6E1,6.08E2,1.111E3,3.25E2,3E2,3.93E2,7.19E2,2.81E2,1.37E2,2.53E2,9.5E1,2.97E2,8.6E1],"tree_param":{"num_deleted":"0","num_feature":"78","num_nodes":"117","size_leaf_vector":"1"}},{"base_weights":[-6.9295216E-5,-8.409083E0,6.2564883E0,-1.8276423E1,-5.6059947E0,2.4520037E0,1.2936219E1,-2.3848837E1,-1.5485261E1,-8.668539E0,-3.648747E0,7.2127765E-1,4.7871857E0,1.1000502E1,2.1127453E1,-2.6733393E1,-2.2071518E1,-1.8036713E1,-1.3916036E1,-1.0524697E1,-7.620368E0,-4.9329476E0,-2.3115277E0,-4.2697027E-1,2.0012891E0,3.7180455E0,6.8561234E0,9.123548E0,1.3134261E1,1.9212917E1,2.9825174E1,-2.6783884E1,-2.7017727E-1,-1.824431E1,-2.2602364E1,-1.8076801E1,7.719823E-2,-1.609046E1,-1.2962476E1,-1.1271164E1,-8.3366E0,-8.699374E0,-6.646932E0,-5.783961E0,-3.869749E0,-3.4814432E0,-1.4253049E0,2.369151E-2,-2.279739E0,1.3392768E0,4.0779023E0,4.3085775E0,2.0562325E0,6.1074324E0,8.945947E0,9.935882E0,6.292331E0,1.3914388E1,1.0792444E1,1.7980648E1,2.2101763E1,1.0584307E0,1.329862E0,-3.192669E-1,-1.0980161E0,-3.4696478E-1,-7.7680206E-1,-9.629817E-1,-8.184252E-1,-7.665075E-1,-6.528041E-1,-6.8599826E-1,-5.786008E-1,-4.1464868E-1,-5.5252546E-1,-3.0610508E-1,-4.793303E-1,-3.5270154E-1,-3.3815928E-2,-3.4262958E-1,-4.1315186E-1,-3.0314612E-1,-2.1156548E-1,-2.259713E-1,-3.0318844E-1,-1.8225548E-1,-7.88595E-2,-2.0280279E-1,-9.3707174E-2,-9.5944166E-2,9.1723956E-2,-3.1751893E-2,4.2554654E-2,-1.5706319E-1,-5.7647947E-2,2.0404883E-2,7.929134E-2,1.4138149E-1,2.4958895E-1,1.7004475E-1,4.3220443E-1,5.5968504E-2,1.18345976E-1,1.9320469E-1,2.880809E-1,4.0321374E-1,3.019966E-1,3.7229648E-1,4.8215777E-1,2.034204E-1,2.99149E-1,5.316465E-1,6.4305186E-1,3.8242796E-1,4.81865E-1,7.714856E-1,6.071353E-1,1.0187052E-1,9.078711E-1],"categories":[],"categories_nodes":[],"categories_segments":[],"categories_sizes":[],"default_left":[0,0,0,0,0,0,0,0,0,0,0,0,0,0,0,0,0,0,0,0,0,0,0,0,0,0,0,0,0,0,0,0,0,0,0,0,0,0,0,0,0,0,0,0,0,0,0,0,0,0,0,0,0,0,0,0,0,0,0,0,0,0,0,0,0,0,0,0,0,0,0,0,0,0,0,0,0,0,0,0,0,0,0,0,0,0,0,0,0,0,0,0,0,0,0,0,0,0,0,0,0,0,0,0,0,0,0,0,0,0,0,0,0,0,0,0,0,0,0],"id":9,"left_children":[1,3,5,7,9,11,13,15,17,19,21,23,25,27,29,31,33,35,37,39,41,43,45,47,49,51,53,55,57,59,61,63,-1,65,67,69,-1,71,73,75,77,79,81,83,85,87,89,91,93,95,97,99,101,103,105,107,109,111,113,115,117,-1,-1,-1,-1,-1,-1,-1,-1,-1,-1,-1,-1,-1,-1,-1,-1,-1,-1,-1,-1,-1,-1,-1,-1,-1,-1,-1,-1,-1,-1,-1,-1,-1,-1,-1,-1,-1,-1,-1,-1,-1,-1,-1,-1,-1,-1,-1,-1,-1,-1,-1,-1,-1,-1,-1,-1,-1,-1],"loss_changes":[1.2026458E6,2.696283E5,3.3305556E5,3.3179625E4,4.5500016E4,3.375166E4,7.517831E4,3.091E3,5.5145E3,5.680625E3,7.9498047E3,7.052814E3,7.8381094E3,1.52953125E4,1.4547094E4,9.665625E1,5.0189062E2,4.69375E2,1.6492344E3,1.6471797E3,1.933625E3,2.1165547E3,2.3516982E3,2.1125332E3,3.113832E3,2.2934004E3,1.8385664E3,4.6545625E3,3.1364375E3,2.2617812E3,8.7221875E2,3.875E0,0E0,2.6919727E2,4.719375E2,4.5364062E2,0E0,1.1496875E2,8.171719E2,1.2323359E3,5.717949E2,3.259922E2,1.0851562E3,5.1928125E2,1.1853467E3,1.7080049E3,4.367111E3,1.6544255E3,6.663584E2,8.646697E2,6.693965E2,1.6235156E3,3.509829E2,1.1210234E3,3.7711523E2,2.3592656E3,5.8191406E2,2.0337656E3,5.34875E2,1.1650938E3,2.821875E2,0E0,0E0,0E0,0E0,0E0,0E0,0E0,0E0,0E0,0E0,0E0,0E0,0E0,0E0,0E0,0E0,0E0,0E0,0E0,0E0,0E0,0E0,0E0,0E0,0E0,0E0,0E0,0E0,0E0,0E0,0E0,0E0,0E0,0E0,0E0,0E0,0E0,0E0,0E0,0E0,0E0,0E0,0E0,0E0,0E0,0E0,0E0,0E0,0E0,0E0,0E0,0E0,0E0,0E0,0E0,0E0,0E0,0E0],"parents":[2147483647,0,0,1,1,2,2,3,3,4,4,5,5,6,6,7,7,8,8,9,9,10,10,11,11,12,12,13,13,14,14,15,15,16,16,17,17,18,18,19,19,20,20,21,21,22,22,23,23,24,24,25,25,26,26,27,27,28,28,29,29,30,30,31,31,33,33,34,34,35,35,37,37,38,38,39,39,40,40,41,41,42,42,43,43,44,44,45,45,46,46,47,47,48,48,49,49,50,50,51,51,52,52,53,53,54,54,55,55,56,56,57,57,58,58,59,59,60,60],"right_children":[2,4,6,8,10,12,14,16,18,20,22,24,26,28,30,32,34,36,38,40,42,44,46,48,50,52,54,56,58,60,62,64,-1,66,68,70,-1,72,74,76,78,80,82,84,86,88,90,92,94,96,98,100,102,104,106,108,110,112,114,116,118,-1,-1,-1,-1,-1,-1,-1,-1,-1,-1,-1,-1,-1,-1,-1,-1,-1,-1,-1,-1,-1,-1,-1,-1,-1,-1,-1,-1,-1,-1,-1,-1,-1,-1,-1,-1,-1,-1,-1,-1,-1,-1,-1,-1,-1,-1,-1,-1,-1,-1,-1,-1,-1,-1,-1,-1,-1,-1],"split_conditions":[-1.4592494E-1,-1.2514042E0,7.882332E-1,-2.0720534E0,-6.6341335E-1,2.7850014E-1,1.6970105E0,-2.5782614E0,-1.7047353E0,-9.729193E-1,-2.862558E-1,1.34836E-1,5.7708824E-1,1.1710619E0,2.343981E0,2.379986E0,-1.0001937E0,8.685549E-1,-1.5460045E0,1.2245907E0,-7.306241E-1,-4.2581987E-1,-3.0911618E-1,1.2282207E0,3.8229635E-1,1.2282207E0,9.010986E-1,1.2282207E0,1.2282207E0,2.1792476E0,3.0027747E0,-1.4321007E0,-2.7017727E-1,7.912648E-2,1.2245907E0,1.2245907E0,7.719823E-2,9.998418E-1,-1.8681549E0,-1.2249426E0,2.0594828E0,-3.7724596E-1,1.2245907E0,1.2282207E0,9.998418E-1,-3.8633847E-1,7.629225E-2,3.4561466E-2,-3.0812156E-1,-3.0911618E-1,1.0686358E0,1.4140627E0,2.3146847E-1,-3.0911618E-1,5.56095E-1,1.0870537E0,4.6846488E-1,1.458007E0,9.3207186E-1,1.2282207E0,-8.8729125E-1,1.0584307E0,1.329862E0,-3.192669E-1,-1.0980161E0,-3.4696478E-1,-7.7680206E-1,-9.629817E-1,-8.184252E-1,-7.665075E-1,-6.528041E-1,-6.8599826E-1,-5.786008E-1,-4.1464868E-1,-5.5252546E-1,-3.0610508E-1,-4.793303E-1,-3.5270154E-1,-3.3815928E-2,-3.4262958E-1,-4.1315186E-1,-3.0314612E-1,-2.1156548E-1,-2.259713E-1,-3.0318844E-1,-1.8225548E-1,-7.88595E-2,-2.0280279E-1,-9.3707174E-2,-9.5944166E-2,9.1723956E-2,-3.1751893E-2,4.2554654E-2,-1.5706319E-1,-5.7647947E-2,2.0404883E-2,7.929134E-2,1.4138149E-1,2.4958895E-1,1.7004475E-1,4.3220443E-1,5.5968504E-2,1.18345976E-1,1.9320469E-1,2.880809E-1,4.0321374E-1,3.019966E-1,3.7229648E-1,4.8215777E-1,2.034204E-1,2.99149E-1,5.316465E-1,6.4305186E-1,3.8242796E-1,4.81865E-1,7.714856E-1,6.071353E-1,1.0187052E-1,9.078711E-1],"split_indices":[67,67,67,67,67,67,67,67,67,67,24,24,24,67,24,10,58,71,24,58,24,67,51,49,70,49,70,49,49,67,24,10,0,54,58,58,0,58,69,58,77,69,58,49,58,67,24,67,24,51,70,58,24,51,72,24,24,67,70,49,71,0,0,0,0,0,0,0,0,0,0,0,0,0,0,0,0,0,0,0,0,0,0,0,0,0,0,0,0,0,0,0,0,0,0,0,0,0,0,0,0,0,0,0,0,0,0,0,0,0,0,0,0,0,0,0,0,0,0],"split_type":[0,0,0,0,0,0,0,0,0,0,0,0,0,0,0,0,0,0,0,0,0,0,0,0,0,0,0,0,0,0,0,0,0,0,0,0,0,0,0,0,0,0,0,0,0,0,0,0,0,0,0,0,0,0,0,0,0,0,0,0,0,0,0,0,0,0,0,0,0,0,0,0,0,0,0,0,0,0,0,0,0,0,0,0,0,0,0,0,0,0,0,0,0,0,0,0,0,0,0,0,0,0,0,0,0,0,0,0,0,0,0,0,0,0,0,0,0,0,0],"sum_hessian":[2.2857E4,9.751E3,1.3106E4,2.156E3,7.595E3,8.351E3,4.755E3,7.17E2,1.439E3,2.96E3,4.635E3,4.797E3,3.554E3,3.848E3,9.07E2,2.68E2,4.49E2,5.44E2,8.95E2,1.065E3,1.895E3,2.363E3,2.272E3,2.529E3,2.268E3,2.345E3,1.209E3,2.05E3,1.798E3,7.46E2,1.61E2,2.67E2,1E0,5.9E1,3.9E2,5.43E2,1E0,2.68E2,6.27E2,7.91E2,2.74E2,8.95E2,1E3,1.31E3,1.053E3,9.78E2,1.294E3,2.035E3,4.94E2,1.721E3,5.47E2,1.729E3,6.16E2,8.93E2,3.16E2,1.591E3,4.59E2,1.345E3,4.53E2,5.28E2,2.18E2,6.9E1,9.2E1,1E0,2.66E2,5E0,5.4E1,2.82E2,1.08E2,4.1E2,1.33E2,1.94E2,7.4E1,1.03E2,5.24E2,8.4E1,7.07E2,2.64E2,1E1,7.3E2,1.65E2,6.58E2,3.42E2,1.131E3,1.79E2,8.09E2,2.44E2,4.36E2,5.42E2,1.035E3,2.59E2,1.139E3,8.96E2,1.76E2,3.18E2,7.16E2,1.005E3,4.2E2,1.27E2,1.689E3,4E1,3.39E2,2.77E2,3.61E2,5.32E2,1.97E2,1.19E2,1.097E3,4.94E2,2.02E2,2.57E2,8.93E2,4.52E2,1.87E2,2.66E2,4.1E2,1.18E2,1E0,2.17E2],"tree_param":{"num_deleted":"0","num_feature":"78","num_nodes":"119","size_leaf_vector":"1"}},{"base_weights":[-8.924435E-3,-8.056782E0,5.962939E0,-1.7486658E1,-5.377299E0,2.345338E0,1.2368403E1,-2.2896925E1,-1.4855283E1,-8.209245E0,-3.4041975E0,5.6609106E-1,4.431364E0,1.0280927E1,1.936977E1,-2.651562E1,-2.1626402E1,-1.7344797E1,-1.3350148E1,-9.896587E0,-7.054054E0,-4.5338387E0,-2.0444987E0,1.3247076E0,-1.1365764E0,3.430074E0,6.5054674E0,8.633612E0,1.2206812E1,1.7538507E1,2.8013935E1,-2.6665058E1,-3.6469546E-1,-2.2642601E1,-1.9552896E1,-1.8029793E1,-1.5183205E1,-1.2242996E1,-1.5307968E1,-8.9109125E0,-1.1476453E1,-6.2679534E0,-8.356311E0,-5.1778936E0,-3.3977988E0,-1.3917426E0,-4.063253E0,-1.8732032E-1,2.377653E0,-1.8357623E0,-1.3157248E-1,4.1649594E0,1.7392169E0,5.93897E0,9.155628E0,9.688206E0,5.805283E0,1.2792544E1,9.2110615E0,1.606129E1,1.9763212E1,2.4764217E1,1.2926254E0,-3.1273288E-1,-1.0941007E0,-7.36518E-1,-9.3931764E-1,-4.9508083E-1,-8.172659E-1,-6.190666E-1,-7.621221E-1,-2.2445403E-1,-6.286831E-1,-6.1008227E-1,-4.677121E-1,-6.643152E-1,-5.595048E-1,-4.369892E-1,-3.230279E-1,-5.251392E-1,-4.3576849E-1,-3.1331852E-1,-2.2614878E-1,-3.7106195E-1,-2.9841504E-1,-1.8764015E-1,-2.4448104E-1,-1.1826089E-1,-2.1719962E-1,-1.1522244E-1,-2.1032274E-2,-2.153656E-1,-1.0886294E-1,-3.747851E-2,3.3530578E-2,6.7138776E-2,1.8151784E-1,-1.1462713E-1,-2.9358016E-2,-9.0148956E-2,5.826667E-3,1.3974278E-1,2.298278E-1,5.373212E-2,1.1883574E-1,2.1049175E-1,2.9502988E-1,4.1062716E-1,2.7940258E-1,3.1769812E-1,4.3995732E-1,1.9408162E-1,2.8757003E-1,4.8929888E-1,5.702341E-1,3.5085362E-1,4.5419452E-1,6.941468E-1,5.5029136E-1,8.395662E-1,6.8169135E-1,9.978565E-2,1.0216149E0],"categories":[],"categories_nodes":[],"categories_segments":[],"categories_sizes":[],"default_left":[0,0,0,0,0,0,0,0,0,0,0,0,0,0,0,0,0,0,0,0,0,0,0,0,0,0,0,0,0,0,0,0,0,0,0,0,0,0,0,0,0,0,0,0,0,0,0,0,0,0,0,0,0,0,0,0,0,0,0,0,0,0,0,0,0,0,0,0,0,0,0,0,0,0,0,0,0,0,0,0,0,0,0,0,0,0,0,0,0,0,0,0,0,0,0,0,0,0,0,0,0,0,0,0,0,0,0,0,0,0,0,0,0,0,0,0,0,0,0,0,0,0,0],"id":10,"left_children":[1,3,5,7,9,11,13,15,17,19,21,23,25,27,29,31,33,35,37,39,41,43,45,47,49,51,53,55,57,59,61,63,-1,65,67,69,71,73,75,77,79,81,83,85,87,89,91,93,95,97,99,101,103,105,107,109,111,113,115,117,119,121,-1,-1,-1,-1,-1,-1,-1,-1,-1,-1,-1,-1,-1,-1,-1,-1,-1,-1,-1,-1,-1,-1,-1,-1,-1,-1,-1,-1,-1,-1,-1,-1,-1,-1,-1,-1,-1,-1,-1,-1,-1,-1,-1,-1,-1,-1,-1,-1,-1,-1,-1,-1,-1,-1,-1,-1,-1,-1,-1,-1,-1],"loss_changes":[1.0970334E6,2.4557888E5,3.0359906E5,3.0282438E4,4.2287812E4,3.108177E4,6.891606E4,2.654125E3,5.2016875E3,5.9902656E3,6.8488438E3,5.8411533E3,7.983672E3,1.1458531E4,1.6683938E4,2.3073438E2,6.635E2,5.302656E2,1.7807656E3,1.8614062E3,1.8404531E3,1.7662227E3,2.66675E3,4.980479E3,9.7930054E2,3.2259668E3,1.8282656E3,5.813797E3,2.8265625E3,2.63375E3,1.3967969E3,1.35859375E1,0E0,7.921875E1,3.14E2,4.1570312E2,1.4995898E2,1.1008203E3,2.6764844E2,1.320543E3,4.0377344E2,1.1496562E3,4.576328E2,7.060586E2,8.436826E2,1.915272E3,8.1861816E2,9.4273645E2,2.7897217E3,8.849607E2,3.2535437E2,1.9547852E3,3.8838818E2,1.0099219E3,3.786543E2,2.8420469E3,6.6374023E2,1.1712656E3,2.3997852E2,1.0520938E3,4.8192188E2,3.8754297E2,0E0,0E0,0E0,0E0,0E0,0E0,0E0,0E0,0E0,0E0,0E0,0E0,0E0,0E0,0E0,0E0,0E0,0E0,0E0,0E0,0E0,0E0,0E0,0E0,0E0,0E0,0E0,0E0,0E0,0E0,0E0,0E0,0E0,0E0,0E0,0E0,0E0,0E0,0E0,0E0,0E0,0E0,0E0,0E0,0E0,0E0,0E0,0E0,0E0,0E0,0E0,0E0,0E0,0E0,0E0,0E0,0E0,0E0,0E0,0E0,0E0],"parents":[2147483647,0,0,1,1,2,2,3,3,4,4,5,5,6,6,7,7,8,8,9,9,10,10,11,11,12,12,13,13,14,14,15,15,16,16,17,17,18,18,19,19,20,20,21,21,22,22,23,23,24,24,25,25,26,26,27,27,28,28,29,29,30,30,31,31,33,33,34,34,35,35,36,36,37,37,38,38,39,39,40,40,41,41,42,42,43,43,44,44,45,45,46,46,47,47,48,48,49,49,50,50,51,51,52,52,53,53,54,54,55,55,56,56,57,57,58,58,59,59,60,60,61,61],"right_children":[2,4,6,8,10,12,14,16,18,20,22,24,26,28,30,32,34,36,38,40,42,44,46,48,50,52,54,56,58,60,62,64,-1,66,68,70,72,74,76,78,80,82,84,86,88,90,92,94,96,98,100,102,104,106,108,110,112,114,116,118,120,122,-1,-1,-1,-1,-1,-1,-1,-1,-1,-1,-1,-1,-1,-1,-1,-1,-1,-1,-1,-1,-1,-1,-1,-1,-1,-1,-1,-1,-1,-1,-1,-1,-1,-1,-1,-1,-1,-1,-1,-1,-1,-1,-1,-1,-1,-1,-1,-1,-1,-1,-1,-1,-1,-1,-1,-1,-1,-1,-1,-1,-1],"split_conditions":[-1.4592494E-1,-1.2514042E0,7.882332E-1,-2.0720534E0,-6.401475E-1,2.5170916E-1,1.6124074E0,-2.6938853E0,-1.7047353E0,-9.36963E-1,-2.41819E-1,1.0001173E0,5.7708824E-1,1.1534362E0,2.524005E0,-5.264874E-1,-2.2610002E0,1.2245907E0,1.0001173E0,1.0001173E0,1.0001173E0,-3.6659777E-1,1.0001173E0,-7.0695925E-1,7.897804E-2,1.0001173E0,1.0113009E0,7.0722926E-1,1.0001173E0,1.9881859E0,3.0027747E0,-1.4321007E0,-3.6469546E-1,-1.2249426E0,-1.2249426E0,-1.0001937E0,-2.578186E0,-9.998473E-1,7.069434E-1,-7.0695925E-1,3.6585596E-1,-7.0695925E-1,7.069434E-1,1.0001173E0,1.2282207E0,-3.6588392E-1,-3.0911618E-1,7.897804E-2,4.1359594E-1,3.6585596E-1,-1.1433169E0,5.0199306E-1,5.7531565E-1,6.2937856E-1,6.1755043E-1,-9.998473E-1,5.982486E-1,1.3790442E0,1.1448921E0,7.0722926E-1,7.0722926E-1,-1.3189672E0,1.2926254E0,-3.1273288E-1,-1.0941007E0,-7.36518E-1,-9.3931764E-1,-4.9508083E-1,-8.172659E-1,-6.190666E-1,-7.621221E-1,-2.2445403E-1,-6.286831E-1,-6.1008227E-1,-4.677121E-1,-6.643152E-1,-5.595048E-1,-4.369892E-1,-3.230279E-1,-5.251392E-1,-4.3576849E-1,-3.1331852E-1,-2.2614878E-1,-3.7106195E-1,-2.9841504E-1,-1.8764015E-1,-2.4448104E-1,-1.1826089E-1,-2.1719962E-1,-1.1522244E-1,-2.1032274E-2,-2.153656E-1,-1.0886294E-1,-3.747851E-2,3.3530578E-2,6.7138776E-2,1.8151784E-1,-1.1462713E-1,-2.9358016E-2,-9.0148956E-2,5.826667E-3,1.3974278E-1,2.298278E-1,5.373212E-2,1.1883574E-1,2.1049175E-1,2.9502988E-1,4.1062716E-1,2.7940258E-1,3.1769812E-1,4.3995732E-1,1.9408162E-1,2.8757003E-1,4.8929888E-1,5.702341E-1,3.5085362E-1,4.5419452E-1,6.941468E-1,5.5029136E-1,8.395662E-1,6.8169135E-1,9.978565E-2,1.0216149E0],"split_indices":[67,67,67,67,67,67,67,67,67,67,24,59,24,67,67,70,67,58,59,59,59,67,59,59,67,59,71,59,59,67,24,10,0,58,58,58,68,59,58,59,58,59,58,59,49,59,51,67,71,58,55,67,67,70,68,59,24,67,24,59,59,17,0,0,0,0,0,0,0,0,0,0,0,0,0,0,0,0,0,0,0,0,0,0,0,0,0,0,0,0,0,0,0,0,0,0,0,0,0,0,0,0,0,0,0,0,0,0,0,0,0,0,0,0,0,0,0,0,0,0,0,0,0],"split_type":[0,0,0,0,0,0,0,0,0,0,0,0,0,0,0,0,0,0,0,0,0,0,0,0,0,0,0,0,0,0,0,0,0,0,0,0,0,0,0,0,0,0,0,0,0,0,0,0,0,0,0,0,0,0,0,0,0,0,0,0,0,0,0,0,0,0,0,0,0,0,0,0,0,0,0,0,0,0,0,0,0,0,0,0,0,0,0,0,0,0,0,0,0,0,0,0,0,0,0,0,0,0,0,0,0,0,0,0,0,0,0,0,0,0,0,0,0,0,0,0,0,0,0],"sum_hessian":[2.2824E4,9.722E3,1.3102E4,2.15E3,7.572E3,8.374E3,4.728E3,7.01E2,1.449E3,3.108E3,4.464E3,4.52E3,3.854E3,3.644E3,1.084E3,1.77E2,5.24E2,5.42E2,9.07E2,1.26E3,1.848E3,2.437E3,2.027E3,3.127E3,1.393E3,2.601E3,1.253E3,1.967E3,1.677E3,8.97E2,1.87E2,1.75E2,2E0,3.45E2,1.79E2,4.06E2,1.36E2,5.84E2,3.23E2,7.8E2,4.8E2,1.156E3,6.92E2,1.553E3,8.84E2,1.533E3,4.94E2,1.284E3,1.843E3,8.21E2,5.72E2,1.812E3,7.89E2,1.035E3,2.18E2,1.431E3,5.36E2,1.4E3,2.77E2,5.44E2,3.53E2,1.02E2,8.5E1,1E0,1.74E2,2.5E1,3.2E2,1.1E1,1.68E2,7.3E1,3.33E2,3E0,1.33E2,1.33E2,4.51E2,2.01E2,1.22E2,2.82E2,4.98E2,1.77E2,3.03E2,4E2,7.56E2,4.11E2,2.81E2,8.93E2,6.6E2,7E2,1.84E2,5.84E2,9.49E2,2.65E2,2.29E2,7.45E2,5.39E2,1.358E3,4.85E2,4.4E2,3.81E2,6.6E1,5.06E2,1.196E3,6.16E2,5.79E2,2.1E2,6.39E2,3.96E2,1.56E2,6.2E1,5.11E2,9.2E2,2.89E2,2.47E2,8.13E2,5.87E2,2.11E2,6.6E1,4.01E2,1.43E2,2.8E2,7.3E1,1E0,1.01E2],"tree_param":{"num_deleted":"0","num_feature":"78","num_nodes":"123","size_leaf_vector":"1"}},{"base_weights":[-4.2205088E-2,-6.596588E0,6.668597E0,-1.5496153E1,-3.9083745E0,3.735346E0,1.3303705E1,-2.0298756E1,-1.2255886E1,-6.466799E0,-1.7813407E0,2.0845373E0,6.4734945E0,1.1351938E1,1.9809229E1,-2.3449278E1,-1.8031956E1,-1.4281565E1,-1.0962228E1,-7.9761815E0,-5.2473607E0,-2.802718E0,-4.443626E-1,2.8132546E0,2.4209386E-1,7.4553165E0,4.021732E0,1.0012569E1,1.3089448E1,1.793641E1,2.7176691E1,-2.5442656E1,-2.200807E1,-1.713554E1,-8.145693E-1,-1.1383385E1,-1.490139E1,-1.2719984E1,-1.0032604E1,-9.485242E0,-7.2212934E0,-4.515897E0,-6.4561687E0,-3.6027572E0,-2.0556579E0,-1.7846701E0,6.4393884E-1,2.1567404E0,4.338306E0,-7.536214E-1,1.1524421E0,5.922086E0,9.119568E0,3.0772388E0,5.5263586E0,1.0890272E1,7.485751E0,1.3905813E1,1.093345E1,1.6819883E1,2.0158436E1,9.772897E-1,1.2118025E0,-1.047062E0,-3.5474375E-1,-9.022711E-1,-2.568127E-1,-7.9323786E-1,-6.609303E-1,-4.967607E-1,-3.1446195E-1,-6.815469E-1,-5.809961E-1,-5.530218E-1,-4.7608596E-1,-2.9257926E-1,-4.4254848E-1,-4.100204E-1,-3.3192614E-1,-3.1345275E-1,-2.1752773E-1,-2.4498025E-1,-1.5505688E-1,-3.086124E-1,-2.3413913E-1,-1.238743E-1,-1.864581E-1,-6.7533545E-2,-1.7027794E-1,-4.4972464E-2,-1.5253063E-1,-2.9823216E-4,2.0637308E-1,5.4375976E-2,1.2340174E-1,1.1471929E-1,2.3707758E-1,-5.9127416E-2,1.56244645E-2,1.8812936E-2,7.169002E-2,2.0317304E-1,2.9873294E-1,3.4251362E-1,4.3864712E-1,1.6764618E-1,9.780511E-2,1.6784486E-1,2.506558E-1,3.793213E-1,4.8213425E-1,3.2079297E-1,1.7502828E-1,5.0346696E-1,6.04024E-1,4.150278E-1,5.075084E-1,7.215168E-1,5.786454E-1,1.5184845E-1,8.308843E-1],"categories":[],"categories_nodes":[],"categories_segments":[],"categories_sizes":[],"default_left":[0,0,0,0,0,0,0,0,0,0,0,0,0,0,0,0,0,0,0,0,0,0,0,0,0,0,0,0,0,0,0,0,0,0,0,0,0,0,0,0,0,0,0,0,0,0,0,0,0,0,0,0,0,0,0,0,0,0,0,0,0,0,0,0,0,0,0,0,0,0,0,0,0,0,0,0,0,0,0,0,0,0,0,0,0,0,0,0,0,0,0,0,0,0,0,0,0,0,0,0,0,0,0,0,0,0,0,0,0,0,0,0,0,0,0,0,0,0,0,0,0],"id":11,"left_children":[1,3,5,7,9,11,13,15,17,19,21,23,25,27,29,31,33,35,37,39,41,43,45,47,49,51,53,55,57,59,61,63,65,67,-1,69,71,73,75,77,79,81,83,85,87,89,91,93,95,97,99,101,103,105,107,109,111,113,115,117,119,-1,-1,-1,-1,-1,-1,-1,-1,-1,-1,-1,-1,-1,-1,-1,-1,-1,-1,-1,-1,-1,-1,-1,-1,-1,-1,-1,-1,-1,-1,-1,-1,-1,-1,-1,-1,-1,-1,-1,-1,-1,-1,-1,-1,-1,-1,-1,-1,-1,-1,-1,-1,-1,-1,-1,-1,-1,-1,-1,-1],"loss_changes":[1.0071724E6,2.7707428E5,2.2014828E5,4.1565562E4,4.841008E4,3.5456203E4,4.380925E4,7.29725E3,4.054625E3,7.392328E3,6.635372E3,6.574131E3,7.0736484E3,6.0825E3,1.0537094E4,7.2996875E2,7.194531E2,9.495078E2,1.4819375E3,1.9854297E3,1.9488008E3,1.6391934E3,3.073084E3,3.503916E3,1.2599243E3,5.319828E3,1.1852529E3,3.2717656E3,1.8878906E3,1.24875E3,5.7578906E2,2.0039062E2,1.109375E1,6.518203E2,0E0,2.244541E2,3.945E2,1.3303516E2,1.3817266E3,3.565078E2,9.6358594E2,1.4709219E3,6.2747656E2,7.1591797E2,1.2115698E3,1.2532944E3,3.3309614E3,1.7408721E3,2.3389297E3,5.2142053E2,3.0049786E2,1.4133125E3,1.1202422E3,3.5587695E2,2.5171973E2,1.5065156E3,4.0996484E2,9.623125E2,2.500664E2,6.868125E2,4.0942188E2,0E0,0E0,0E0,0E0,0E0,0E0,0E0,0E0,0E0,0E0,0E0,0E0,0E0,0E0,0E0,0E0,0E0,0E0,0E0,0E0,0E0,0E0,0E0,0E0,0E0,0E0,0E0,0E0,0E0,0E0,0E0,0E0,0E0,0E0,0E0,0E0,0E0,0E0,0E0,0E0,0E0,0E0,0E0,0E0,0E0,0E0,0E0,0E0,0E0,0E0,0E0,0E0,0E0,0E0,0E0,0E0,0E0,0E0,0E0,0E0],"parents":[2147483647,0,0,1,1,2,2,3,3,4,4,5,5,6,6,7,7,8,8,9,9,10,10,11,11,12,12,13,13,14,14,15,15,16,16,17,17,18,18,19,19,20,20,21,21,22,22,23,23,24,24,25,25,26,26,27,27,28,28,29,29,30,30,31,31,32,32,33,33,35,35,36,36,37,37,38,38,39,39,40,40,41,41,42,42,43,43,44,44,45,45,46,46,47,47,48,48,49,49,50,50,51,51,52,52,53,53,54,54,55,55,56,56,57,57,58,58,59,59,60,60],"right_children":[2,4,6,8,10,12,14,16,18,20,22,24,26,28,30,32,34,36,38,40,42,44,46,48,50,52,54,56,58,60,62,64,66,68,-1,70,72,74,76,78,80,82,84,86,88,90,92,94,96,98,100,102,104,106,108,110,112,114,116,118,120,-1,-1,-1,-1,-1,-1,-1,-1,-1,-1,-1,-1,-1,-1,-1,-1,-1,-1,-1,-1,-1,-1,-1,-1,-1,-1,-1,-1,-1,-1,-1,-1,-1,-1,-1,-1,-1,-1,-1,-1,-1,-1,-1,-1,-1,-1,-1,-1,-1,-1,-1,-1,-1,-1,-1,-1,-1,-1,-1,-1],"split_conditions":[1.411574E-2,-1.0892484E0,1.008201E0,-1.8083739E0,-4.660063E-1,5.0199306E-1,1.768923E0,-2.3618186E0,-1.4600916E0,-7.5083643E-1,-9.228555E-2,1.0001173E0,7.0722926E-1,1.3353326E0,2.343981E0,-2.6938853E0,1.2248582E0,-1.808333E0,-1.263866E0,-9.478708E-1,1.0001173E0,-2.5943398E-1,-3.0911618E-1,4.917413E-1,1.9389713E-1,-7.0695925E-1,5.3194606E-1,7.0722926E-1,7.0722926E-1,2.1792476E0,3.0027747E0,-5.264874E-1,1.0687675E1,-7.0695925E-1,-8.145693E-1,1.2028457E0,-1.7576085E0,7.069434E-1,-1.4600053E0,9.998418E-1,1.3658737E0,-7.0695925E-1,3.6585596E-1,1.0001173E0,1.3726922E0,1.0001173E0,3.337437E-1,2.1081772E-1,-3.0911618E-1,3.6585596E-1,1.34836E-1,7.882332E-1,1.0419115E0,-4.233985E-1,6.8741465E-1,-9.998473E-1,1.6779132E0,-9.998473E-1,1.2048465E0,7.0722926E-1,-1.2969843E0,9.772897E-1,1.2118025E0,-1.047062E0,-3.5474375E-1,-9.022711E-1,-2.568127E-1,-7.9323786E-1,-6.609303E-1,-4.967607E-1,-3.1446195E-1,-6.815469E-1,-5.809961E-1,-5.530218E-1,-4.7608596E-1,-2.9257926E-1,-4.4254848E-1,-4.100204E-1,-3.3192614E-1,-3.1345275E-1,-2.1752773E-1,-2.4498025E-1,-1.5505688E-1,-3.086124E-1,-2.3413913E-1,-1.238743E-1,-1.864581E-1,-6.7533545E-2,-1.7027794E-1,-4.4972464E-2,-1.5253063E-1,-2.9823216E-4,2.0637308E-1,5.4375976E-2,1.2340174E-1,1.1471929E-1,2.3707758E-1,-5.9127416E-2,1.56244645E-2,1.8812936E-2,7.169002E-2,2.0317304E-1,2.9873294E-1,3.4251362E-1,4.3864712E-1,1.6764618E-1,9.780511E-2,1.6784486E-1,2.506558E-1,3.793213E-1,4.8213425E-1,3.2079297E-1,1.7502828E-1,5.0346696E-1,6.04024E-1,4.150278E-1,5.075084E-1,7.215168E-1,5.786454E-1,1.5184845E-1,8.308843E-1],"split_indices":[67,67,67,67,67,67,67,67,67,67,24,59,59,67,24,67,59,68,24,24,59,67,51,24,67,59,24,59,59,67,24,70,39,59,0,75,24,58,69,58,58,59,58,59,49,59,24,67,51,58,24,67,24,51,67,59,75,59,24,59,62,0,0,0,0,0,0,0,0,0,0,0,0,0,0,0,0,0,0,0,0,0,0,0,0,0,0,0,0,0,0,0,0,0,0,0,0,0,0,0,0,0,0,0,0,0,0,0,0,0,0,0,0,0,0,0,0,0,0,0,0],"split_type":[0,0,0,0,0,0,0,0,0,0,0,0,0,0,0,0,0,0,0,0,0,0,0,0,0,0,0,0,0,0,0,0,0,0,0,0,0,0,0,0,0,0,0,0,0,0,0,0,0,0,0,0,0,0,0,0,0,0,0,0,0,0,0,0,0,0,0,0,0,0,0,0,0,0,0,0,0,0,0,0,0,0,0,0,0,0,0,0,0,0,0,0,0,0,0,0,0,0,0,0,0,0,0,0,0,0,0,0,0,0,0,0,0,0,0,0,0,0,0,0,0],"sum_hessian":[2.2896E4,1.1583E4,1.1313E4,2.686E3,8.897E3,7.846E3,3.467E3,1.08E3,1.606E3,4.038E3,4.859E3,4.896E3,2.95E3,2.669E3,7.98E2,4.48E2,6.32E2,6.22E2,9.84E2,1.802E3,2.236E3,2.754E3,2.105E3,3.508E3,1.388E3,2.105E3,8.45E2,1.511E3,1.158E3,6.39E2,1.59E2,1.81E2,2.67E2,4.34E2,1.98E2,1.13E2,5.09E2,3.36E2,6.48E2,5.97E2,1.205E3,1.396E3,8.4E2,1.328E3,1.426E3,9.43E2,1.162E3,2.454E3,1.054E3,6.63E2,7.25E2,1.098E3,1.007E3,5.21E2,3.24E2,1.119E3,3.92E2,8.36E2,3.22E2,4.31E2,2.08E2,7.2E1,8.7E1,1.79E2,2E0,2.66E2,1E0,1.27E2,3.07E2,9.2E1,2.1E1,1.4E2,3.69E2,1.88E2,1.48E2,1.4E2,5.08E2,4.26E2,1.71E2,9.78E2,2.27E2,4.6E2,9.36E2,3.36E2,5.04E2,8.3E2,4.98E2,1.197E3,2.29E2,6.98E2,2.45E2,1.013E3,1.49E2,1.25E3,1.204E3,5.14E2,5.4E2,4.12E2,2.51E2,3.37E2,3.88E2,6.5E2,4.48E2,6.89E2,3.18E2,2.08E2,3.13E2,9.8E1,2.26E2,4E2,7.19E2,3.52E2,4E1,2.95E2,5.41E2,2.14E2,1.08E2,3.27E2,1.04E2,2E0,2.06E2],"tree_param":{"num_deleted":"0","num_feature":"78","num_nodes":"121","size_leaf_vector":"1"}},{"base_weights":[3.1537704E-2,-6.1660833E0,6.580806E0,-1.4342321E1,-3.4328544E0,3.7416918E0,1.2774609E1,-1.9405985E1,-1.1402322E1,-5.909625E0,-1.5396247E0,2.2107186E0,6.389144E0,1.0873933E1,1.9061573E1,-2.1954376E1,-1.6882679E1,-1.3337938E1,-9.932617E0,-7.1235423E0,-4.7564855E0,-2.51792E0,-2.1002355E-1,2.8989136E0,4.1596588E-1,7.3016353E0,4.0236835E0,9.755702E0,1.2795104E1,1.7254633E1,2.6294426E1,-2.4400381E1,-2.0683714E1,-1.2445364E1,-1.721763E1,-1.2241894E1,-1.5028987E1,-1.0408807E1,-7.0511804E0,-6.3592567E0,-8.474404E0,-5.5276666E0,-3.749188E0,-3.261032E0,-1.6425934E0,-1.4492189E0,8.303514E-1,2.2554424E0,4.453126E0,-4.4225487E-1,1.3235676E0,5.8225446E0,8.867115E0,3.1777909E0,5.289105E0,1.0583885E1,7.3925333E0,1.3336772E1,9.762397E0,1.6150454E1,1.9449375E1,9.322695E-1,1.1779073E0,-1.0042404E0,-3.4506363E-1,-8.4807366E-1,-1.6260636E-1,-8.285447E-2,-5.4009324E-1,-7.3674667E-1,-6.122515E-1,-5.820668E-1,-4.524877E-1,-6.6558486E-1,-5.7269543E-1,-2.81197E-1,-4.396532E-1,-3.2044742E-1,-1.2701419E-1,-3.3811212E-1,-2.3541315E-1,-3.924608E-1,-3.1456268E-1,-2.0370807E-1,-2.524844E-1,-6.698825E-2,-1.7714217E-1,-1.0915499E-1,-1.7275369E-1,-8.504831E-2,4.8903343E-3,-3.225583E-2,-1.4116164E-1,3.9659096E-3,1.7950316E-1,7.1961924E-2,1.4632525E-1,1.18804365E-1,2.4452431E-1,-1.1138734E-1,-7.557714E-3,2.5058424E-2,8.233713E-2,2.0111433E-1,2.8527322E-1,2.9470092E-1,3.9202964E-1,1.6863592E-1,1.0162508E-1,1.4352396E-1,2.3336081E-1,3.7180573E-1,4.6671775E-1,2.6693833E-1,3.550546E-1,5.157446E-1,6.085655E-1,1.9517392E-1,4.095205E-1,6.913494E-1,5.542108E-1,1.477049E-1,8.015358E-1],"categories":[],"categories_nodes":[],"categories_segments":[],"categories_sizes":[],"default_left":[0,0,0,0,0,0,0,0,0,0,0,0,0,0,0,0,0,0,0,0,0,0,0,0,0,0,0,0,0,0,0,0,0,0,0,0,0,0,0,0,0,0,0,0,0,0,0,0,0,0,0,0,0,0,0,0,0,0,0,0,0,0,0,0,0,0,0,0,0,0,0,0,0,0,0,0,0,0,0,0,0,0,0,0,0,0,0,0,0,0,0,0,0,0,0,0,0,0,0,0,0,0,0,0,0,0,0,0,0,0,0,0,0,0,0,0,0,0,0,0,0,0,0],"id":12,"left_children":[1,3,5,7,9,11,13,15,17,19,21,23,25,27,29,31,33,35,37,39,41,43,45,47,49,51,53,55,57,59,61,63,65,67,69,71,73,75,77,79,81,83,85,87,89,91,93,95,97,99,101,103,105,107,109,111,113,115,117,119,121,-1,-1,-1,-1,-1,-1,-1,-1,-1,-1,-1,-1,-1,-1,-1,-1,-1,-1,-1,-1,-1,-1,-1,-1,-1,-1,-1,-1,-1,-1,-1,-1,-1,-1,-1,-1,-1,-1,-1,-1,-1,-1,-1,-1,-1,-1,-1,-1,-1,-1,-1,-1,-1,-1,-1,-1,-1,-1,-1,-1,-1,-1],"loss_changes":[9.2841225E5,2.625789E5,1.95514E5,4.3606562E4,4.129714E4,3.0899477E4,4.1556125E4,6.5741562E3,5.1730312E3,5.307828E3,6.495379E3,5.969457E3,6.0013594E3,5.6455312E3,1.0132469E4,1.1550156E3,5.9871875E2,1.3024844E3,1.3865312E3,1.8633594E3,1.5018164E3,1.8660332E3,2.7317876E3,3.4842754E3,1.0451206E3,4.614078E3,8.181123E2,3.2527969E3,1.487875E3,1.2635156E3,7.422969E2,1.7291406E2,1.3114062E2,3.0143506E2,6.247656E2,9.984453E2,1.6996875E2,9.978906E2,4.485581E2,1.327707E3,5.1358203E2,3.6041406E2,1.0355674E3,8.75416E2,1.0148711E3,1.2756827E3,3.003452E3,1.6165049E3,2.3928184E3,4.0460535E2,3.1787842E2,1.0491562E3,1.0885469E3,2.9752148E2,2.0851367E2,1.4412969E3,4.4022852E2,7.521094E2,1.3770117E2,6.193281E2,3.782422E2,0E0,0E0,0E0,0E0,0E0,0E0,0E0,0E0,0E0,0E0,0E0,0E0,0E0,0E0,0E0,0E0,0E0,0E0,0E0,0E0,0E0,0E0,0E0,0E0,0E0,0E0,0E0,0E0,0E0,0E0,0E0,0E0,0E0,0E0,0E0,0E0,0E0,0E0,0E0,0E0,0E0,0E0,0E0,0E0,0E0,0E0,0E0,0E0,0E0,0E0,0E0,0E0,0E0,0E0,0E0,0E0,0E0,0E0,0E0,0E0,0E0,0E0],"parents":[2147483647,0,0,1,1,2,2,3,3,4,4,5,5,6,6,7,7,8,8,9,9,10,10,11,11,12,12,13,13,14,14,15,15,16,16,17,17,18,18,19,19,20,20,21,21,22,22,23,23,24,24,25,25,26,26,27,27,28,28,29,29,30,30,31,31,32,32,33,33,34,34,35,35,36,36,37,37,38,38,39,39,40,40,41,41,42,42,43,43,44,44,45,45,46,46,47,47,48,48,49,49,50,50,51,51,52,52,53,53,54,54,55,55,56,56,57,57,58,58,59,59,60,60],"right_children":[2,4,6,8,10,12,14,16,18,20,22,24,26,28,30,32,34,36,38,40,42,44,46,48,50,52,54,56,58,60,62,64,66,68,70,72,74,76,78,80,82,84,86,88,90,92,94,96,98,100,102,104,106,108,110,112,114,116,118,120,122,-1,-1,-1,-1,-1,-1,-1,-1,-1,-1,-1,-1,-1,-1,-1,-1,-1,-1,-1,-1,-1,-1,-1,-1,-1,-1,-1,-1,-1,-1,-1,-1,-1,-1,-1,-1,-1,-1,-1,-1,-1,-1,-1,-1,-1,-1,-1,-1,-1,-1,-1,-1,-1,-1,-1,-1,-1,-1,-1,-1,-1,-1],"split_conditions":[3.4561466E-2,-1.0272062E0,1.008201E0,-1.8083739E0,-4.5543092E-1,5.323091E-1,1.768923E0,-2.2610002E0,-1.3620931E0,-7.000746E-1,-6.618773E-2,1.0001173E0,7.0722926E-1,1.3790442E0,2.343981E0,-2.6938853E0,-1.2249426E0,1.0001173E0,1.3658737E0,1.0001173E0,-4.1745025E-1,-2.1431237E-1,-3.0911618E-1,5.0443757E-1,2.3478858E-1,-7.0695925E-1,5.3194606E-1,7.0722926E-1,1.0001173E0,2.1792476E0,3.0027747E0,-5.264874E-1,6.0192496E-1,7.912648E-2,1.2245907E0,-7.0695925E-1,3.6585596E-1,-1.2249426E0,-2.0801716E-1,-9.998473E-1,3.6585596E-1,1.0001173E0,-7.120678E-1,1.0001173E0,9.998418E-1,1.0001173E0,3.0552983E-1,3.341971E-1,-3.0911618E-1,-1.1433169E0,1.6869263E-1,7.882332E-1,6.719041E-1,-4.233985E-1,-7.662454E-1,-9.998473E-1,8.9378875E-1,1.575471E0,3.0880606E-1,7.0722926E-1,-1.2969843E0,9.322695E-1,1.1779073E0,-1.0042404E0,-3.4506363E-1,-8.4807366E-1,-1.6260636E-1,-8.285447E-2,-5.4009324E-1,-7.3674667E-1,-6.122515E-1,-5.820668E-1,-4.524877E-1,-6.6558486E-1,-5.7269543E-1,-2.81197E-1,-4.396532E-1,-3.2044742E-1,-1.2701419E-1,-3.3811212E-1,-2.3541315E-1,-3.924608E-1,-3.1456268E-1,-2.0370807E-1,-2.524844E-1,-6.698825E-2,-1.7714217E-1,-1.0915499E-1,-1.7275369E-1,-8.504831E-2,4.8903343E-3,-3.225583E-2,-1.4116164E-1,3.9659096E-3,1.7950316E-1,7.1961924E-2,1.4632525E-1,1.18804365E-1,2.4452431E-1,-1.1138734E-1,-7.557714E-3,2.5058424E-2,8.233713E-2,2.0111433E-1,2.8527322E-1,2.9470092E-1,3.9202964E-1,1.6863592E-1,1.0162508E-1,1.4352396E-1,2.3336081E-1,3.7180573E-1,4.6671775E-1,2.6693833E-1,3.550546E-1,5.157446E-1,6.085655E-1,1.9517392E-1,4.095205E-1,6.913494E-1,5.542108E-1,1.477049E-1,8.015358E-1],"split_indices":[67,67,67,67,67,67,67,67,67,67,24,59,59,67,24,67,58,59,58,59,24,67,51,24,67,59,24,59,59,67,24,70,70,54,58,59,58,58,71,59,58,59,68,59,58,59,24,67,51,55,24,67,67,51,51,59,24,70,76,59,62,0,0,0,0,0,0,0,0,0,0,0,0,0,0,0,0,0,0,0,0,0,0,0,0,0,0,0,0,0,0,0,0,0,0,0,0,0,0,0,0,0,0,0,0,0,0,0,0,0,0,0,0,0,0,0,0,0,0,0,0,0,0],"split_type":[0,0,0,0,0,0,0,0,0,0,0,0,0,0,0,0,0,0,0,0,0,0,0,0,0,0,0,0,0,0,0,0,0,0,0,0,0,0,0,0,0,0,0,0,0,0,0,0,0,0,0,0,0,0,0,0,0,0,0,0,0,0,0,0,0,0,0,0,0,0,0,0,0,0,0,0,0,0,0,0,0,0,0,0,0,0,0,0,0,0,0,0,0,0,0,0,0,0,0,0,0,0,0,0,0,0,0,0,0,0,0,0,0,0,0,0,0,0,0,0,0,0,0],"sum_hessian":[2.2871E4,1.1751E4,1.112E4,2.943E3,8.808E3,7.626E3,3.494E3,1.079E3,1.864E3,3.815E3,4.993E3,4.833E3,2.793E3,2.685E3,8.09E2,5.33E2,5.46E2,8.01E2,1.063E3,1.856E3,1.959E3,2.876E3,2.117E3,3.493E3,1.34E3,2.014E3,7.79E2,1.701E3,9.84E2,6.5E2,1.59E2,1.76E2,3.57E2,4.1E1,5.05E2,4.91E2,3.1E2,9.1E2,1.53E2,1.189E3,6.67E2,1.107E3,8.52E2,1.554E3,1.322E3,9.66E2,1.151E3,2.472E3,1.021E3,6.89E2,6.51E2,1.038E3,9.76E2,4.69E2,3.1E2,1.257E3,4.44E2,8.32E2,1.52E2,4.38E2,2.12E2,7E1,8.9E1,1.74E2,2E0,3.56E2,1E0,3E0,3.8E1,3.7E2,1.35E2,1.8E2,3.11E2,1.35E2,1.75E2,8E1,8.3E2,1.27E2,2.6E1,2.85E2,9.04E2,2.72E2,3.95E2,6E2,5.07E2,1.84E2,6.68E2,9.62E2,5.92E2,1.06E3,2.62E2,7.27E2,2.39E2,9.55E2,1.96E2,1.797E3,6.75E2,5.07E2,5.14E2,6.9E1,6.2E2,3.21E2,3.3E2,5.82E2,4.56E2,2.95E2,6.81E2,1.97E2,2.72E2,6E1,2.5E2,4.48E2,8.09E2,2.68E2,1.76E2,5.68E2,2.64E2,8E0,1.44E2,3.37E2,1.01E2,2E0,2.1E2],"tree_param":{"num_deleted":"0","num_feature":"78","num_nodes":"123","size_leaf_vector":"1"}},{"base_weights":[-2.0896638E-2,-6.029749E0,6.217315E0,-1.4294978E1,-3.5610316E0,3.6883988E0,1.2775914E1,-1.943394E1,-1.1676938E1,-5.9312315E0,-1.6032385E0,1.9752805E0,6.2675424E0,1.1079348E1,1.9358673E1,-2.2117264E1,-1.7602524E1,-1.3650247E1,-1.0071156E1,-7.358058E0,-4.786758E0,-2.5016646E0,-3.5445017E-1,9.9123245E-1,3.1858232E0,7.1671557E0,3.9449008E0,9.934177E0,1.3107215E1,1.7087315E1,2.4912666E1,-2.2342354E1,-1.4355836E1,-8.1444687E-1,-1.684296E1,-1.2623152E1,-1.5188296E1,-9.06657E0,-1.1588324E1,-8.753642E0,-6.6459694E0,-4.120752E0,-5.9192986E0,-3.3146596E0,-1.8018243E0,-1.5805236E0,6.9394666E-1,1.6644855E0,-1.1287081E-1,2.7617595E0,5.825286E0,5.3329983E0,8.289136E0,3.0247993E0,5.2829647E0,1.0691411E1,7.7484336E0,1.3974785E1,1.0941265E1,1.7835814E1,1.4171004E1,2.1956799E1,1.1428838E0,-9.6770483E-1,-8.5382044E-1,-6.6325885E-1,-1.1433629E-1,-6.946624E-1,-2.1705796E-1,-5.9169406E-1,-4.7540626E-1,-6.625122E-1,-5.8201176E-1,-4.7686234E-1,-3.372869E-1,-5.405768E-1,-4.3431848E-1,-3.776051E-1,-3.0656248E-1,-2.8829384E-1,-2.0041016E-1,-2.263057E-1,-1.4033608E-1,-2.8211707E-1,-2.1404724E-1,-1.1376117E-1,-1.7173034E-1,-5.6268994E-2,-1.5068397E-1,-8.585039E-2,3.4048587E-2,9.877636E-3,2.3805638E-1,2.3377622E-2,9.7481996E-2,-2.5984736E-2,3.9210856E-2,9.2479154E-2,1.5711479E-1,8.28669E-2,2.5535306E-1,1.734576E-1,2.6783812E-1,3.1729934E-1,4.366427E-1,1.7123665E-1,8.9430355E-2,1.4779301E-1,2.3893143E-1,3.8314012E-1,4.679236E-1,2.8763843E-1,3.7388748E-1,4.9957183E-1,6.0929304E-1,4.10019E-1,5.1959753E-1,8.549704E-1,7.080144E-1,3.9715683E-1,6.057913E-1,6.433488E-2,9.067437E-1],"categories":[],"categories_nodes":[],"categories_segments":[],"categories_sizes":[],"default_left":[0,0,0,0,0,0,0,0,0,0,0,0,0,0,0,0,0,0,0,0,0,0,0,0,0,0,0,0,0,0,0,0,0,0,0,0,0,0,0,0,0,0,0,0,0,0,0,0,0,0,0,0,0,0,0,0,0,0,0,0,0,0,0,0,0,0,0,0,0,0,0,0,0,0,0,0,0,0,0,0,0,0,0,0,0,0,0,0,0,0,0,0,0,0,0,0,0,0,0,0,0,0,0,0,0,0,0,0,0,0,0,0,0,0,0,0,0,0,0,0,0,0,0],"id":13,"left_children":[1,3,5,7,9,11,13,15,17,19,21,23,25,27,29,31,33,35,37,39,41,43,45,47,49,51,53,55,57,59,61,63,65,-1,67,69,71,73,75,77,79,81,83,85,87,89,91,93,95,97,99,101,103,105,107,109,111,113,115,117,119,121,-1,-1,-1,-1,-1,-1,-1,-1,-1,-1,-1,-1,-1,-1,-1,-1,-1,-1,-1,-1,-1,-1,-1,-1,-1,-1,-1,-1,-1,-1,-1,-1,-1,-1,-1,-1,-1,-1,-1,-1,-1,-1,-1,-1,-1,-1,-1,-1,-1,-1,-1,-1,-1,-1,-1,-1,-1,-1,-1,-1,-1],"loss_changes":[8.566705E5,2.3747803E5,1.8593338E5,3.5789438E4,4.1591336E4,3.574996E4,3.462997E4,4.043375E3,5.490125E3,6.586453E3,5.5089795E3,5.7921875E3,6.720758E3,5.6359375E3,7.6227344E3,3.1167188E2,6.080469E2,1.0625625E3,1.3931484E3,1.7336016E3,1.675E3,1.618998E3,2.6439028E3,1.9960579E3,2.4251074E3,4.744492E3,1.0969834E3,2.5504375E3,1.5251562E3,7.42625E2,1.01471875E3,1.8126562E2,2.3256152E2,0E0,5.220781E2,7.22875E2,7.246094E1,1.1763711E3,4.7369922E2,2.9219922E2,7.9847656E2,1.3670645E3,5.225215E2,6.108379E2,1.2288052E3,1.1838525E3,2.5696602E3,1.3064307E3,5.696087E2,1.008834E3,4.6016992E2,1.1469941E3,1.7596719E3,5.144487E2,3.1915918E2,1.0548906E3,3.4859766E2,8.403594E2,2.9401562E2,2.2842969E2,1.318789E2,3.526836E2,0E0,0E0,0E0,0E0,0E0,0E0,0E0,0E0,0E0,0E0,0E0,0E0,0E0,0E0,0E0,0E0,0E0,0E0,0E0,0E0,0E0,0E0,0E0,0E0,0E0,0E0,0E0,0E0,0E0,0E0,0E0,0E0,0E0,0E0,0E0,0E0,0E0,0E0,0E0,0E0,0E0,0E0,0E0,0E0,0E0,0E0,0E0,0E0,0E0,0E0,0E0,0E0,0E0,0E0,0E0,0E0,0E0,0E0,0E0,0E0,0E0],"parents":[2147483647,0,0,1,1,2,2,3,3,4,4,5,5,6,6,7,7,8,8,9,9,10,10,11,11,12,12,13,13,14,14,15,15,16,16,17,17,18,18,19,19,20,20,21,21,22,22,23,23,24,24,25,25,26,26,27,27,28,28,29,29,30,30,31,31,32,32,34,34,35,35,36,36,37,37,38,38,39,39,40,40,41,41,42,42,43,43,44,44,45,45,46,46,47,47,48,48,49,49,50,50,51,51,52,52,53,53,54,54,55,55,56,56,57,57,58,58,59,59,60,60,61,61],"right_children":[2,4,6,8,10,